window.PRETRAINED_WEIGHTS = {"config":{"inputSize":28,"numClasses":3,"convLayers":1,"numFilters":6,"filterSize":3,"learningRate":0.02,"epochs":12},"layers":[{"type":"Conv2D","inChannels":1,"numFilters":6,"fSize":3,"W":[[[[-0.45833200216293335,-0.2833440601825714,-0.35943037271499634],[-0.1486784964799881,-0.45167112350463867,-0.06776246428489685],[0.39867499470710754,0.2503361403942108,-0.3238462507724762]]],[[[0.4842239320278168,0.030214382335543633,-1.660843849182129],[0.3547753393650055,0.03151268512010574,0.037729401141405106],[-0.7800233364105225,-1.1582515239715576,0.2430282086133957]]],[[[-0.955265998840332,0.25950273871421814,-0.13534115254878998],[-0.7119902968406677,0.908751904964447,-0.5351805686950684],[-1.1113044023513794,0.8339834213256836,0.036108389496803284]]],[[[0.1277749091386795,0.30748286843299866,-0.535641610622406],[0.8562971949577332,0.31762051582336426,-0.6489984393119812],[0.0640597939491272,-0.9003164172172546,-1.1578679084777832]]],[[[-1.035863995552063,-0.8101077079772949,-0.9738463163375854],[-0.5105083584785461,0.09122178703546524,-0.5248661637306213],[0.47696828842163086,0.6191620230674744,0.4471030831336975]]],[[[-0.719568133354187,0.3338818848133087,0.7916181683540344],[-0.9165433049201965,-0.33253213763237,0.6488791704177856],[-0.5803402662277222,-0.7769997119903564,-0.29103192687034607]]]],"b":[-0.023842519149184227,-0.18876154720783234,-0.26187440752983093,-0.37930402159690857,-0.4764455556869507,-0.33757704496383667]},{"type":"ReLU"},{"type":"MaxPool2D","size":2},{"type":"Flatten"},{"type":"Dense","inDim":1014,"outDim":3,"W":[[0.02703648805618286,0.07600463926792145,0.004695555195212364,0.0190937090665102,0.039127759635448456,0.009381442330777645,0.03330441936850548,0.056108538061380386,0.03446919843554497,0.07366670668125153,0.0654400959610939,-0.005634566303342581,0.041265759617090225,-0.035474058240652084,-0.09730510413646698,-0.08969557285308838,-0.005883161909878254,-0.01162529643625021,0.0940546840429306,0.08919060230255127,0.1115681380033493,-0.017826177179813385,-0.0647883340716362,0.04356447979807854,-0.01559346355497837,0.07454872876405716,-0.05389689654111862,-0.047173112630844116,-0.16395343840122223,-0.06406726688146591,-0.009870730340480804,0.08584831655025482,0.0822281539440155,0.02137700840830803,0.11057043820619583,0.14233002066612244,0.13959677517414093,-0.020084556192159653,0.028313493356108665,-0.10545828938484192,-0.12918035686016083,-0.228536456823349,-0.07875597476959229,-0.06940697133541107,-0.045445043593645096,0.005676498170942068,0.05183788388967514,0.09672544151544571,0.12006574869155884,0.1209748238325119,0.02412150800228119,-0.028985731303691864,-0.05514710769057274,-0.15009455382823944,-0.10724250972270966,-0.24866628646850586,-0.04404871165752411,0.09896817803382874,-0.03968990966677666,-0.08173777163028717,0.012107016518712044,0.03316548839211464,0.018483608961105347,-0.004245365504175425,-0.037942491471767426,-0.10104506462812424,-0.07827296108007431,-0.10832256823778152,-0.13662707805633545,-0.10500788688659668,-0.0069761197082698345,0.03472137451171875,0.0888928547501564,-0.028731632977724075,0.04757588356733322,-0.011078113690018654,-0.06173228472471237,-0.09153285622596741,-0.009691630490124226,-0.14513219892978668,-0.17560148239135742,-0.13967566192150116,-0.020635172724723816,-0.03462660312652588,-0.05023491010069847,-0.013371485285460949,-0.11695004254579544,-0.11606717854738235,-0.09230276942253113,-0.046468764543533325,-0.16681189835071564,-0.05831647664308548,-0.09367857873439789,-0.06028656288981438,-0.05655108764767647,0.0012167355744168162,0.05180840566754341,0.061146002262830734,-0.014881925657391548,0.06376175582408905,-0.12270009517669678,-0.23000653088092804,-0.2058781236410141,-0.11140438169240952,0.005556793417781591,0.0028883288614451885,-0.04630530998110771,-0.10156629234552383,0.05754952132701874,-0.026054780930280685,-0.1155121847987175,0.09509766101837158,-0.11257319152355194,-0.18060317635536194,-0.19527338445186615,-0.15462252497673035,-0.0864180326461792,-0.018314801156520844,-0.021051090210676193,0.049733638763427734,0.021001504734158516,-0.02032400295138359,0.03348458185791969,-0.043781522661447525,-0.12413626164197922,0.06974561512470245,-0.03378739207983017,-0.13828445971012115,-0.06513374298810959,-0.06560016423463821,0.037088047713041306,0.0012032769154757261,-0.0593160018324852,-0.028784139081835747,0.041345156729221344,0.0027548556681722403,0.03484161198139191,-0.03853220120072365,0.07723000645637512,-0.0745837464928627,-0.06467142701148987,0.010330330580472946,-0.04603366553783417,0.0371558852493763,0.04274706915020943,0.030667979270219803,-0.03971118852496147,0.017863593995571136,0.007627035491168499,0.018021145835518837,-0.03484192490577698,-0.061811164021492004,0.03509281203150749,-0.012471829541027546,-0.012989751063287258,0.03617902100086212,-0.022375229746103287,-0.02998843789100647,0.017090005800127983,-0.018319280818104744,-0.01517031155526638,-0.02175026386976242,-0.08613844215869904,-0.01591813750565052,0.013086902908980846,-0.006793817039579153,-0.028593027964234352,-0.014870624989271164,-0.02845202572643757,0.06708396226167679,0.01266404241323471,0.04373279586434364,0.011077235452830791,0.003946333192288876,0.034763939678668976,0.012916014529764652,0.031368643045425415,0.037123799324035645,-0.01912929117679596,0.01659262739121914,0.046211741864681244,0.09618213027715683,0.03318413347005844,0.02849842980504036,0.040145792067050934,0.05221342295408249,-0.011859073303639889,-0.12808319926261902,-0.1195710301399231,-0.08837206661701202,0.041680268943309784,0.07976105064153671,0.07757539302110672,0.021775072440505028,0.03236125409603119,0.09274202585220337,0.08586610853672028,0.15689730644226074,0.14934052526950836,-0.09201314300298691,-0.25860223174095154,-0.22850236296653748,-0.13191688060760498,0.14277684688568115,0.04725279659032822,-0.02293005771934986,-0.13579292595386505,-0.03836054354906082,0.09943196922540665,0.2027103304862976,0.15800896286964417,0.10879073292016983,-0.09456655383110046,-0.21158352494239807,-0.30416154861450195,-0.235205739736557,-0.13177287578582764,-0.039607614278793335,-0.1333378106355667,-0.09647168219089508,-0.054084353148937225,0.06686868518590927,-0.012296672910451889,0.1061219647526741,0.18960663676261902,-0.017863862216472626,0.01897025667130947,-0.2848407030105591,-0.18443207442760468,-0.31424757838249207,-0.13095876574516296,-0.07794138044118881,-0.3500162363052368,-0.20210541784763336,-0.06173301115632057,-0.0638798400759697,-0.1036192998290062,-0.06184830516576767,-0.13379330933094025,0.044447075575590134,-0.02586328238248825,0.010352851822972298,-0.0777033343911171,-0.2320784330368042,-0.10262486338615417,-0.28591617941856384,-0.12044607847929001,-0.09378806501626968,-0.18381480872631073,-0.29765555262565613,-0.12857657670974731,-0.06633155792951584,0.1334349513053894,-0.009365980513393879,0.08832274377346039,0.06500079482793808,0.07486850768327713,0.06583073735237122,-0.07040339708328247,-0.2324426919221878,-0.1500118225812912,-0.1519468128681183,-0.272405743598938,-0.15339988470077515,0.035672854632139206,-0.1661529690027237,0.11901479214429855,0.2851257026195526,0.09764240682125092,0.18764884769916534,0.29078209400177,0.05769835039973259,-0.14519888162612915,-0.08044538646936417,-0.20533250272274017,-0.3243405818939209,-0.21031725406646729,0.030997101217508316,0.0596577413380146,-0.09770025312900543,-0.014200820587575436,0.0311039499938488,0.2035970389842987,0.27443718910217285,0.3770933747291565,0.1532135158777237,-0.030621662735939026,-0.0903560221195221,-0.27217310667037964,-0.11579781025648117,-0.04077278822660446,-0.1596633940935135,-0.06443413347005844,0.12989507615566254,0.15764930844306946,0.2797597050666809,0.46836361289024353,0.14048022031784058,0.22894033789634705,-0.010364704765379429,-0.060279350727796555,-0.09252670407295227,-0.17403453588485718,-0.2863461673259735,-0.08484354615211487,-0.19912435114383698,-0.06913255155086517,0.12719903886318207,0.18514081835746765,0.1320350021123886,0.18546408414840698,0.3610457479953766,0.07668263465166092,0.04281200096011162,-0.010880006477236748,-0.028413036838173866,-0.17286622524261475,-0.2761250138282776,-0.2084694504737854,-0.12782686948776245,0.05796195939183235,0.17987367510795593,0.09321574866771698,0.286721795797348,0.12807808816432953,0.02073127217590809,0.06982451677322388,0.0047159031964838505,0.0009186655515804887,-0.09479591995477676,-0.25483566522598267,-0.20507030189037323,-0.2240339070558548,-0.061512116342782974,-0.09260331094264984,0.03669074550271034,0.030592313036322594,0.017342783510684967,-0.02444283291697502,0.0425436869263649,-0.036626532673835754,-0.005082030780613422,-0.029894491657614708,-0.048650965094566345,0.03416171669960022,-0.1569644659757614,-0.0450592115521431,-0.014608236961066723,-0.042412951588630676,-0.006635997444391251,-0.025382550433278084,-0.03764679282903671,-0.013045194558799267,0.0615152046084404,0.11161068081855774,-0.012855309061706066,0.16949287056922913,-0.14207319915294647,-0.020044900476932526,-0.10515985637903214,-0.13087624311447144,-0.08943389356136322,-0.06686858832836151,0.0026516709476709366,-0.025744512677192688,-0.13384875655174255,-0.004679730627685785,-0.011347067542374134,-0.09779646247625351,0.20039832592010498,-0.024984808638691902,-0.0736313909292221,-0.09859011322259903,-0.01612168177962303,-0.14529907703399658,-0.015090502798557281,0.002148382132872939,0.07520376145839691,0.040004417300224304,-0.12001725286245346,0.030479665845632553,0.022583726793527603,-0.04139775410294533,-0.005697326269000769,-0.015514965169131756,-0.19198690354824066,-0.2555840313434601,-0.20896093547344208,-0.06145738810300827,0.0152601208537817,0.07759834080934525,0.030410004779696465,0.16288413107395172,0.0018652314320206642,0.14557315409183502,0.05477858707308769,-0.05899970978498459,-0.02111584134399891,-0.19749478995800018,-0.30419567227363586,-0.12139463424682617,0.11287422478199005,0.07497194409370422,0.1197366937994957,0.43845367431640625,0.006097116973251104,0.0872151181101799,0.04070339724421501,0.09036141633987427,0.06443803012371063,0.04026644304394722,-0.022219864651560783,-0.16243228316307068,0.11210677027702332,0.08542009443044662,-0.028489384800195694,0.18082359433174133,0.3392932116985321,-0.13795329630374908,0.03768008574843407,-0.1889335811138153,0.033343590795993805,-0.059112273156642914,0.0411706268787384,0.10988490283489227,0.07334606349468231,-0.05475986376404762,0.030646754428744316,0.027579914778470993,0.020561689510941505,0.13077010214328766,0.15655852854251862,-0.16838303208351135,-0.23542095720767975,0.04905638098716736,0.08545450866222382,0.016578439623117447,-0.06783315539360046,-0.0982033908367157,-0.04820667952299118,0.007757221814244986,-0.000749854720197618,0.030535990372300148,0.06130492687225342,-0.1176033467054367,-0.19579587876796722,-0.24291473627090454,-0.05584117770195007,-0.019546974450349808,-0.05641043186187744,-0.15252996981143951,-0.1023487076163292,-0.14563380181789398,0.009089101105928421,0.06778949499130249,0.0035715915728360415,-0.31645920872688293,-0.08306080102920532,-0.3300059735774994,-0.16866779327392578,-0.1700688600540161,-0.16662710905075073,-0.06729837507009506,-0.18313904106616974,-0.12703752517700195,-0.059611622244119644,0.00565761886537075,0.04633358493447304,-0.02778620831668377,-0.26686573028564453,-0.2992987632751465,-0.2051662802696228,-0.2587011754512787,-0.20626771450042725,-0.21818065643310547,-0.056700438261032104,-0.17647401988506317,-0.014944761991500854,0.025006910786032677,0.032910991460084915,-0.017177894711494446,-0.05201123654842377,-0.034216005355119705,-0.08241008967161179,-0.0838811993598938,-0.10367438197135925,-0.12102042138576508,-0.07175467908382416,-0.05058770999312401,-0.10740503668785095,-0.08688812702894211,0.007629295811057091,-0.01895948499441147,-0.026078633964061737,-0.010144755244255066,-0.008630041033029556,-0.0068830992095172405,0.008023618720471859,-0.026705093681812286,-0.057334721088409424,0.010058646090328693,-0.0884871706366539,-0.05669129639863968,-0.058355383574962616,0.0030214779544621706,-0.0054338350892066956,0.0334295816719532,-0.023821216076612473,0.03106556460261345,-0.022704822942614555,0.0775543823838234,-0.009117492474615574,0.04482702165842056,-0.07924249023199081,-0.05014339089393616,-0.1051880270242691,-0.08546558022499084,-0.028024036437273026,-0.09672509878873825,0.037600863724946976,-0.05518098548054695,0.029834618791937828,0.025283867493271828,0.17801913619041443,0.1225721463561058,0.08785982429981232,-0.07307571917772293,-0.16666842997074127,-0.26487869024276733,-0.29582682251930237,-0.19255292415618896,-0.11996887624263763,-0.05125662684440613,-0.05049394443631172,0.07406848669052124,-0.008016271516680717,0.10661841928958893,-0.05713260918855667,-0.036426834762096405,-0.12036021053791046,-0.365940123796463,-0.353814959526062,-0.4289638102054596,-0.33513733744621277,-0.3059864640235901,0.02921455353498459,-0.01628943346440792,0.060940615832805634,0.02389582246541977,0.015687067061662674,-0.03703475371003151,0.02142750471830368,-0.12969647347927094,-0.31138479709625244,-0.3513447344303131,-0.35792481899261475,-0.11934730410575867,-0.11241806298494339,0.04474593326449394,-0.11697618663311005,0.07832428067922592,0.037673480808734894,0.11898964643478394,0.039795421063899994,0.04096248745918274,-0.017440224066376686,-0.1966254562139511,-0.2029537707567215,-0.2312595546245575,-0.10033664107322693,-0.10645764321088791,0.032913900911808014,-0.09409035742282867,0.039893899112939835,0.09541954845190048,-0.032209768891334534,0.042289793491363525,0.10605089366436005,0.08182871341705322,-0.07844851166009903,0.05333312600851059,-0.08399929106235504,-0.01617392897605896,-0.17804521322250366,-0.031034119427204132,-0.09568043053150177,0.001955555286258459,-0.08741582930088043,-0.00039413731428794563,-0.04877762869000435,-0.004391719587147236,0.013948247767984867,0.1784399002790451,0.1872868537902832,0.13131360709667206,0.06859145313501358,0.0380220040678978,-0.03641335666179657,-0.08205991983413696,-0.007714180275797844,-0.25601544976234436,-0.22323918342590332,-0.06826087832450867,-0.13286954164505005,0.005107473582029343,0.2116287499666214,0.09398256987333298,0.308590292930603,0.22262071073055267,0.27910029888153076,0.07555588334798813,-0.14673399925231934,-0.09912614524364471,-0.23149706423282623,-0.4852566123008728,-0.30597397685050964,-0.15664787590503693,-0.1780422329902649,-0.017134753987193108,0.09304188191890717,0.26086902618408203,0.147950679063797,0.3977387249469757,0.39290422201156616,-0.12308676540851593,-0.19732660055160522,-0.17730695009231567,-0.4429665207862854,-0.43788275122642517,-0.18217189610004425,0.05454133450984955,0.17703337967395782,0.23299166560173035,0.18449127674102783,0.28323039412498474,0.1028900295495987,0.3289048969745636,-0.08426483720541,-0.15988801419734955,-0.3505990207195282,-0.5817234516143799,-0.5429054498672485,-0.1840222328901291,-0.044033922255039215,0.1339186578989029,0.17927122116088867,0.08060722798109055,0.1675696223974228,0.18438011407852173,0.20235887169837952,0.0006940871244296432,-0.06716524809598923,-0.21232400834560394,-0.3070501685142517,-0.1420002579689026,-0.013142889365553856,-0.04280881956219673,-0.021371882408857346,-0.006196139380335808,0.029042137786746025,0.14212666451931,0.2033540904521942,0.11086799204349518,-0.039706602692604065,-0.03370533511042595,-0.06331485509872437,-0.027162017300724983,-0.11205720156431198,-0.12421303242444992,-0.03189178556203842,-0.06883727014064789,-0.12776117026805878,-0.07284950464963913,-0.04206179827451706,0.017242636531591415,0.020620396360754967,0.04536428675055504,0.0429336354136467,0.08533826470375061,0.1680382490158081,0.17373265326023102,0.20679117739200592,0.291089802980423,0.07741459459066391,0.1277458369731903,0.14919304847717285,-0.021601257845759392,-0.07506301999092102,-0.03802580386400223,-0.11801218241453171,-0.11098142713308334,-0.13725236058235168,0.1588069051504135,0.12321826815605164,0.3247548043727875,0.2071520835161209,0.17255069315433502,0.06980189681053162,0.12209732830524445,-0.1496921181678772,-0.07839634269475937,-0.013973497785627842,-0.1959659308195114,-0.11898478865623474,-0.12658484280109406,0.06856929510831833,0.2806215286254883,0.2940259277820587,0.2533838152885437,0.14476777613162994,0.15989795327186584,0.1472933143377304,-0.15624503791332245,-0.15964187681674957,-0.11180982738733292,-0.1886693388223648,-0.29993098974227905,-0.2243359535932541,0.08155445754528046,0.017668433487415314,0.05698592588305473,0.13711127638816833,0.13346992433071136,0.08339455723762512,0.028702765703201294,-0.17233620584011078,-0.3099474608898163,-0.1644297093153,-0.34614208340644836,-0.3904729187488556,-0.344277560710907,-0.17493022978305817,-0.15246054530143738,0.10855616629123688,-0.06805673986673355,0.03589610755443573,0.015847202390432358,-0.043939609080553055,-0.28949174284935,-0.3964937627315521,-0.30228227376937866,-0.32238709926605225,-0.43484699726104736,-0.33649295568466187,-0.26214444637298584,0.06243974715471268,-0.03605715185403824,0.1291552484035492,0.14719940721988678,0.31046175956726074,-0.08324873447418213,-0.17494113743305206,-0.3206790089607239,-0.32785406708717346,-0.20776188373565674,-0.46472376585006714,-0.44614484906196594,-0.31699636578559875,-0.09362000226974487,-0.05606118217110634,0.02116517722606659,-0.12962606549263,-0.2253892868757248,-0.3837970197200775,-0.4306630492210388,-0.19322459399700165,-0.2858525812625885,-0.20969153940677643,-0.20104487240314484,-0.41879236698150635,-0.3067215383052826,0.15308049321174622,0.15841765701770782,0.09241052716970444,0.12325345724821091,0.045213714241981506,-0.4486338198184967,-0.4378499388694763,-0.3034268319606781,-0.22294411063194275,-0.06905250996351242,-0.18428684771060944,-0.2371433824300766,-0.2942803204059601,-0.07758348435163498,-0.06120907887816429,0.029565395787358284,0.20149850845336914,-0.14199770987033844,-0.2436530739068985,-0.29814380407333374,-0.13233362138271332,-0.053314726799726486,-0.041338060051202774,0.035519763827323914,0.010775355622172356,0.035996757447719574,-0.055128905922174454,0.11190895736217499,0.0819096788764,0.11529535800218582,0.05733606591820717,0.010887681506574154,-0.09071081876754761,-0.07172738760709763,-0.047882355749607086,-0.021089034155011177,-0.02563680335879326,-0.04729112610220909,-0.04426174983382225,0.14382928609848022,0.2800900638103485,0.28830665349960327,0.22277769446372986,0.29131555557250977,0.13595280051231384,-0.047376345843076706,0.01418830081820488,0.01221635565161705,0.0026713733095675707,-0.01663925312459469,-0.046725522726774216,-0.014092679135501385,0.15517400205135345,0.27968692779541016,0.19338561594486237,0.0573054775595665,0.1445261389017105,0.059971656650304794,-0.012879723682999611,-0.012525648809969425,-0.022407418116927147,-0.022239601239562035,0.003769132774323225,0.00904744490981102,0.02093859575688839,0.023587148636579514,-0.04307069256901741,-0.07993292808532715,-0.06311090290546417,-0.000291765492875129,-0.057052258402109146,-0.019367719069123268,-0.015585754066705704,-0.016587112098932266,-0.030952826142311096,-0.07313861697912216,-0.05346034839749336,-0.1779274344444275,-0.1278344839811325,-0.08665836602449417,-0.07711752504110336,-0.060365770012140274,-0.0749346986413002,-0.12314818054437637,-0.03412569314241409,-0.06177963688969612,-0.0010844315402209759,-0.07242788374423981,-0.11940174549818039,-0.18510021269321442,-0.30663827061653137,-0.2841758728027344,-0.18664371967315674,-0.08606817573308945,-0.15736639499664307,0.027572136372327805,0.07587561011314392,-0.01650354452431202,-0.056516993790864944,0.0031519783660769463,-0.14101478457450867,-0.34841904044151306,-0.26431921124458313,-0.4282432794570923,-0.25495263934135437,-0.1310221403837204,-0.25752007961273193,-0.0466155931353569,0.04989403858780861,0.16774505376815796,0.12307605147361755,0.11375098675489426,-0.03707161173224449,-0.14294786751270294,-0.4495807886123657,-0.17915165424346924,-0.4009893834590912,-0.4355557858943939,-0.3673474192619324,-0.11828108876943588,0.09697503596544266,0.053314194083213806,0.19457899034023285,0.16763128340244293,0.1533030867576599,-0.01655534841120243,0.01863921992480755,-0.0319119468331337,-0.07802896946668625,-0.13792341947555542,-0.07484468817710876,-0.036656055599451065,-0.017029428854584694,0.045234229415655136,0.09133218228816986,0.010766824707388878,0.24760188162326813,0.06165771931409836,-0.056715819984674454,-0.026186130940914154,-0.01546044833958149,-0.018623998388648033,-0.11787494271993637,0.06609886139631271,-0.03938616067171097,0.12257637828588486,0.1494004875421524,-0.05874381586909294,-0.005503618624061346,0.2864167392253876,0.22602394223213196,0.008539488539099693,0.0603262260556221,0.029311496764421463,0.19958090782165527,0.040822144597768784,-0.01804991252720356,0.19528736174106598,0.19613072276115417,0.1751791536808014,0.10899988561868668,0.1058068573474884,0.1003795638680458,0.18453273177146912,0.01205869484692812,0.14773522317409515,0.10089841485023499,0.12892009317874908,0.08510908484458923,-0.10908771306276321,-0.1487799733877182,0.24657462537288666,0.10363035649061203,-0.2086763232946396,-0.29700878262519836,-0.08200837671756744,0.014119589701294899,0.025473296642303467,0.18989357352256775,0.26727715134620667,0.16192249953746796,0.10134225338697433,0.09440929442644119,-0.06829419732093811,-0.07348136603832245,-0.13055378198623657,-0.154769167304039,-0.36376985907554626,-0.1547231525182724,0.03957120701670647,-0.05708777531981468,0.3211720585823059,0.4034307599067688,0.34464481472969055,0.15759800374507904,0.247511088848114,-0.028148002922534943,0.014841025695204735,-0.2655506134033203,-0.48390886187553406,-0.45543500781059265,-0.2877703905105591,0.009349917992949486,-0.04900230094790459,0.28777268528938293,0.25497177243232727,0.2323557585477829,0.1748151332139969,0.1681770235300064,0.029266083613038063,-0.3152182400226593,-0.13276395201683044,-0.26091209053993225,-0.349895179271698,-0.27392375469207764,-0.04987471550703049,-0.012200893834233284,0.026061639189720154,0.12504860758781433,0.23462912440299988,0.003834974952042103,-0.1381407529115677,-0.13482005894184113,-0.22778193652629852,-0.23192629218101501,-0.23675544559955597,-0.1395142674446106,-0.1079704686999321,-0.06768310070037842,-0.008241022005677223,-0.03042299672961235,0.04883979260921478,0.03351743519306183,0.09631220251321793,-0.17746642231941223,-0.20627130568027496,-0.13815562427043915,-0.18029557168483734,-0.12719771265983582,-0.06506437063217163,-0.07195308059453964,0.010801811702549458,-0.03661111369729042],[0.016926191747188568,-0.05432690307497978,0.03672915697097778,0.018049707636237144,0.02773451991379261,-0.022841865196824074,-0.01266984362155199,0.03441214933991432,0.03787221014499664,-0.05531654879450798,-0.05021129176020622,0.06031662970781326,0.053425710648298264,0.007378795184195042,-0.0007813330739736557,0.05328357592225075,-0.06646574288606644,-0.023705070838332176,-0.04148541018366814,-0.05675346404314041,0.010998598299920559,0.044098373502492905,0.04472312703728676,-0.013394209556281567,-0.1066734716296196,0.04517732188105583,0.025980910286307335,0.0782015323638916,0.08052515983581543,0.020007964223623276,-0.029657745733857155,-0.022502370178699493,0.07211054116487503,0.14116457104682922,0.10198550671339035,-0.03299896419048309,-0.07037702947854996,-0.014166789129376411,-0.07027971744537354,0.019984256476163864,0.03278909623622894,0.07408296316862106,0.0741066262125969,0.023909272626042366,0.047519832849502563,0.027321334928274155,0.08820119500160217,0.08305488526821136,-0.09521956741809845,-0.04274682328104973,-0.04169589653611183,-0.03746291249990463,0.0056228674948215485,0.006201938260346651,0.043131180107593536,0.1057792603969574,0.04221039265394211,-0.056105077266693115,-0.0848778709769249,0.03201281279325485,0.09384088218212128,0.016673099249601364,-0.017126960679888725,-0.12312959879636765,0.008819875307381153,0.05150635913014412,0.07470428198575974,0.09798760712146759,-0.01747080497443676,-0.059783387929201126,-0.1357075721025467,-0.10621952265501022,-0.06398036330938339,-0.016022298485040665,0.0019826493225991726,-0.004823978058993816,-0.07967410981655121,0.03696484863758087,-0.0015515097184106708,0.03438141569495201,0.042225342243909836,-0.05152291804552078,-0.06816473603248596,-0.022307153791189194,-0.14549466967582703,0.11160419136285782,-0.018907003104686737,-0.035758405923843384,0.06955628097057343,0.08131460845470428,0.03243311494588852,0.0035765618085861206,0.054331131279468536,0.02355217933654785,0.06416559219360352,-0.13754402101039886,0.004821478389203548,0.03884242847561836,-0.06795977801084518,-0.1767607480287552,-0.07325587421655655,0.04854581132531166,0.07750139385461807,0.010088742710649967,-0.02553342655301094,0.05641886219382286,0.10176867991685867,0.017091089859604836,-0.06535552442073822,-0.05777132883667946,0.0814887136220932,0.028285980224609375,0.04313155263662338,0.002240849891677499,-0.00270584668032825,0.03363338112831116,-0.001073738094419241,0.05347992479801178,-0.02245156280696392,-0.0329631082713604,0.037259217351675034,-0.025852292776107788,0.023142823949456215,0.09022899717092514,0.08974689245223999,-0.014256388880312443,0.01222151331603527,0.18876905739307404,-0.06123493239283562,-0.0031310964841395617,0.023403838276863098,0.062441784888505936,0.059097569435834885,0.06902594864368439,0.07704934477806091,0.10710183531045914,0.0898125097155571,0.10581298172473907,0.012431571260094643,0.05741589516401291,-0.06528150290250778,-0.02096434496343136,-0.02863822877407074,-0.02774641662836075,0.018182897940278053,0.009906935505568981,0.010803372599184513,0.0790548250079155,0.13586965203285217,0.08985248953104019,0.12041317671537399,-0.004688918590545654,-0.028878355398774147,-0.04399624839425087,-0.0366954542696476,-0.047279708087444305,0.013724795542657375,-0.03442961350083351,-0.03494460880756378,-0.03058668226003647,0.06563939154148102,0.05839184299111366,0.08155595511198044,0.05172227323055267,-0.0298029575496912,0.04007304459810257,-0.05180917680263519,-0.051046546548604965,-0.023889560252428055,-0.056960467249155045,-0.05181343853473663,-0.018946582451462746,-0.0697731077671051,-0.005857753101736307,0.04869595542550087,0.003521167440339923,0.05194421485066414,0.06615962833166122,-0.008252587169408798,-0.06029191613197327,-0.02080155909061432,0.004449701402336359,-0.00237982627004385,-0.03213630989193916,-0.03904564678668976,0.04640132561326027,0.049672894179821014,0.1949414163827896,0.21894122660160065,0.2206762135028839,0.1767665445804596,-0.05145612731575966,-0.0042288294062018394,0.01977750100195408,-0.02120630070567131,-0.09072233736515045,-0.023109696805477142,-0.014352742582559586,-0.12895028293132782,0.07489342987537384,0.25822368264198303,0.26335418224334717,0.32504525780677795,0.011671489104628563,-0.031113235279917717,-0.07153568416833878,-0.01013127900660038,-0.008447838015854359,-0.04298388212919235,-0.1690545231103897,-0.09323512017726898,-0.12271748483181,-0.0780441090464592,0.0813543051481247,0.03324148803949356,0.2769656181335449,0.08757378906011581,-0.061216022819280624,0.08672019839286804,-0.006262876093387604,0.06325377523899078,-0.10693615674972534,0.030637897551059723,-0.018844999372959137,-0.16607658565044403,-0.1474839150905609,-0.14790953695774078,0.08104939758777618,0.07882855087518692,0.25396615266799927,0.029458286240696907,-0.10206271708011627,0.0482657290995121,0.020512830466032028,0.04910947382450104,0.09744125604629517,0.12924933433532715,0.06982388347387314,-0.1089029461145401,-0.09548661857843399,-0.14755111932754517,-0.014794327318668365,-0.01704026386141777,0.0024408006574958563,-0.038909781724214554,0.03498660773038864,-0.08043530583381653,0.048848044127225876,0.1823137402534485,0.2721230089664459,-0.10822682827711105,-0.11780810356140137,-0.11077138781547546,-0.03143570199608803,-0.05903387442231178,-0.14496344327926636,0.02208070270717144,0.05073755234479904,0.01571839302778244,0.122255340218544,0.05332048237323761,0.17093238234519958,0.22439245879650116,-0.01768115907907486,-0.10225732624530792,0.10968919843435287,-0.12003251165151596,-0.0825919657945633,0.1308048814535141,-0.043858952820301056,-0.14132750034332275,-0.07358373701572418,0.11666977405548096,0.15185348689556122,0.1494186967611313,0.31819915771484375,0.2020377814769745,-0.06306469440460205,-0.07781340926885605,0.07630599290132523,0.2266574501991272,0.059333473443984985,0.0567893460392952,-0.04897601529955864,-0.014797908253967762,-0.11144701391458511,0.004103192128241062,0.21405871212482452,0.22229427099227905,-0.0074873086996376514,-0.09865298867225647,0.013409662060439587,0.03468794375658035,0.11187786608934402,0.03621143847703934,0.02540941908955574,-0.24602769315242767,-0.02847280725836754,-0.09748787432909012,-0.027538610622286797,0.01329123042523861,-0.018002521246671677,0.1397629827260971,0.0010770666413009167,0.0799901932477951,0.004218932241201401,0.01530021708458662,-0.00011847994028357789,-0.17378711700439453,-0.01324793417006731,-0.22063294053077698,-0.1597404181957245,-0.054830148816108704,0.0003230353759136051,-0.15340088307857513,-0.04374480992555618,0.15832549333572388,0.09627953916788101,0.2320420891046524,0.1460481882095337,-0.07600671797990799,-0.06210421770811081,-0.0824255496263504,-0.14086858928203583,-0.09957444667816162,-0.024859802797436714,-0.025210412219166756,-0.021110396832227707,-0.02880985662341118,-0.009196050465106964,0.16579502820968628,0.126418799161911,0.10175633430480957,-0.019986512139439583,0.03070872835814953,-0.005357279907912016,-0.04276492819190025,-0.0747561901807785,-0.012104491703212261,0.02492753230035305,0.004738819319754839,-0.05814593657851219,-0.025802595540881157,-0.14573116600513458,0.005518306512385607,-0.02782067097723484,-0.07459420710802078,-0.01477034855633974,-0.049866098910570145,-0.06133558228611946,-0.0032651436049491167,-0.01045278087258339,-0.11592212319374084,-0.07129818201065063,-0.08263468742370605,-0.14716143906116486,-0.34155112504959106,0.02445383556187153,-0.18769466876983643,-0.07054518163204193,0.022021561861038208,0.020459188148379326,-0.022160647436976433,-0.041541650891304016,-0.02020411379635334,-0.014414592646062374,-0.011115644127130508,-0.03248900920152664,-0.040513526648283005,-0.15693610906600952,-0.04639432206749916,0.07433437556028366,-0.07752680033445358,0.012362455949187279,0.15144285559654236,0.06746144592761993,-0.03178711235523224,-0.0970831885933876,-0.027512259781360626,0.05611368268728256,0.04016461595892906,-0.05122834071516991,-0.026288388296961784,-0.05049130693078041,0.03069959580898285,0.22780181467533112,0.28225210309028625,0.2181115448474884,0.06234598904848099,0.02095428854227066,-0.08384286612272263,0.025691712275147438,0.003356919391080737,0.05441931635141373,-0.03489873558282852,0.01538087334483862,0.048843223601579666,0.07259949296712875,0.04284258931875229,0.3642631769180298,0.28421273827552795,0.08155212551355362,-0.004531373735517263,-0.16358855366706848,-0.1699601709842682,0.006925152149051428,-0.03648141399025917,0.157289519906044,-0.05623652786016464,0.020665736868977547,-0.12973175942897797,0.07216297090053558,0.19423967599868774,0.04987012594938278,0.1853482574224472,0.0035061168018728495,-0.028035005554556847,-0.3617199957370758,0.08848956227302551,0.11343884468078613,0.055884454399347305,-0.07872055470943451,0.09194660931825638,0.07903174310922623,-0.14407490193843842,-0.07760092616081238,0.24120016396045685,0.1066829115152359,0.008540615439414978,-0.0005287024541758001,-0.12390203773975372,0.01867617294192314,0.10297612845897675,-0.02565912902355194,-0.2092043161392212,-0.09643122553825378,-0.09850052744150162,0.022280998528003693,0.11323545128107071,0.2615514397621155,0.13391941785812378,0.035525545477867126,-0.014306427910923958,-0.05034002661705017,-0.03660647198557854,0.02680625580251217,0.07228800654411316,-0.22295859456062317,-0.126712828874588,0.04306145757436752,0.07550469785928726,0.19092820584774017,0.21273273229599,0.14359648525714874,0.05818251147866249,0.022398177534341812,0.179605171084404,0.07283691316843033,0.1302414983510971,-0.08968081325292587,-0.00849694013595581,-0.03043927252292633,-0.029813386499881744,-0.0005002028774470091,0.13871410489082336,0.26905933022499084,0.03138536587357521,0.0014924792340025306,0.007551485672593117,0.04586111754179001,0.24290230870246887,0.009571592323482037,-0.056103985756635666,0.049035824835300446,0.18571175634860992,-0.056924235075712204,0.01916814036667347,-0.04495049640536308,-0.0361841656267643,0.002566753188148141,0.008655793964862823,-0.003697944339364767,0.010792423039674759,0.029642391949892044,0.017226187512278557,-0.024151206016540527,0.06724396347999573,0.013917982578277588,-0.007916586473584175,0.08452215790748596,0.06083640456199646,0.01901203952729702,0.018937308341264725,-0.0347268283367157,-0.0197854433208704,-0.032128434628248215,-0.001255237264558673,0.016773346811532974,0.06334732472896576,-0.05302411690354347,0.06626420468091965,-0.0017287423834204674,0.04857838526368141,-0.00002891844997066073,-0.003888750681653619,-0.006798774469643831,-0.044755928218364716,0.0006450003129430115,0.002555214101448655,-0.007988141849637032,-0.025532567873597145,0.014344806782901287,-0.02207520417869091,-0.02910764329135418,0.02255985699594021,-0.03740747645497322,0.021602535620331764,-0.02422071434557438,0.05978024750947952,0.007254991680383682,0.006758222356438637,-0.04592366889119148,0.0344604030251503,-0.0021651741117239,-0.015563311986625195,-0.02707209251821041,-0.04352371022105217,0.09744568914175034,0.09516729414463043,0.1321229785680771,0.030959079042077065,0.10173393785953522,0.055731646716594696,-0.0019172757165506482,-0.02479967661201954,0.04832246154546738,0.026932651177048683,0.10822715610265732,0.10658524185419083,0.0208450797945261,0.22170688211917877,0.014147602021694183,-0.06075497716665268,0.014162774197757244,0.08755136281251907,-0.06739935278892517,0.04438069462776184,-0.02446468360722065,0.21051615476608276,0.01689722016453743,0.12248944491147995,-0.1398554891347885,0.007384027354419231,0.11392820626497269,-0.04972419887781143,0.018180927261710167,-0.10211456567049026,-0.05912897363305092,-0.05210800841450691,0.012631046585738659,0.03405439481139183,0.008798519149422646,-0.05395136773586273,-0.020458199083805084,-0.11348800361156464,0.09480317682027817,-0.018922021612524986,0.021819867193698883,-0.04511794075369835,-0.16753548383712769,-0.09634485840797424,-0.1528724730014801,0.01938577927649021,0.06926379352807999,-0.08494384586811066,-0.0626133605837822,-0.20651492476463318,-0.24918368458747864,-0.13998687267303467,-0.07638150453567505,-0.1847294420003891,0.08016112446784973,0.11171705275774002,-0.014170234091579914,-0.05394478887319565,0.05540270358324051,0.08395534008741379,0.16273437440395355,-0.06142608821392059,-0.13475485146045685,-0.07717067748308182,-0.16204454004764557,-0.05728283151984215,0.0005956413806416094,0.10184923559427261,0.03375793620944023,-0.13435129821300507,-0.004158864263445139,-0.035637978464365005,0.038293637335300446,0.15134085714817047,0.1269274652004242,-0.12192365527153015,-0.18768124282360077,-0.01706754043698311,0.0311309602111578,0.20544709265232086,-0.0993129089474678,0.13666239380836487,-0.06457885354757309,0.03498831391334534,0.0635371208190918,-0.024029774591326714,0.18785421550273895,0.15070322155952454,0.01960575208067894,-0.07258757203817368,0.19114011526107788,0.1762542724609375,0.14977514743804932,0.14780688285827637,0.3043469488620758,0.020221024751663208,-0.11479385197162628,0.03411416336894035,0.1070106029510498,0.03736351430416107,0.020083487033843994,0.0037033597473055124,-0.11512238532304764,-0.06096383184194565,0.02601690962910652,-0.029053665697574615,0.013729826547205448,-0.09073107689619064,0.017189161852002144,-0.20319275557994843,-0.014041688293218613,0.00479047279804945,0.04303200915455818,0.30695533752441406,0.16787683963775635,-0.038523100316524506,-0.0960565134882927,-0.20553696155548096,-0.1984710395336151,0.10625936090946198,0.15676762163639069,-0.056934066116809845,-0.012817333452403545,0.015975221991539,0.014268935658037663,0.054168958216905594,0.17636026442050934,-0.08137590438127518,-0.08977104723453522,-0.06761499494314194,0.08482039719820023,-0.06614995002746582,0.02425736002624035,-0.02080712653696537,-0.024222081527113914,-0.08881402760744095,0.04435279965400696,0.03809969127178192,0.071526899933815,0.05364854261279106,-0.07109864056110382,0.06491461396217346,-0.004178190138190985,0.02823115698993206,0.036863766610622406,0.05307694897055626,0.09295723587274551,-0.02269018068909645,-0.01984282024204731,-0.011206304654479027,-0.09353815764188766,-0.08544675260782242,-0.1503416746854782,-0.06364871561527252,-0.04005749896168709,-0.00628207391127944,0.13296754658222198,0.046954549849033356,-0.1861613690853119,0.0418158657848835,0.05100059136748314,0.050372544676065445,-0.0052777850069105625,-0.09896675497293472,-0.012003564275801182,-0.11241333186626434,-0.11769797652959824,-0.19595317542552948,0.10284047573804855,-0.021278679370880127,0.10347751528024673,-0.01446373201906681,-0.01358544547110796,-0.055999934673309326,0.07807435095310211,0.008794658817350864,-0.041735414415597916,0.06814417243003845,-0.20893459022045135,-0.022183116525411606,0.02526581659913063,-0.021480131894350052,-0.046669866889715195,-0.06637266278266907,-0.2042061984539032,-0.009284837171435356,0.10178599506616592,0.0066184401512146,0.08869749307632446,0.030780300498008728,-0.06257133185863495,-0.16386552155017853,-0.05217258259654045,0.030082358047366142,0.1918804794549942,0.06590422987937927,-0.05356801673769951,-0.16578412055969238,-0.040570471435785294,0.07946647703647614,0.0027194740250706673,0.011138907633721828,-0.0070839738473296165,-0.0355096198618412,0.15995605289936066,-0.016782937571406364,-0.09286879748106003,0.02864038571715355,0.0013472894206643105,-0.09041624516248703,-0.19785834848880768,-0.04448142275214195,0.05959724262356758,0.045543063431978226,0.054452307522296906,0.14996486902236938,-0.027240922674536705,-0.047748785465955734,-0.19219671189785004,-0.2067941278219223,-0.19006334245204926,-0.2582875192165375,-0.18657584488391876,-0.21629269421100616,-0.06427954137325287,-0.046534158289432526,0.15409186482429504,0.06919483840465546,0.023423215374350548,-0.04946865886449814,-0.05611330270767212,-0.04075333848595619,-0.1836511343717575,-0.12809109687805176,-0.15174004435539246,-0.11570512503385544,0.08176564425230026,0.06302502006292343,-0.014044546522200108,0.11340276151895523,0.12556608021259308,0.1374395787715912,0.3159543573856354,0.15115371346473694,-0.11070290207862854,-0.15297913551330566,0.05980989336967468,0.002110984642058611,-0.19990591704845428,0.08751191943883896,0.033114686608314514,0.05148164927959442,0.03712937980890274,0.0394587367773056,0.07014822214841843,0.11174666881561279,-0.029962321743369102,0.09581141173839569,0.10953536629676819,0.11864588409662247,0.01449588593095541,0.14446666836738586,0.17648275196552277,0.19654351472854614,0.05152487754821777,0.025459913536906242,0.09583055973052979,-0.053635936230421066,-0.036046404391527176,-0.02453366108238697,0.13373905420303345,0.09571439772844315,0.22487600147724152,0.1324264407157898,0.18069955706596375,0.1975852996110916,0.21769265830516815,-0.015198137611150742,0.025438617914915085,0.024820970371365547,0.008936090394854546,0.045331139117479324,0.11078771948814392,0.04210352897644043,0.14174754917621613,0.054400380700826645,0.02492918074131012,-0.04429006204009056,0.07615799456834793,0.05294087529182434,-0.05228998512029648,0.026134738698601723,-0.01959991827607155,0.047514744102954865,0.12008997052907944,0.07790270447731018,0.025769956409931183,0.018159786239266396,0.011424265801906586,0.10114268213510513,-0.0362996906042099,0.06034686416387558,0.047555111348629,0.0088880006223917,-0.03732157498598099,-0.02455192245543003,0.007193236146122217,0.035523224622011185,0.07063937187194824,0.01929231360554695,0.055703360587358475,0.19246579706668854,0.12924893200397491,0.0801955908536911,0.020455103367567062,0.021967437118291855,-0.04412122443318367,-0.035512525588274,0.029674073681235313,0.0898779034614563,0.09761390089988708,0.003471087897196412,0.05694545805454254,0.12547098100185394,0.052654147148132324,0.06407201290130615,0.12216375768184662,0.08584380894899368,0.060535166412591934,-0.0023348487447947264,-0.0028753415681421757,-0.022218115627765656,0.0335770845413208,0.12197253853082657,0.09667711704969406,0.10584329068660736,0.1674504429101944,0.17336097359657288,0.15100742876529694,0.06651308387517929,0.06506719440221786,0.12775461375713348,0.07833178341388702,-0.015282978303730488,-0.02093018777668476,0.16351182758808136,0.13340605795383453,0.18710441887378693,0.010707743465900421,0.11121819168329239,0.23968489468097687,0.20812779664993286,0.1318495124578476,0.1111777275800705,0.0715087428689003,0.019180066883563995,0.051955632865428925,0.020198388025164604,0.19775140285491943,0.07617814093828201,0.1603280007839203,0.012620683759450912,0.16275560855865479,0.1033942922949791,0.02839902602136135,0.19581641256809235,0.19249752163887024,0.1735209822654724,0.01454270537942648,0.1036154106259346,0.04704226180911064,-0.04910153150558472,-0.06174105033278465,-0.11376064270734787,-0.12173208594322205,-0.14594361186027527,0.0521819181740284,0.2447858452796936,0.11303748190402985,0.3072810173034668,0.2362697720527649,0.17450033128261566,0.08466031402349472,-0.018931416794657707,-0.03729613497853279,-0.01830083318054676,-0.06441299617290497,-0.04865287244319916,-0.09611427783966064,-0.29749050736427307,-0.06806843727827072,0.12721233069896698,0.22326819598674774,0.07708548754453659,0.1368526667356491,0.12196628004312515,-0.059947606176137924,-0.04973222315311432,-0.11616197973489761,0.20922204852104187,0.08845345675945282,-0.24178029596805573,-0.2956386208534241,-0.3926151394844055,-0.03549683839082718,0.18296100199222565,-0.01807636022567749,0.08764367550611496,0.12455222010612488,-0.04389595612883568,-0.08577191829681396,0.024752527475357056,0.14757263660430908,0.3103894889354706,0.1047290712594986,-0.3329430818557739,-0.06219705194234848,-0.10562122613191605,0.12668025493621826,0.10606707632541656,0.11032271385192871,0.05854903161525726,0.02428659237921238,0.029407192021608353,0.12707549333572388,0.13939562439918518,-0.023160895332694054,-0.044997040182352066,-0.14523392915725708,-0.1440245658159256,-0.2538519501686096,0.008516439236700535,0.02821166440844536,0.018527686595916748,0.003939956892281771,-0.014655804261565208,-0.18986892700195312,-0.19933268427848816,-0.12739022076129913,-0.028445903211832047,0.09791593253612518,-0.19362199306488037,-0.051448751240968704,-0.00853619072586298,-0.02512480318546295,-0.017880689352750778,0.0025535498280078173,-0.05209682509303093,-0.23288288712501526,-0.13737601041793823,-0.03126531094312668,-0.2903995215892792,-0.2600215971469879,-0.14547213912010193,0.037785276770591736,-0.12340636551380157,-0.07708074152469635,0.14477446675300598,0.0030436681117862463,0.05663810670375824,0.027685610577464104,0.016992053017020226,-0.12348370999097824,-0.10576250404119492,-0.1925358921289444,-0.013962163589894772,-0.08030883967876434,-0.1359742283821106,0.10879981517791748,0.13892313838005066,-0.042786337435245514,0.041987065225839615,0.00805774424225092,0.018088428303599358,0.03759104385972023,0.07246165722608566,0.012299025431275368,-0.1470763087272644,0.07039016485214233,0.06981179863214493,-0.05301060900092125,-0.009419639594852924,-0.02723386511206627,-0.04458681866526604,0.03010610118508339,0.045139435678720474,-0.0017326527740806341],[-0.00591134512796998,-0.018539976328611374,0.041688572615385056,-0.05697387829422951,-0.02789996936917305,-0.014696422964334488,-0.02567192167043686,-0.04881991073489189,-0.06461205333471298,-0.027228301391005516,0.042365383356809616,-0.035884059965610504,-0.02018638700246811,0.025958159938454628,0.05695665255188942,0.07318277657032013,0.07050038129091263,0.0529022179543972,-0.022288132458925247,-0.04619758203625679,-0.09729158133268356,-0.12219856679439545,-0.07716163247823715,-0.022215183824300766,0.07058235257863998,-0.02213018387556076,-0.008699800819158554,0.03831388056278229,0.08943484723567963,0.04427355155348778,0.014058378525078297,0.02558445930480957,-0.06852544099092484,-0.1513654589653015,-0.19440853595733643,-0.0810072273015976,-0.07057677209377289,-0.05938511714339256,0.03274648264050484,0.014873688109219074,0.045220017433166504,0.15731890499591827,0.07233645766973495,0.0848216637969017,-0.03502458333969116,-0.08371466398239136,-0.11623453348875046,-0.1773412525653839,-0.10295212268829346,-0.026586072519421577,0.037860337644815445,-0.015342924743890762,0.05664656311273575,0.13949359953403473,0.08314497768878937,0.09867896884679794,0.05601277947425842,0.0034916282165795565,0.07169479131698608,-0.01329733245074749,-0.10617721080780029,-0.06765039265155792,-0.05968870222568512,0.10626282542943954,0.0849265530705452,0.06506612151861191,0.011243792250752449,0.08389803022146225,0.1475268304347992,0.1128813847899437,0.15563082695007324,0.020207054913043976,-0.006909680552780628,0.09620539844036102,-0.07642178237438202,0.01755172573029995,0.08529190719127655,0.054374292492866516,0.012141978368163109,0.06662777066230774,0.0954514667391777,0.08842813968658447,0.07290780544281006,0.09493319690227509,0.12319446355104446,0.0225310530513525,0.11764121055603027,0.17601116001605988,0.05725745111703873,-0.06131875514984131,0.09416371583938599,0.028434082865715027,-0.005171153228729963,0.03822072967886925,-0.007614715024828911,0.0889705941081047,-0.05800296738743782,-0.03659531846642494,0.11990408599376678,0.11875879019498825,0.1299772411584854,0.23740103840827942,0.09031407535076141,0.0733235627412796,-0.007725589442998171,-0.01865953765809536,-0.07588202506303787,0.001173059456050396,0.05549640208482742,0.07827496528625488,-0.011797244660556316,-0.10808604210615158,0.11614697426557541,0.17026501893997192,0.17568106949329376,0.16095876693725586,-0.001715173595584929,-0.019754229113459587,-0.033566851168870926,-0.031319428235292435,-0.10751946270465851,0.036316197365522385,-0.0026885198894888163,-0.049925971776247025,-0.031211137771606445,0.00010819842282216996,0.026418989524245262,0.044237103313207626,0.08319082111120224,-0.02227025479078293,0.02985895238816738,-0.006444285623729229,0.009386121295392513,-0.07091771811246872,-0.11510944366455078,-0.1105559691786766,-0.06990285962820053,-0.054216790944337845,0.008890715427696705,-0.007582033518701792,0.09214135259389877,0.07011080533266068,-0.02857890911400318,-0.016180364415049553,0.03476671129465103,-0.002248338656499982,-0.041944511234760284,-0.06809940189123154,-0.10313400626182556,-0.05590089038014412,-0.056385211646556854,-0.02206525206565857,0.01720914989709854,0.027672795578837395,0.06252048909664154,-0.008288754150271416,-0.02441362291574478,-0.04240420088171959,-0.00853586383163929,0.018275117501616478,-0.013114271685481071,0.015952927991747856,0.024507218971848488,0.015653913840651512,0.013643444515764713,-0.0007446706877090037,0.04828670620918274,-0.04187774658203125,-0.023281054571270943,0.02734636887907982,-0.0316132977604866,0.038447026163339615,-0.014006546698510647,-0.037477679550647736,-0.0746995136141777,-0.013848242349922657,-0.05200231820344925,-0.05297878012061119,-0.04300326481461525,-0.004904096480458975,0.006537498440593481,-0.04182681441307068,0.032346490770578384,-0.009035334922373295,-0.04364294931292534,-0.023537635803222656,-0.00020818546181544662,-0.1218206062912941,-0.145894855260849,-0.09734810143709183,-0.1128181591629982,0.0032313624396920204,0.00820159912109375,0.034844689071178436,-0.002228929428383708,-0.016588393598794937,-0.01615268923342228,-0.05372464284300804,-0.04583476483821869,-0.03449273854494095,0.012062924914062023,-0.043037135154008865,-0.19657976925373077,-0.12959760427474976,-0.037170130759477615,0.11711627244949341,0.11776366084814072,-0.024536248296499252,0.012070451863110065,0.02621086873114109,-0.0974019393324852,-0.049122922122478485,0.0963784009218216,0.05910973250865936,0.2203703224658966,-0.014085033908486366,0.06291235238313675,0.0968782976269722,0.14542651176452637,0.13689930737018585,0.03142087534070015,0.030634837225079536,0.049546025693416595,-0.11125931143760681,-0.02253877930343151,0.09489214420318604,0.12579379975795746,0.21437467634677887,0.11276179552078247,0.036625344306230545,0.11566055566072464,0.11431273072957993,0.26821115612983704,0.2138282060623169,0.04182976856827736,-0.011007562279701233,0.0077244979329407215,-0.06191527843475342,0.285146564245224,0.030446302145719528,0.18301722407341003,-0.0010894129518419504,0.0755901038646698,0.22717612981796265,0.23340299725532532,0.26761719584465027,0.23775577545166016,0.036210499703884125,0.003864072496071458,-0.009584818966686726,0.2224387675523758,0.25112059712409973,-0.012013291008770466,0.03883308172225952,-0.07317762821912766,0.10642826557159424,-0.1358948051929474,-0.10565312206745148,-0.004461479373276234,0.07723420858383179,0.0826791450381279,0.04009627178311348,0.04309142753481865,0.20520038902759552,0.065797820687294,0.04475623741745949,-0.005527161061763763,-0.1978107988834381,-0.16708140075206757,-0.03610097989439964,-0.11638399213552475,-0.016210105270147324,0.04917331412434578,-0.000116855459054932,0.008387521840631962,-0.006192109081894159,0.041982702910900116,0.1393706053495407,-0.02363949827849865,0.009532218798995018,-0.1533421277999878,-0.13386042416095734,-0.2338072657585144,-0.2871575355529785,-0.3237784802913666,-0.0814581885933876,-0.059307608753442764,-0.10304919630289078,0.004342483356595039,0.11872999370098114,0.11774307489395142,0.13315147161483765,0.005796465091407299,-0.30782440304756165,-0.20889480412006378,-0.28706514835357666,-0.13273809850215912,-0.07629722356796265,-0.09183734655380249,0.03744889795780182,0.02240350842475891,0.15427862107753754,0.06502088904380798,0.36239340901374817,0.004839775152504444,0.2131660133600235,0.05150100588798523,-0.07619290053844452,-0.01358224917203188,-0.15464720129966736,-0.009799771942198277,-0.09037783741950989,-0.06010589748620987,0.053290870040655136,0.14957381784915924,0.03992391750216484,0.02771509811282158,0.08623826503753662,0.0511966198682785,0.03578675910830498,0.07905538380146027,-0.05431932583451271,0.010865775868296623,-0.05312786251306534,-0.02046193927526474,0.022779593244194984,0.0021765269339084625,-0.02492608316242695,0.11322940140962601,0.0775298923254013,0.12045235186815262,0.14199097454547882,0.03953595086932182,0.07224483788013458,0.06682068854570389,-0.057040631771087646,0.027361512184143066,0.009056216105818748,-0.007800872903317213,0.039735641330480576,-0.0007747688796371222,0.04149904102087021,0.04204680398106575,0.10860514640808105,-0.011799264699220657,0.1573813110589981,0.11175470799207687,0.13368572294712067,0.04266418144106865,0.04187455028295517,-0.02008695900440216,0.01427050307393074,0.1543051302433014,0.0202938225120306,0.050631389021873474,0.15026190876960754,0.13496863842010498,0.14379218220710754,0.12660908699035645,0.20962314307689667,0.06341131031513214,0.1062195673584938,0.0764535441994667,0.02345859259366989,0.07451850175857544,0.11509542167186737,0.022958001121878624,0.1339104175567627,0.0932324156165123,-0.036904048174619675,0.08456729352474213,0.02039027400314808,0.21266789734363556,-0.0332331620156765,-0.04387979209423065,0.02346320077776909,0.03866240009665489,0.07871291041374207,-0.0044204010628163815,0.020333660766482353,-0.09204810857772827,-0.005994583945721388,0.054058048874139786,0.0477113351225853,0.06617080420255661,0.020856749266386032,-0.018703460693359375,-0.0483255572617054,-0.011081737466156483,0.04300772771239281,-0.04345545917749405,-0.02043134905397892,-0.0959826335310936,-0.05112949758768082,-0.09773744642734528,-0.13602524995803833,0.029344413429498672,-0.006947169080376625,0.11555411666631699,-0.02234525978565216,-0.09567735344171524,-0.11586302518844604,-0.07011368125677109,-0.032230935990810394,-0.3088536262512207,-0.005881291348487139,-0.08062497526407242,-0.23630455136299133,-0.09909511357545853,-0.05303313955664635,0.07212059199810028,0.014159237034618855,-0.02148067019879818,-0.15883493423461914,-0.3058864176273346,-0.06460753083229065,-0.08310706913471222,-0.02968440391123295,-0.0235922709107399,-0.10998273640871048,0.09892071038484573,-0.011476095765829086,-0.003987965639680624,-0.06094592437148094,-0.004552878905087709,0.01868700236082077,-0.200972318649292,-0.16185879707336426,-0.053649161010980606,-0.11328963935375214,-0.018473215401172638,-0.0915716215968132,0.029370978474617004,0.241064190864563,0.22248601913452148,-0.021528253331780434,0.0532170906662941,0.020644087344408035,0.0023906102869659662,-0.23528359830379486,-0.1936173439025879,-0.030704552307724953,-0.09428571164608002,-0.0031646236311644316,0.10413555055856705,0.2080060839653015,0.21454094350337982,0.30012577772140503,0.19959098100662231,-0.034549545496702194,0.07087015360593796,-0.14003334939479828,-0.11816557496786118,-0.24099166691303253,-0.12841595709323883,0.019382541999220848,0.16398420929908752,0.06493585556745529,0.2300368994474411,0.2625476121902466,0.1944849044084549,0.18689267337322235,0.17553770542144775,0.15073160827159882,-0.012471389025449753,-0.22475282847881317,-0.08962535113096237,-0.075723797082901,0.04503336548805237,0.19649797677993774,0.04079238325357437,0.24725459516048431,0.24079981446266174,0.18184268474578857,0.10974275320768356,0.11729748547077179,0.11056485772132874,0.08580328524112701,-0.020860549062490463,-0.03320496901869774,-0.008021864108741283,0.01730009913444519,0.023211529478430748,0.06075366586446762,0.08052201569080353,0.08120197802782059,0.04950150474905968,0.0914960727095604,0.09483925253152847,0.07423219084739685,0.04426056146621704,0.01277284324169159,0.03828924521803856,-0.032831043004989624,0.02358943037688732,0.0435873344540596,0.027917996048927307,0.04816214367747307,0.03755427896976471,0.0688522458076477,0.03479698672890663,0.014615023508667946,-0.018626876175403595,-0.0149082588031888,0.011124038137495518,0.004346856381744146,0.011002356186509132,-0.0012291105231270194,-0.00270884670317173,-0.005230542737990618,-0.02486317604780197,0.052754782140254974,0.04941176250576973,0.1253574788570404,0.03677888587117195,0.12278056144714355,0.04658740013837814,0.10206088423728943,0.0436050146818161,-0.015036267228424549,0.05303500220179558,-0.02709018625319004,-0.013717119581997395,-0.18932336568832397,-0.108147531747818,-0.0874321386218071,0.10649412870407104,0.05604821816086769,0.16736166179180145,0.23943860828876495,0.20979568362236023,0.12530751526355743,-0.0066059669479727745,0.046421777456998825,-0.0030011837370693684,0.005082063842564821,-0.1395295113325119,-0.059378910809755325,-0.05125170201063156,0.15058571100234985,0.18401168286800385,0.3953167796134949,0.4017808437347412,0.3399343192577362,0.22897064685821533,-0.012583347037434578,-0.010283299721777439,-0.11942444741725922,-0.27466699481010437,-0.08881490677595139,-0.12461511790752411,0.09986281394958496,0.15447434782981873,0.17844434082508087,0.36233773827552795,0.3700364828109741,0.28150564432144165,0.16619905829429626,0.07854337245225906,0.06566549837589264,-0.03614062815904617,-0.10959571599960327,-0.15423080325126648,0.00759142218157649,0.03213012218475342,-0.02819712460041046,0.21449239552021027,0.14652971923351288,0.25697430968284607,0.3020975589752197,0.27809783816337585,0.11818891763687134,0.048665136098861694,-0.12697389721870422,-0.04122263938188553,0.1064077690243721,0.11842454224824905,0.1902713179588318,0.04985034838318825,0.12395722419023514,0.07277762144804001,0.0056113689206540585,-0.03807931765913963,0.16180165112018585,0.08991654962301254,0.03427942842245102,-0.154062420129776,-0.15591929852962494,0.04638002812862396,0.2101222723722458,0.10507098585367203,0.17294462025165558,-0.050314582884311676,-0.18263497948646545,-0.2568175196647644,-0.18096713721752167,0.0540173202753067,-0.020152363926172256,0.04276762902736664,-0.05031081661581993,0.1409757137298584,0.13252319395542145,0.20910710096359253,0.3165624439716339,0.02055288851261139,-0.22520774602890015,-0.2571590542793274,-0.20652878284454346,-0.3820604681968689,-0.15183469653129578,-0.13874675333499908,0.07476732134819031,0.12408636510372162,-0.004736590664833784,0.3543684780597687,0.287600040435791,0.18933738768100739,-0.023250151425600052,-0.17421992123126984,-0.2665212154388428,-0.3869144320487976,-0.413423627614975,-0.3680562376976013,-0.2723526358604431,0.0743170902132988,0.14416761696338654,0.19229473173618317,0.33840474486351013,0.4340723752975464,0.393331915140152,0.06615498661994934,-0.15805597603321075,-0.18531106412410736,-0.22341983020305634,-0.2590213119983673,-0.054768458008766174,-0.20099271833896637,0.058345504105091095,0.12670783698558807,0.31795868277549744,0.35253530740737915,0.40089938044548035,0.20844866335391998,0.1834137886762619,0.07264106720685959,0.06518284231424332,-0.19418483972549438,-0.29321062564849854,-0.12679854035377502,-0.11967925727367401,0.022155143320560455,0.07827120274305344,0.10229230672121048,0.10519739240407944,0.22177453339099884,0.11223410069942474,0.12097765505313873,-0.03336044400930405,0.0019154415931552649,-0.09531423449516296,-0.03259986639022827,-0.09202847629785538,0.0011152069782838225,0.026897922158241272,0.031505025923252106,0.010951482690870762,0.08130763471126556,0.16075970232486725,0.11687231063842773,0.09635665267705917,0.008417434059083462,0.03744489327073097,-0.03676896542310715,0.005050580482929945,0.0012181770289316773,0.01793108694255352,-0.02121797390282154,0.038995951414108276,-0.038357239216566086,-0.06012379750609398,-0.15253931283950806,-0.09777375310659409,-0.29904353618621826,-0.26987722516059875,-0.1358630359172821,0.0018383789574727416,-0.08706676214933395,-0.015701448544859886,0.01616738736629486,0.12223529815673828,0.1691640466451645,0.1756906509399414,-0.007863534614443779,-0.0008448535809293389,-0.11294597387313843,-0.3039441406726837,-0.19035924971103668,-0.10271206498146057,-0.010447246953845024,0.17606085538864136,0.15781879425048828,-0.05610495060682297,0.08872858434915543,0.20490388572216034,0.13152241706848145,0.13231725990772247,-0.26347920298576355,-0.3353399634361267,-0.2622896730899811,-0.15881678462028503,-0.055955078452825546,0.06230562925338745,0.2092411071062088,0.10026270896196365,0.13973242044448853,0.1314716637134552,0.20204609632492065,0.23706172406673431,0.06417234241962433,0.06896668672561646,-0.13841302692890167,-0.32378262281417847,-0.2633972465991974,-0.06323765963315964,0.09183788299560547,0.1609620898962021,0.25975820422172546,0.13517779111862183,0.2461531162261963,0.40052711963653564,0.37077581882476807,0.09756594896316528,0.14660081267356873,0.024871399626135826,0.053712792694568634,0.012352797202765942,0.09130512177944183,0.2976313829421997,0.2900449335575104,0.34418901801109314,0.16417519748210907,0.24085001647472382,0.34422624111175537,0.3152724504470825,0.30555182695388794,0.149929478764534,0.21357829868793488,0.09852521866559982,0.17635291814804077,-0.11987829953432083,0.23257838189601898,0.2839011549949646,0.38003963232040405,0.24439357221126556,0.1300562173128128,0.41353458166122437,0.4636259377002716,0.36280357837677,0.20300349593162537,0.2933542728424072,0.08043120056390762,0.21909749507904053,0.4372922480106354,0.35353097319602966,0.27511391043663025,0.1755424439907074,0.10708489269018173,0.11249219626188278,0.12141977250576019,0.16246357560157776,0.1974923461675644,-0.01681852526962757,0.0002719538169912994,-0.09401433169841766,-0.13054436445236206,0.14463217556476593,0.27084389328956604,0.3647894561290741,0.24672678112983704,0.20708118379116058,0.07724174112081528,0.09034942835569382,0.20675213634967804,0.24006840586662292,-0.05842132866382599,-0.023754145950078964,-0.09662965685129166,-0.19605934619903564,-0.054495733231306076,0.051598262041807175,0.15896904468536377,0.12545689940452576,0.07719621062278748,0.03397504985332489,0.0901910662651062,0.06297272443771362,0.04568798094987869,-0.10512929409742355,-0.1655828058719635,-0.2856273353099823,-0.29969581961631775,-0.3344677686691284,-0.10835428535938263,-0.1058514192700386,0.09269444644451141,0.017136381939053535,-0.021704858168959618,0.03706039860844612,0.017635101452469826,-0.08356180042028427,-0.1736137419939041,-0.3428135812282562,-0.30047595500946045,-0.2771725654602051,-0.18308570981025696,-0.22325310111045837,0.0005278441240079701,0.029068371281027794,0.05183863267302513,0.0064152940176427364,-0.029393110424280167,0.008730592206120491,-0.13237416744232178,-0.22771136462688446,-0.2708403766155243,-0.20646017789840698,-0.2654964029788971,-0.1631895899772644,-0.10951853543519974,0.00874763261526823,0.03686300292611122,0.0373501218855381,-0.0364278219640255,0.026137979701161385,0.036000072956085205,-0.001015826710499823,-0.003530602902173996,-0.04472079873085022,-0.04126720502972603,-0.04753035679459572,0.017786184325814247,0.002297834260389209,0.021017050370573997,0.017527425661683083,0.008455635979771614,0.0214600320905447,0.003699926659464836,-0.0006906716735102236,0.17529137432575226,0.079618901014328,-0.01726636290550232,0.019397251307964325,0.007205924019217491,-0.012513459660112858,-0.048295438289642334,-0.06666366755962372,-0.05466362461447716,-0.0018335077911615372,0.04493659734725952,0.08598299324512482,0.15103186666965485,0.16987966001033783,0.17185410857200623,0.05338383838534355,-0.11701811105012894,-0.020783813670277596,-0.0492781326174736,-0.1166728213429451,-0.07689329981803894,-0.05569690093398094,-0.03328036516904831,0.14876334369182587,0.22147104144096375,0.10489455610513687,0.25614938139915466,0.274453341960907,0.07959017902612686,0.07998612523078918,-0.12984615564346313,-0.1846156120300293,-0.23306924104690552,-0.2020939290523529,-0.07823514938354492,-0.05950552597641945,0.1373102217912674,0.22753000259399414,0.11515647172927856,0.26780813932418823,0.4012575149536133,0.27633148431777954,-0.002470695413649082,-0.14512090384960175,-0.17138512432575226,-0.3923127353191376,-0.3037336468696594,-0.21060851216316223,-0.06725943833589554,-0.0658402368426323,0.08603237569332123,0.16804887354373932,0.18930625915527344,0.190487802028656,0.23618347942829132,-0.01606406271457672,-0.19674533605575562,-0.22728928923606873,-0.3426479995250702,-0.46302494406700134,-0.2567104399204254,-0.09005052596330643,-0.04236077144742012,-0.01758250780403614,0.05321048945188522,0.1658618450164795,-0.014477642253041267,0.06993546336889267,0.10264687985181808,-0.11669217050075531,-0.09380114078521729,-0.22592966258525848,-0.36112451553344727,-0.2815801203250885,-0.11973187327384949,-0.051397114992141724,-0.08180224895477295,-0.060089901089668274,-0.17072929441928864,-0.0867382287979126,-0.05761456862092018,0.16901512444019318,0.13672348856925964,-0.03473086655139923,-0.20621605217456818,-0.09267327934503555,-0.25665193796157837,-0.14613421261310577,-0.13946637511253357,-0.007458512205630541,-0.13308291137218475,-0.2719127833843231,-0.26991647481918335,0.021371958777308464,0.06581851094961166,0.018175676465034485,0.33506321907043457,0.13396479189395905,-0.04069473594427109,-0.176045224070549,-0.025990694761276245,-0.2100132554769516,-0.33512696623802185,-0.2390146404504776,-0.2013353854417801,-0.10349015146493912,0.07540550082921982,0.15469828248023987,0.29671600461006165,0.4120469391345978,0.4225205183029175,0.04753902181982994,-0.06659797579050064,0.07484525442123413,-0.24978028237819672,-0.15358518064022064,-0.17286430299282074,-0.02339152805507183,-0.20061248540878296,-0.10048183053731918,0.15020421147346497,0.2456880360841751,0.4564935564994812,0.4371570646762848,0.26110196113586426,-0.020073136314749718,0.08717817068099976,-0.0759885162115097,-0.09475529938936234,-0.1966279000043869,0.11463049054145813,0.0363888293504715,0.06093735992908478,0.232839897274971,0.26946884393692017,0.33042699098587036,0.23601435124874115,0.2223367542028427,0.054884858429431915,0.00012661251821555197,-0.12737460434436798,-0.045527245849370956,-0.16007140278816223,0.15902476012706757,0.18173035979270935,0.18806466460227966,0.3726555109024048,0.11766274273395538,0.10470543801784515,0.24247930943965912,0.06564197689294815,0.05757422745227814,-0.008988650515675545,-0.0746750682592392,-0.11693958193063736,-0.07071080058813095,0.024490060284733772,0.13618889451026917,0.16894271969795227,0.1718590259552002,0.20366069674491882,0.14968399703502655,0.09648182988166809,0.012951633892953396,-0.005581938195973635,-0.041831422597169876]],"b":[-0.8330251574516296,0.005921400152146816,0.8271011114120483]}],"trainedCounts":[19,23,29]};