window.PRETRAINED_WEIGHTS = {"config":{"inputSize":28,"numClasses":3,"convLayers":1,"numFilters":6,"filterSize":3,"learningRate":0.02,"epochs":12},"layers":[{"type":"Conv2D","inChannels":1,"numFilters":6,"fSize":3,"W":[[[[-0.537553608417511,-0.3352499306201935,-0.37170541286468506],[-0.025866223499178886,-0.5196158289909363,-0.18615373969078064],[0.6686750054359436,0.45833835005760193,-0.4349111318588257]]],[[[0.7116143107414246,0.08135291188955307,-1.7096794843673706],[0.5661454200744629,-0.06381547451019287,-0.03267340734601021],[-0.8399783372879028,-1.1938616037368774,0.18149115145206451]]],[[[-1.0411642789840698,0.40528616309165955,0.050606317818164825],[-0.79645836353302,1.0532712936401367,-0.5193034410476685],[-1.124327540397644,0.8572444319725037,0.03080146573483944]]],[[[0.1136203333735466,0.4406206011772156,-0.7568976879119873],[0.8766477108001709,0.29746583104133606,-0.7058018445968628],[0.10554865002632141,-0.9320344924926758,-1.2868350744247437]]],[[[-1.0479459762573242,-0.7038009762763977,-1.0234204530715942],[-0.425731360912323,-0.05725888907909393,-0.4220811128616333],[0.4676418602466583,1.010485291481018,0.7256159782409668]]],[[[-0.9437121748924255,0.10163851082324982,1.0666624307632446],[-0.980757474899292,-0.3737342655658722,0.6405923366546631],[-0.4967955946922302,-0.939954400062561,-0.356783926486969]]]],"b":[-0.11815700680017471,-0.0356057770550251,-0.24928925931453705,-0.3812013268470764,-0.45636501908302307,-0.06237618625164032]},{"type":"ReLU"},{"type":"MaxPool2D","size":2},{"type":"Flatten"},{"type":"Dense","inDim":1014,"outDim":3,"W":[[0.033573076128959656,0.06874069571495056,-0.019298028200864792,-0.020613960921764374,-0.013857796788215637,-0.030239088460803032,-0.04383039101958275,0.031032031401991844,0.1331939846277237,0.11549040675163269,0.07762841880321503,0.03817526996135712,0.04964391514658928,-0.020625798031687737,-0.10412652790546417,-0.1469433307647705,-0.060600023716688156,-0.035529397428035736,0.02422334998846054,0.00789328757673502,0.01130494475364685,0.03329665958881378,-0.005869140382856131,0.128035768866539,-0.022204646840691566,0.09923835843801498,-0.05545368418097496,-0.06220542639493942,-0.20695239305496216,-0.12797322869300842,-0.07737448811531067,0.040610723197460175,-0.050207365304231644,-0.013315086252987385,0.13383977115154266,0.17382776737213135,0.25179725885391235,0.02600264362990856,0.0605008527636528,-0.10026383399963379,-0.14142771065235138,-0.25152426958084106,-0.10438111424446106,-0.05221943557262421,-0.038873374462127686,0.03070233203470707,0.06418848037719727,0.17560690641403198,0.13967908918857574,0.08657241612672806,0.10522516071796417,-0.0468386709690094,-0.058363985270261765,-0.1632377803325653,-0.12351378798484802,-0.2771965563297272,-0.04153596982359886,0.08470942825078964,-0.08408436924219131,-0.08766333758831024,0.00957927480340004,0.12823987007141113,-0.013419045135378838,-0.008220722898840904,-0.060393720865249634,-0.09475012123584747,-0.08460792154073715,-0.09509050846099854,-0.1900814026594162,-0.13955539464950562,0.022254936397075653,0.03012360818684101,0.09527471661567688,-0.061719346791505814,0.024240778759121895,-0.019969316199421883,-0.11392451822757721,-0.10456102341413498,-0.00805309135466814,-0.18181034922599792,-0.2567218244075775,-0.07977072894573212,-0.00991919543594122,-0.04231242835521698,-0.059744060039520264,-0.036964818835258484,-0.038983240723609924,-0.13220424950122833,-0.11528859287500381,-0.07109009474515915,-0.2649329602718353,-0.05229441076517105,-0.07894075661897659,-0.12954093515872955,-0.09185187518596649,0.02970447950065136,-0.0629764199256897,0.07203514128923416,-0.08634607493877411,0.12478794902563095,-0.15158919990062714,-0.2920304834842682,-0.26647818088531494,-0.17227576673030853,0.018795495852828026,0.007399889640510082,-0.05996723100543022,-0.08045671135187149,0.0956692099571228,-0.006349535658955574,-0.14434580504894257,0.08577777445316315,-0.15857534110546112,-0.2410590648651123,-0.23058602213859558,-0.19039496779441833,-0.12977181375026703,-0.00996458437293768,-0.029917629435658455,0.05881780758500099,-0.018835177645087242,0.016932286322116852,-0.04362041875720024,-0.13561877608299255,-0.17234474420547485,0.04955296218395233,-0.07430174201726913,-0.20467007160186768,-0.08631376922130585,-0.07340215146541595,0.04549507796764374,0.002788346027955413,-0.03958381712436676,-0.008494047448039055,-0.0168569665402174,0.03201160579919815,-0.03786512836813927,-0.09556225687265396,0.031541548669338226,-0.10436058044433594,-0.07698078453540802,-0.0011068478925153613,-0.04397157207131386,0.04523559287190437,0.05021224170923233,0.036530785262584686,-0.016861699521541595,0.035419072955846786,-0.01421166118234396,0.040203943848609924,-0.046784427016973495,-0.06370403617620468,0.0254799984395504,-0.01428876630961895,-0.009151897393167019,0.043903641402721405,-0.014295537956058979,-0.021908549591898918,0.02545814961194992,-0.005924120545387268,-0.004483420867472887,-0.020042290911078453,-0.07633957266807556,-0.008012563921511173,0.020992621779441833,-0.005372794810682535,-0.021842433139681816,-0.006890290882438421,-0.020415039733052254,0.0701000839471817,0.014568619430065155,0.04934075474739075,0.00944239366799593,0.002052583498880267,0.013261616230010986,-0.021792380139231682,0.007853069342672825,0.006670174188911915,0.009813942015171051,0.016309376806020737,0.0454629510641098,0.0992993637919426,0.03122043050825596,0.04382852464914322,0.041339922696352005,0.05309498682618141,-0.01171942800283432,-0.2138671725988388,-0.1714646816253662,-0.10669716447591782,0.05830850824713707,0.11441992968320847,0.08426941931247711,0.037609681487083435,0.027231989428400993,0.09948042780160904,0.09088919311761856,0.1595749408006668,0.1421559751033783,-0.12114400416612625,-0.3011241555213928,-0.19268810749053955,-0.11312161386013031,0.20810246467590332,0.054995935410261154,0.07735301554203033,-0.11622278392314911,-0.02506171353161335,0.13054311275482178,0.1556762307882309,0.1901826411485672,0.14576660096645355,-0.1629292070865631,-0.14033359289169312,-0.28447073698043823,-0.2451719045639038,-0.16123153269290924,-0.059745967388153076,-0.1271703690290451,-0.13483133912086487,-0.05399611219763756,0.0792330950498581,-0.018720949068665504,0.17981866002082825,0.20469310879707336,-0.09951579570770264,-0.16339147090911865,-0.40790489315986633,-0.12649349868297577,-0.22964894771575928,-0.14265184104442596,-0.12532740831375122,-0.40079572796821594,-0.2668426036834717,-0.06532295048236847,-0.07723911106586456,-0.194645956158638,-0.11324705183506012,-0.20338837802410126,0.005750387907028198,0.028572719544172287,-0.016751432791352272,-0.05996864289045334,-0.1785578578710556,-0.18417325615882874,-0.3283025026321411,-0.21491369605064392,-0.07400107383728027,-0.2146427035331726,-0.35247427225112915,-0.2888741195201874,-0.06857557594776154,0.06605839729309082,0.016015872359275818,0.06677326560020447,0.0004922933876514435,-0.021635064855217934,0.11393304169178009,-0.03744274377822876,-0.23038391768932343,-0.13133582472801208,-0.18379320204257965,-0.32618194818496704,-0.19830173254013062,-0.0030157247092574835,-0.20372724533081055,0.12436125427484512,0.2767297029495239,0.17371933162212372,0.21822905540466309,0.22436034679412842,0.058147795498371124,-0.07170496881008148,-0.09099014848470688,-0.2626870572566986,-0.37749728560447693,-0.3015158474445343,0.007399136200547218,-0.005399288143962622,-0.07464434206485748,-0.1363263875246048,0.03609263151884079,0.22416768968105316,0.24768194556236267,0.4944778084754944,0.10832644999027252,-0.015267560258507729,-0.12619318068027496,-0.2877272963523865,-0.20871010422706604,-0.08840951323509216,-0.14642539620399475,-0.1927274912595749,0.11779065430164337,0.1678433120250702,0.3342026472091675,0.518236517906189,0.15952658653259277,0.20926055312156677,-0.007474701385945082,-0.06936998665332794,-0.11612522602081299,-0.16902780532836914,-0.1968766301870346,-0.03685044124722481,-0.24310429394245148,-0.1217120885848999,0.16654153168201447,0.2402900904417038,0.19392389059066772,0.2784684896469116,0.38585883378982544,0.08457405120134354,0.04352743178606033,-0.013566971756517887,-0.05064518749713898,-0.19699648022651672,-0.3261405825614929,-0.19069871306419373,-0.11741899698972702,-0.02980962209403515,0.15031403303146362,0.2022121548652649,0.3325420320034027,0.11653225123882294,0.024784328415989876,0.07110487669706345,0.012572561390697956,-0.00447591720148921,-0.09768228977918625,-0.29302266240119934,-0.20589400827884674,-0.31043142080307007,-0.07120905071496964,-0.08708798140287399,0.03429379686713219,0.017106564715504646,0.004617665894329548,-0.03811861574649811,0.002301969565451145,0.009207583032548428,-0.08703020215034485,-0.029469184577465057,-0.07356134057044983,0.04008433222770691,-0.1590825766324997,-0.04187450557947159,-0.018511803820729256,-0.03875735402107239,-0.02573336474597454,-0.025382550433278084,-0.05266662314534187,-0.01065699104219675,0.08349023759365082,0.09535270184278488,-0.01747244969010353,0.1015024483203888,-0.11849821358919144,-0.07907462865114212,-0.09433477371931076,-0.14999140799045563,-0.07949016243219376,-0.08384593576192856,0.000547352188732475,-0.06172440946102142,-0.16039617359638214,-0.058408644050359726,-0.05570382997393608,-0.0878090187907219,0.06591206043958664,-0.021321872249245644,-0.014292062260210514,-0.17994295060634613,-0.03963780775666237,-0.16607517004013062,-0.018504641950130463,-0.006937015801668167,0.033961955457925797,-0.03875582665205002,-0.13663899898529053,0.029266735538840294,0.050287604331970215,-0.11902563273906708,0.08213827013969421,0.026066768914461136,-0.25135326385498047,-0.3227687180042267,-0.23603595793247223,-0.05997007340192795,0.00015779172827024013,0.07117531448602676,0.024096660315990448,0.16806116700172424,0.03984689712524414,0.08303997665643692,0.04432958737015724,0.0508761964738369,-0.02192188985645771,-0.25618553161621094,-0.28572019934654236,-0.1196925938129425,0.13144740462303162,0.03489522263407707,0.21146900951862335,0.3592475652694702,0.1397181898355484,-0.04429716616868973,-0.023419715464115143,0.08501581847667694,0.10635267198085785,-0.0049366941675543785,-0.09084025770425797,-0.08650963008403778,0.15434381365776062,0.16927039623260498,-0.09029965847730637,0.2057548314332962,0.23585234582424164,-0.1189623549580574,-0.02477048709988594,-0.15672773122787476,0.06787245720624924,-0.030168499797582626,-0.014703548513352871,0.022457439452409744,0.1872158646583557,-0.024634046480059624,0.130582794547081,-0.01402392890304327,0.023203127086162567,0.07732486724853516,0.1901034116744995,-0.24820955097675323,-0.34119585156440735,0.058241263031959534,0.038224026560783386,0.12889577448368073,-0.22229968011379242,0.013101846911013126,-0.04410383105278015,0.021833568811416626,-0.03686785697937012,0.04139544442296028,0.06286407262086868,-0.2240116447210312,-0.17011837661266327,-0.2806554436683655,-0.12337427586317062,-0.03682413324713707,0.001615505781956017,-0.16399474442005157,-0.07792477309703827,-0.18202626705169678,0.02939954772591591,0.04358450323343277,-0.07071923464536667,-0.3377062976360321,-0.1403520107269287,-0.291352778673172,-0.15761953592300415,-0.15239019691944122,-0.18102099001407623,-0.15113131701946259,-0.2083882987499237,-0.09149830788373947,-0.13456803560256958,0.029829116538167,0.021921934559941292,-0.0536123625934124,-0.24262870848178864,-0.3623734712600708,-0.21680699288845062,-0.2487381100654602,-0.2589096426963806,-0.2732822597026825,-0.07576567679643631,-0.20406369864940643,-0.029044106602668762,-0.010966277681291103,0.033400774002075195,-0.025954358279705048,-0.05450308322906494,-0.06295636296272278,-0.10482817143201828,-0.08612889051437378,-0.1641811579465866,-0.11959972232580185,-0.07504794746637344,-0.0413404144346714,-0.11679729074239731,-0.08874326944351196,0.0047102137468755245,-0.024747543036937714,-0.026501817628741264,-0.010895728133618832,0.004421450197696686,-0.029067251831293106,-0.01505183894187212,-0.04641709849238396,-0.0804188996553421,0.012054956518113613,-0.10729504376649857,-0.05719122663140297,-0.06007351726293564,0.002450701780617237,-0.0054338350892066956,0.0334295816719532,-0.023821216076612473,0.029159311205148697,-0.0232809167355299,0.07048214972019196,0.004040371160954237,-0.005155822727829218,-0.12461228668689728,-0.07713811099529266,-0.11695118248462677,-0.12066710740327835,-0.07466880232095718,-0.12155245989561081,0.03411494567990303,-0.055818505585193634,0.020715953782200813,0.025299619883298874,0.17039383947849274,0.12188263982534409,0.04924365505576134,-0.09629564732313156,-0.14961276948451996,-0.31045621633529663,-0.36664092540740967,-0.22052377462387085,-0.1673753708600998,-0.050179172307252884,-0.053911153227090836,-0.011135336942970753,-0.02560495212674141,0.0601382702589035,-0.08198340237140656,-0.05413622409105301,-0.026242801919579506,-0.36269500851631165,-0.39407801628112793,-0.5014392733573914,-0.3396417796611786,-0.34697258472442627,0.07375892996788025,-0.038172222673892975,-0.023107172921299934,0.15879985690116882,0.009950176812708378,-0.12428851425647736,-0.005580454133450985,-0.17018404603004456,-0.2858177125453949,-0.35687223076820374,-0.46682196855545044,-0.1330350935459137,-0.15316511690616608,0.06773527711629868,-0.1387162208557129,0.09866955131292343,0.09517870098352432,0.08898445218801498,-0.059527914971113205,-0.10080179572105408,-0.040030740201473236,-0.1542048454284668,-0.3072374761104584,-0.25193512439727783,-0.07304510474205017,-0.08432330936193466,0.07749397307634354,-0.07935292273759842,0.009351970627903938,0.029972320422530174,-0.145122230052948,-0.041235554963350296,0.00571818184107542,0.15476149320602417,-0.014810486696660519,0.0663161501288414,0.015727952122688293,0.023839978501200676,-0.16670283675193787,-0.04350588098168373,-0.08663998544216156,-0.07792108505964279,-0.14115461707115173,-0.0874413475394249,-0.08879370987415314,-0.022544359788298607,0.047402847558259964,0.21787317097187042,0.20129606127738953,0.13578619062900543,0.22458289563655853,0.0349060520529747,0.08754236996173859,-0.10238330811262131,-0.0669308751821518,-0.27232176065444946,-0.2474968582391739,-0.1681840866804123,-0.217973992228508,0.04270894452929497,0.17914727330207825,0.06289109587669373,0.3741776943206787,0.26293033361434937,0.3569299280643463,0.13574236631393433,-0.14560149610042572,-0.17490112781524658,-0.2876652181148529,-0.5639704465866089,-0.3719964325428009,-0.23586082458496094,-0.16506509482860565,-0.017081160098314285,0.02990814857184887,0.25296205282211304,0.3032016456127167,0.5146452188491821,0.3033153712749481,-0.13540276885032654,-0.2339986115694046,-0.26714473962783813,-0.5881624817848206,-0.46960702538490295,-0.18116319179534912,0.030149469152092934,0.12448731064796448,0.1567768007516861,0.22947189211845398,0.3458123207092285,0.11222463101148605,0.3054967522621155,-0.11270661652088165,-0.1989726722240448,-0.40326589345932007,-0.5974082350730896,-0.49410635232925415,-0.13723306357860565,-0.05547112599015236,0.15651081502437592,0.18085339665412903,0.06381163001060486,0.25043442845344543,0.264400839805603,0.2042039930820465,-0.005489209201186895,-0.08357446640729904,-0.24712948501110077,-0.3605526387691498,-0.1632314920425415,-0.08817130327224731,0.005643012002110481,-0.04523328319191933,-0.05253760889172554,0.0035144821740686893,0.17433781921863556,0.21512575447559357,0.05858982354402542,-0.04591523855924606,-0.04123377054929733,-0.07721453160047531,-0.045369163155555725,-0.1430714875459671,-0.19913232326507568,-0.08744724839925766,-0.1904170960187912,-0.15834316611289978,-0.12106354534626007,-0.06256167590618134,-0.016125831753015518,0.008490669541060925,0.01787262223660946,-0.028263164684176445,0.030090318992733955,0.09912578761577606,0.15808045864105225,0.1508878916501999,0.28462183475494385,0.15370208024978638,0.2754124402999878,0.13621439039707184,0.029204903170466423,-0.005404656287282705,-0.03651800751686096,-0.1591925024986267,-0.17027872800827026,-0.19171211123466492,0.18108099699020386,0.25280821323394775,0.23180241882801056,0.17827528715133667,0.12065256386995316,0.06564550846815109,0.1958685666322708,-0.1778566539287567,-0.08874168992042542,-0.06124287471175194,-0.1850215643644333,-0.08649606257677078,-0.16784945130348206,-0.033510658890008926,0.289046972990036,0.12187685072422028,0.0834653303027153,0.11819883435964584,0.2102930098772049,0.14290955662727356,-0.1174471378326416,-0.18871065974235535,-0.14248616993427277,-0.1967158317565918,-0.3819230794906616,-0.27827200293540955,0.14851395785808563,0.03381875157356262,0.10650753229856491,0.3181501626968384,0.24614030122756958,0.08874619007110596,-0.1180439442396164,-0.1721494495868683,-0.34585511684417725,-0.22785384953022003,-0.3816247284412384,-0.49152442812919617,-0.39910921454429626,-0.12182573229074478,-0.2133600264787674,0.11023735255002975,-0.03043370507657528,0.030730927363038063,0.08485734462738037,-0.030151888728141785,-0.3378504514694214,-0.46719443798065186,-0.44303280115127563,-0.35780856013298035,-0.5078466534614563,-0.3842863142490387,-0.4548279941082001,0.013713196851313114,-0.012389005161821842,0.10115477442741394,0.12670448422431946,0.3134220242500305,-0.11301853507757187,-0.2879495620727539,-0.3572427034378052,-0.37888196110725403,-0.22361399233341217,-0.5016276836395264,-0.5525933504104614,-0.3334185481071472,-0.16216792166233063,-0.10740995407104492,-0.08531143516302109,-0.11839654296636581,-0.17858609557151794,-0.46020475029945374,-0.5071261525154114,-0.2645178735256195,-0.3588930666446686,-0.24983103573322296,-0.26806896924972534,-0.5440855026245117,-0.4166073501110077,0.07347508519887924,0.12294115871191025,-0.01696944609284401,0.07065536081790924,0.057867348194122314,-0.45825448632240295,-0.4647834599018097,-0.33815062046051025,-0.24562931060791016,-0.07758327573537827,-0.2238042801618576,-0.2841801345348358,-0.35791921615600586,-0.16800382733345032,0.009859058074653149,-0.050138380378484726,0.1264706403017044,-0.1829390525817871,-0.3599203824996948,-0.3830408453941345,-0.21311166882514954,-0.07574257254600525,-0.06532618403434753,-0.019341595470905304,-0.1108541339635849,-0.05802655592560768,-0.02955123968422413,0.029517654329538345,0.1245938241481781,0.17804746329784393,0.12753047049045563,0.029822081327438354,-0.0534837543964386,-0.0896528884768486,-0.049395088106393814,-0.026373839005827904,-0.05943594127893448,-0.13500821590423584,-0.12439589947462082,0.09303107112646103,0.29589515924453735,0.22214855253696442,0.18268373608589172,0.348826140165329,0.13658666610717773,-0.01229827105998993,-0.004281618632376194,0.007291771471500397,0.0034062773920595646,-0.02422070875763893,-0.061001796275377274,0.01774689182639122,0.1488494873046875,0.32271215319633484,0.22380903363227844,0.08107413351535797,0.11256777495145798,0.05794069543480873,0.024629920721054077,-0.020087527111172676,-0.021688122302293777,-0.02150469645857811,0.004390478599816561,0.009561513550579548,0.03789009898900986,0.03119073249399662,-0.05407265946269035,-0.06692280620336533,-0.03299984708428383,0.008780129253864288,-0.06384117901325226,-0.02671233005821705,-0.014850850217044353,-0.015863636508584023,-0.017136188223958015,-0.06449998170137405,-0.02407883293926716,-0.17341221868991852,-0.12763309478759766,-0.09881137311458588,-0.052686791867017746,-0.08222708851099014,-0.08749069273471832,-0.13498826324939728,-0.020351145416498184,-0.046512097120285034,0.014118490740656853,-0.09308497607707977,-0.13078375160694122,-0.21629133820533752,-0.33496949076652527,-0.35732796788215637,-0.2823011577129364,-0.097514808177948,-0.21626228094100952,0.016535090282559395,0.09891736507415771,-0.016030369326472282,-0.042646367102861404,0.017965085804462433,-0.20861086249351501,-0.3757389187812805,-0.3562760651111603,-0.4685770571231842,-0.3476797044277191,-0.22101467847824097,-0.26274967193603516,-0.05464502051472664,0.14236927032470703,0.21808090806007385,0.17226289212703705,0.09178096055984497,-0.02247735857963562,-0.18050184845924377,-0.5595594048500061,-0.29853036999702454,-0.42353278398513794,-0.4835130572319031,-0.4245762825012207,-0.1723082810640335,0.006910115946084261,0.14484068751335144,0.19660450518131256,0.19117416441440582,0.21056398749351501,-0.004578503780066967,-0.01923930086195469,-0.08657018840312958,-0.0952630266547203,-0.23638786375522614,-0.19386354088783264,-0.09413167834281921,-0.13608773052692413,-0.01637340895831585,0.031554389744997025,0.012582705356180668,0.3247126340866089,0.10794778168201447,-0.03510432690382004,-0.025377929210662842,-0.06207031384110451,-0.019210482016205788,-0.07881743460893631,-0.0450582429766655,-0.019956985488533974,0.12510260939598083,0.11678483337163925,-0.18253719806671143,0.05245254933834076,0.24758124351501465,0.2391621172428131,-0.02382028102874756,0.04629768058657646,0.050715573132038116,0.04939725250005722,0.07315578311681747,-0.05214611068367958,0.23529812693595886,0.29384365677833557,0.12964363396167755,0.0478508286178112,0.03545521944761276,0.015452099032700062,0.23875518143177032,0.02198994718492031,0.09694024175405502,0.13828131556510925,0.07399600744247437,0.017344767227768898,-0.009864132851362228,-0.1719450205564499,0.35264506936073303,0.12262246012687683,-0.2266128957271576,-0.36122915148735046,-0.16201917827129364,0.03414517268538475,0.04422547295689583,0.14680446684360504,0.18250727653503418,0.3244377374649048,0.13716259598731995,0.011918054893612862,0.0050207749009132385,-0.11753322184085846,-0.1533368080854416,-0.26068589091300964,-0.34744346141815186,-0.15998610854148865,0.017022203654050827,-0.05141439288854599,0.4254252314567566,0.45648080110549927,0.29743874073028564,0.2348729968070984,0.1514146327972412,-0.04137280955910683,-0.052123840898275375,-0.3805989623069763,-0.4955782890319824,-0.5391454696655273,-0.34834176301956177,-0.012552335858345032,-0.06026441976428032,0.3074714243412018,0.2437821626663208,0.25123685598373413,0.20031505823135376,0.23363348841667175,0.046254660934209824,-0.3113555908203125,-0.21933533251285553,-0.3092494308948517,-0.4082448184490204,-0.32087182998657227,-0.05243925005197525,-0.00010885325900744647,0.03515763208270073,0.23090723156929016,0.26047030091285706,0.030134472995996475,-0.12272855639457703,-0.18971405923366547,-0.3332761526107788,-0.1712738573551178,-0.2984243929386139,-0.19390039145946503,-0.10080055892467499,-0.06056651473045349,0.0036147735081613064,-0.06840908527374268,0.12434525042772293,0.04979962855577469,0.06694506108760834,-0.12894386053085327,-0.20899058878421783,-0.27712929248809814,-0.17356611788272858,-0.13736124336719513,-0.10732591152191162,-0.07558247447013855,0.024420134723186493,-0.0242131520062685],[0.00828960444778204,-0.05250995606184006,0.061440568417310715,0.0232133436948061,0.06745629012584686,0.0169107373803854,0.02445431612432003,0.03864804282784462,-0.10275236517190933,-0.10986284911632538,-0.004186001606285572,0.01622661016881466,0.04667194187641144,-0.0037269911263138056,0.011744429357349873,0.1134665235877037,0.006551939528435469,-0.06580504029989243,-0.03030814416706562,-0.02736051380634308,0.08953390270471573,-0.009010827168822289,-0.03858482092618942,-0.03761056065559387,-0.07383071631193161,0.05997465178370476,0.03188745304942131,0.07243680953979492,0.0842721164226532,0.06386587023735046,-0.018656063824892044,0.005273560527712107,0.14611220359802246,0.1859293431043625,0.14612525701522827,-0.06785145401954651,-0.1579926460981369,-0.022403107956051826,-0.08708924055099487,0.0033805391285568476,0.033683255314826965,0.09852191060781479,0.12629970908164978,0.04428211599588394,0.05770764872431755,0.08869344741106033,0.12816016376018524,-0.020716896280646324,-0.10565333068370819,0.026975251734256744,-0.09258567541837692,0.003158358857035637,0.004712781868875027,0.012505916878581047,0.024892909452319145,0.07644690573215485,0.03830679506063461,-0.041675273329019547,0.005888468585908413,0.1545562446117401,0.10729072242975235,-0.08898157626390457,-0.01787109673023224,-0.10594066977500916,0.0026914544869214296,0.03906134143471718,0.07683657109737396,0.04882960766553879,-0.02242317609488964,-0.053382690995931625,-0.2105722278356552,-0.17481346428394318,-0.02659657970070839,0.07719273120164871,-0.07541057467460632,-0.010378182865679264,-0.11968256533145905,0.01036103442311287,-0.005451187025755644,0.06999441236257553,0.07899316400289536,-0.05969615280628204,-0.10297676175832748,-0.04684831202030182,-0.19192656874656677,0.1447877734899521,-0.01671203225851059,-0.011783377267420292,0.012453176081180573,0.09126230329275131,0.04997236281633377,-0.0028977871406823397,0.0473329983651638,0.03947031497955322,0.07633965462446213,-0.15612506866455078,0.06242137402296066,-0.01131284050643444,-0.06263101100921631,-0.23051847517490387,-0.08120126277208328,-0.003111405298113823,0.0511448010802269,0.0045189582742750645,-0.036342740058898926,0.07192298769950867,0.12918293476104736,0.02588651143014431,-0.06685978174209595,-0.056306567043066025,0.05818827822804451,-0.013418084941804409,-0.011102918535470963,-0.018825456500053406,-0.0778031274676323,0.010540035553276539,0.01501881517469883,0.05007235333323479,-0.022284286096692085,0.00913473404943943,0.058893345296382904,-0.02965601533651352,0.13740819692611694,0.2098969668149948,0.07719357311725616,-0.07454658299684525,-0.04937676340341568,0.19510507583618164,-0.08778075128793716,-0.018392840400338173,0.017456885427236557,0.06388784199953079,0.04815871641039848,0.04344326630234718,0.12180611491203308,0.10839769244194031,0.17078499495983124,0.15849760174751282,0.03152211755514145,0.03597265109419823,-0.09461074322462082,-0.03362613916397095,-0.039619121700525284,-0.03337918967008591,0.01112615130841732,0.005071911029517651,-0.0015057662967592478,0.06951820850372314,0.14576837420463562,0.08494491875171661,0.1418180763721466,-0.01162765547633171,-0.038648977875709534,-0.046767815947532654,-0.050114549696445465,-0.06271066516637802,0.008092003874480724,-0.04005222022533417,-0.04085239768028259,-0.040369901806116104,0.058850597590208054,0.061763107776641846,0.08047961443662643,0.04730619490146637,-0.04011639580130577,0.025803789496421814,-0.06090481951832771,-0.0579071119427681,-0.031749241054058075,-0.05017375573515892,-0.04460946097970009,-0.021159669384360313,-0.07594337314367294,-0.011797571554780006,0.07832591980695724,0.027660958468914032,0.0520518459379673,0.06599954515695572,0.017419803887605667,-0.053044892847537994,-0.01813620701432228,0.008486714214086533,0.01655385084450245,-0.036935534328222275,-0.03464042767882347,0.011454276740550995,0.06814518570899963,0.24375146627426147,0.21459318697452545,0.22905233502388,0.17676541209220886,-0.06743049621582031,0.007730611599981785,0.02010003663599491,-0.008942212909460068,-0.08350550383329391,-0.030615804716944695,-0.017409030348062515,-0.12335658818483353,0.07726997137069702,0.21279138326644897,0.25330692529678345,0.3376275897026062,-0.05066656693816185,-0.009300711564719677,-0.12047847360372543,-0.024701228365302086,0.0015219782944768667,-0.07178318500518799,-0.10018176585435867,-0.10613921284675598,-0.07921653985977173,-0.0687146708369255,-0.011425496079027653,-0.05048868805170059,0.2266533523797989,0.14283671975135803,-0.11019589006900787,0.01902419701218605,0.051998261362314224,0.03687579184770584,-0.12509740889072418,0.06405385583639145,-0.09420566260814667,-0.21496066451072693,-0.0755259171128273,-0.015252502635121346,0.1936703622341156,-0.01669803075492382,0.1374419629573822,-0.031565580517053604,-0.0913291648030281,0.060509417206048965,0.10525081306695938,0.03523322194814682,0.10056183487176895,0.17981037497520447,0.1461949199438095,-0.012341749854385853,-0.07418027520179749,-0.21583957970142365,0.0857744961977005,-0.07935615628957748,-0.11449211090803146,-0.017513271421194077,0.13934166729450226,0.03500130772590637,0.03721466660499573,0.14551863074302673,0.2536493241786957,-0.00013489185948856175,-0.034777041524648666,-0.14114217460155487,-0.03242545947432518,0.08709308505058289,-0.0753452330827713,-0.08969246596097946,-0.013462691567838192,0.039690665900707245,0.1637474149465561,0.011126963421702385,0.16133037209510803,0.25761276483535767,0.1221802607178688,-0.07597950845956802,0.09128578752279282,-0.08015047013759613,-0.07412125170230865,0.056158483028411865,0.027990473434329033,-0.09172739833593369,-0.028740230947732925,0.03770548477768898,0.15602906048297882,0.17848892509937286,0.29367026686668396,0.19266918301582336,-0.12323839962482452,-0.09045691043138504,0.07918355613946915,0.321958988904953,0.12470615655183792,0.06867089867591858,0.04088689386844635,-0.06647064536809921,-0.0982760488986969,-0.006220612209290266,0.23559358716011047,0.22535036504268646,0.03257555514574051,-0.12903398275375366,-0.015086391009390354,0.0793485939502716,0.03483546897768974,-0.03343149647116661,0.03333158791065216,-0.2955113351345062,-0.052430544048547745,-0.04428819939494133,-0.037320345640182495,0.0030871285125613213,-0.01882343553006649,0.11096552759408951,-0.04903100058436394,0.06431793421506882,0.09511128813028336,0.10233771055936813,0.018172621726989746,-0.18282712996006012,-0.10464880615472794,-0.23192498087882996,-0.14706097543239594,-0.05682096257805824,-0.019294867292046547,-0.13354328274726868,-0.03976946324110031,0.14054884016513824,0.14681309461593628,0.26060765981674194,0.22232182323932648,0.05845873802900314,-0.033444054424762726,-0.13742035627365112,-0.1262197196483612,-0.09399518370628357,-0.02038281224668026,-0.0389871746301651,-0.0429786778986454,-0.026251856237649918,-0.022348757833242416,0.14418144524097443,0.07500313967466354,0.17130941152572632,0.015015697106719017,0.027474243193864822,0.022426050156354904,-0.020861703902482986,-0.06397725641727448,0.0007395806605927646,0.07259272038936615,-0.029546763747930527,-0.011262387037277222,-0.053776323795318604,-0.17949604988098145,-0.040863316506147385,-0.07673878222703934,-0.1602305918931961,-0.02822147123515606,-0.07929708808660507,-0.044708002358675,-0.0032651436049491167,0.014372634701430798,-0.09686408191919327,-0.0918436273932457,-0.10646728426218033,-0.15002964437007904,-0.28630146384239197,-0.08526433259248734,-0.1806807667016983,-0.10483984649181366,0.030973967164754868,-0.01210344210267067,-0.008420266211032867,-0.040618300437927246,0.05384783074259758,-0.011378760449588299,-0.0050931284204125404,-0.12361864745616913,-0.0146246999502182,-0.05248614400625229,-0.17427785694599152,-0.01780642941594124,0.03436805680394173,-0.038188472390174866,0.181793212890625,0.07585703581571579,-0.028741681948304176,-0.018594443798065186,0.026644127443432808,0.17507992684841156,-0.02743515744805336,-0.12373615056276321,0.0001401921472279355,-0.16394472122192383,-0.02950865589082241,0.2493593990802765,0.24896028637886047,0.25155410170555115,0.10270335525274277,0.056089237332344055,-0.09395085275173187,0.13943208754062653,-0.021041156724095345,0.017772771418094635,-0.005255113821476698,0.017863374203443527,-0.011444593779742718,0.04655372351408005,0.1068296805024147,0.3407668471336365,0.29739299416542053,0.14125965535640717,0.04571088030934334,-0.19529491662979126,-0.0790024846792221,-0.21261823177337646,0.08726552873849869,0.30739346146583557,-0.06981083750724792,-0.03353393077850342,0.05799327418208122,0.05006585642695427,0.18959428369998932,0.05994986370205879,0.16770032048225403,0.07751180976629257,-0.06770946830511093,-0.23538923263549805,0.06619963049888611,0.2012692242860794,0.07897885888814926,-0.11063245683908463,0.15273848176002502,0.09232372790575027,-0.03982307389378548,-0.02421252615749836,0.2122717648744583,0.0462038554251194,0.06569717824459076,-0.06904108822345734,-0.019143428653478622,-0.05034709349274635,0.1566000133752823,0.06827102601528168,-0.27725693583488464,-0.0954599604010582,-0.1792973428964615,0.1440764218568802,0.1510278284549713,0.2345329076051712,0.1326225847005844,0.10932594537734985,-0.06608860939741135,-0.04023491591215134,0.003141373163089156,-0.071344293653965,0.11786524206399918,-0.20770253241062164,-0.2061130404472351,-0.00020997098181396723,0.13999906182289124,0.15744607150554657,0.18198464810848236,0.1536443829536438,0.1073201447725296,0.08448882400989532,0.14448235929012299,0.07458481192588806,0.14736677706241608,-0.09255588799715042,-0.019982753321528435,-0.05927632376551628,0.04353579133749008,-0.012630278244614601,0.10287158936262131,0.3349943161010742,0.03790181502699852,0.026696229353547096,0.0032560417894273996,0.01700914092361927,0.20949125289916992,-0.03613555058836937,-0.05948411300778389,0.06054465100169182,0.20643018186092377,0.0019357036799192429,-0.01920948177576065,-0.02334417775273323,-0.013513303361833096,0.005313879810273647,0.01707901805639267,-0.018575655296444893,0.03440969064831734,0.0018118344014510512,-0.008052517659962177,0.0272065456956625,0.06289684772491455,0.008021307177841663,-0.030757999047636986,0.0832284614443779,0.04147321730852127,0.0185534730553627,0.023408716544508934,-0.034934449940919876,-0.012949226424098015,-0.04972034692764282,-0.014039554633200169,0.005907189100980759,0.05315326899290085,-0.04515589028596878,0.05578703433275223,-0.002969148335978389,0.044054873287677765,0.0002861807879526168,-0.004875405691564083,-0.006798774469643831,-0.044755928218364716,0.0006450003129430115,0.004892954137176275,-0.0068957568146288395,-0.00958975125104189,-0.017347224056720734,0.01577676460146904,-0.008038517087697983,0.000979520962573588,-0.051721807569265366,0.06435738503932953,0.0179143026471138,0.06786219775676727,0.010852104984223843,0.008106356486678123,-0.03272544592618942,0.04287990555167198,-0.0005557538825087249,-0.036349162459373474,-0.007207524497061968,-0.04988238960504532,0.0253671333193779,0.11459875851869583,0.1620234102010727,0.059512846171855927,0.1200437992811203,0.0588211715221405,0.003381747053936124,0.07383423298597336,0.10909713059663773,0.1204468160867691,0.09583096951246262,0.10810989886522293,-0.11700192093849182,0.1545412391424179,0.06620617210865021,-0.08715736865997314,0.014821124263107777,0.10947830975055695,-0.077979177236557,0.07288555800914764,0.094945028424263,0.11511455476284027,0.01645289547741413,0.17101556062698364,-0.1675940901041031,0.009100171737372875,0.019011979922652245,-0.014422755688428879,0.0042742411606013775,-0.06917531043291092,-0.03622150421142578,-0.08700097352266312,0.03263787180185318,0.05598112940788269,-0.014621786773204803,-0.012193241156637669,0.12113431096076965,0.013275137171149254,0.03567711263895035,0.005259422585368156,0.07626187056303024,-0.11372396349906921,-0.20743362605571747,-0.08886156231164932,-0.11431949585676193,0.025121482089161873,0.1468963325023651,-0.07530251890420914,0.05327850952744484,-0.0809309110045433,-0.29012638330459595,-0.1599753499031067,-0.03415001556277275,-0.11633743345737457,-0.0014789759879931808,0.107705257833004,0.11875464022159576,0.028659820556640625,0.055914025753736496,0.10434836149215698,0.12842106819152832,-0.037953294813632965,0.01973547227680683,-0.2180074006319046,-0.2161841243505478,0.020532602444291115,0.013830645941197872,0.01668522320687771,-0.004882180131971836,-0.09680983424186707,-0.11830566078424454,-0.028265753760933876,0.05807612091302872,0.1922461837530136,0.159573495388031,-0.07944069802761078,-0.15494856238365173,0.01774999313056469,0.08790413290262222,0.1735290288925171,-0.06047877296805382,0.1433156132698059,-0.022583451122045517,-0.045120179653167725,0.020556023344397545,0.0025067185051739216,0.21565112471580505,0.12951721251010895,-0.011414938606321812,0.06654750555753708,0.14291052520275116,0.19396060705184937,0.13557545840740204,0.2659017741680145,0.21604175865650177,-0.02466813288629055,-0.03663931041955948,0.032425954937934875,0.11236416548490524,0.12076357752084732,0.08740266412496567,0.01636352390050888,-0.10016896575689316,-0.08066724240779877,0.019396962597966194,0.050875332206487656,0.04410415142774582,-0.14035828411579132,0.038426049053668976,-0.10863392055034637,0.007466023787856102,0.011876736767590046,0.03657279163599014,0.26809024810791016,0.11935624480247498,-0.07760420441627502,-0.07113176584243774,-0.2089904397726059,-0.07257262617349625,0.1029992327094078,0.09069020301103592,-0.055260296911001205,-0.005617028567939997,0.02306061051785946,-0.011850605718791485,0.07991699129343033,0.17604097723960876,-0.10943962633609772,-0.08698925375938416,-0.18275612592697144,0.1385514736175537,-0.008562145754694939,0.05751972645521164,0.027583567425608635,-0.026169562712311745,-0.05180809274315834,0.051035404205322266,0.025817757472395897,0.07661407440900803,0.032895445823669434,-0.07637187838554382,0.04932861030101776,0.026347443461418152,0.08442165702581406,0.013228700496256351,0.12391602993011475,0.09424517303705215,0.002262163208797574,0.000048516285460209474,0.015894655138254166,-0.04402339085936546,-0.0641951635479927,-0.11358323693275452,-0.06608983129262924,0.04110655561089516,0.016349472105503082,0.09180012345314026,-0.08772125840187073,-0.09869671612977982,0.024491755291819572,-0.003019804833456874,0.041657496243715286,0.0531865730881691,0.035346485674381256,0.1357269138097763,-0.05748911574482918,-0.22123843431472778,-0.07721493393182755,0.178885817527771,0.030395913869142532,0.07276231795549393,-0.0795590728521347,0.06546027213335037,0.0046005877666175365,0.1473025232553482,-0.026960592716932297,-0.14466926455497742,-0.008634029887616634,-0.12913689017295837,-0.00932207703590393,0.13165950775146484,0.16057097911834717,0.16944828629493713,-0.004543074872344732,-0.19136671721935272,-0.01629406213760376,0.08912860602140427,0.020609067752957344,0.04771443083882332,0.03993532434105873,0.13773798942565918,-0.04912862181663513,-0.03824486583471298,0.0709085613489151,0.14443962275981903,-0.006846497301012278,-0.08039568364620209,0.0239808838814497,-0.04825997352600098,0.11706981062889099,0.054755713790655136,0.02496788091957569,0.03090909868478775,0.009858314879238605,0.05359397083520889,0.09346571564674377,-0.004686667118221521,0.07100758701562881,0.11758711189031601,-0.15460067987442017,-0.2557514011859894,-0.08818501234054565,0.09284428507089615,0.10131236910820007,0.08520255237817764,0.15428949892520905,-0.14144867658615112,0.05818235129117966,-0.14568284153938293,-0.26450130343437195,-0.23999406397342682,-0.27022767066955566,-0.22349174320697784,-0.27156534790992737,-0.11975166946649551,-0.20534303784370422,0.1199471578001976,-0.006118732504546642,-0.03614237904548645,0.00349295767955482,-0.07568968087434769,-0.0637126937508583,-0.13936477899551392,-0.07571669667959213,-0.17890490591526031,-0.12563858926296234,0.07397452741861343,0.09337162226438522,-0.07327292114496231,0.07177730649709702,0.10350418090820312,0.12042451649904251,0.3699486255645752,0.10907215625047684,-0.0027414073701947927,-0.09361325204372406,0.1612873077392578,0.014909321442246437,-0.31773659586906433,0.08356842398643494,-0.021283818408846855,0.0015780443791300058,-0.020197058096528053,0.021111158654093742,0.03754325211048126,0.17071403563022614,0.02892308682203293,0.21600690484046936,0.035821981728076935,0.2302955985069275,0.05152251571416855,0.13798554241657257,0.259082168340683,0.16881251335144043,0.106106236577034,0.01239110715687275,0.11542347073554993,-0.010241870768368244,0.10803703218698502,0.050841525197029114,0.13060784339904785,0.19615747034549713,0.21948985755443573,-0.01928364858031273,-0.038673222064971924,0.06124201789498329,0.24815605580806732,0.017282631248235703,0.023110298439860344,0.031599435955286026,0.030401304364204407,0.0841023400425911,0.12190229445695877,0.0006730815512128174,0.13672271370887756,0.17298689484596252,0.07108218967914581,-0.011920084245502949,0.15160921216011047,0.062224745750427246,-0.041098061949014664,0.030853567644953728,-0.020099738612771034,0.049546580761671066,0.1174706518650055,0.04777032881975174,-0.02581031247973442,-0.056381963193416595,0.05666805058717728,0.18700532615184784,0.07142955809831619,0.09271183609962463,0.031606294214725494,0.014125022105872631,-0.03815021738409996,-0.025051742792129517,0.006824115291237831,0.03527757525444031,0.054085180163383484,0.03306740149855614,0.10029259324073792,0.1657438427209854,0.11990722268819809,0.08805868029594421,0.027838055044412613,0.030321115627884865,-0.044621046632528305,-0.03707468509674072,0.006880491506308317,0.10221841931343079,0.07818958908319473,-0.01353752426803112,0.04485788568854332,0.12520313262939453,0.012741774320602417,0.11026129871606827,0.14698031544685364,0.08605295419692993,0.05507076531648636,-0.008523900993168354,-0.008938508108258247,-0.014256114140152931,0.02619985118508339,0.15183000266551971,0.1185847818851471,0.19449590146541595,0.2217373549938202,0.16318519413471222,0.25070905685424805,0.07208238542079926,0.06968378275632858,0.16392920911312103,0.07389336079359055,-0.021006066352128983,0.08979719132184982,0.1634359061717987,0.1465092897415161,0.10092666000127792,0.1502441018819809,0.15701588988304138,0.21510453522205353,0.20919600129127502,0.042137760668992996,0.12535004317760468,0.11455953866243362,0.07375989109277725,0.04648267477750778,0.08762946724891663,0.19398193061351776,0.15669991075992584,0.02479158341884613,0.050308238714933395,0.16877932846546173,0.13324691355228424,0.07890377193689346,0.18311545252799988,0.21972224116325378,0.2597832977771759,0.06491155922412872,0.10987281799316406,0.11223041266202927,-0.04743500053882599,-0.020114298909902573,-0.19791387021541595,-0.049045391380786896,-0.0845087319612503,0.13663697242736816,0.17423154413700104,0.1816120743751526,0.42933836579322815,0.19872410595417023,0.21362562477588654,0.09318147599697113,-0.0659676343202591,-0.04408799856901169,-0.009390945546329021,-0.1296013444662094,-0.09973736107349396,-0.021667251363396645,-0.25789687037467957,-0.11144017428159714,0.2296765297651291,0.2033080905675888,0.2018730640411377,0.17916354537010193,0.16628287732601166,0.04204648733139038,-0.11441855132579803,-0.13858826458454132,0.1792364865541458,0.008793137036263943,-0.2380226105451584,-0.2180616557598114,-0.37832555174827576,-0.06593810766935349,0.1760769784450531,0.06291723251342773,0.10399336367845535,0.11672989279031754,0.04025611653923988,-0.028456376865506172,0.17917178571224213,0.23379984498023987,0.20061250030994415,0.051855847239494324,-0.3443065285682678,-0.10928729921579361,-0.021760737523436546,0.11751587688922882,0.11065994948148727,0.1525190770626068,0.06672041118144989,0.02796359360218048,0.0818667784333229,-0.030830930918455124,0.15882664918899536,0.021706467494368553,-0.15780000388622284,-0.13415302336215973,-0.16850093007087708,-0.08667466044425964,-0.009455682709813118,-0.013585655018687248,0.07265812903642654,0.014083285816013813,-0.028602752834558487,-0.279502809047699,-0.07605112344026566,-0.08469904214143753,-0.051249194890260696,-0.014976282604038715,-0.19284531474113464,-0.10473247617483139,-0.0667632520198822,-0.002133310539647937,-0.04812001436948776,0.015007300302386284,-0.03627179190516472,-0.16866940259933472,-0.11759836226701736,-0.023362645879387856,-0.09557430446147919,-0.20424774289131165,-0.22763505578041077,0.019436301663517952,-0.10342982411384583,-0.11255162209272385,0.1264294534921646,0.018047479912638664,0.049329593777656555,0.027929363772273064,0.01087538618594408,-0.19615177810192108,-0.19724781811237335,-0.19578275084495544,-0.024807237088680267,-0.06314587593078613,-0.026425177231431007,0.00833932776004076,0.1351238638162613,-0.03948788344860077,0.018910057842731476,-0.011300335638225079,0.012500550597906113,0.05858505889773369,-0.002971730660647154,-0.051041923463344574,-0.1406247615814209,-0.003177512204274535,0.049596089869737625,0.09061367809772491,0.03616208955645561,-0.07280183583498001,-0.027348529547452927,0.029053406789898872,0.018865283578634262,-0.005824610590934753],[-0.0038113382179290056,-0.013093006797134876,0.040970753878355026,-0.022429848089814186,-0.01463613472878933,-0.014828542247414589,0.014338727109134197,-0.027979332953691483,-0.02271224930882454,-0.014505675062537193,-0.015848174691200256,-0.03560387343168259,-0.021810760721564293,0.022215666249394417,0.05125224217772484,0.07024764269590378,0.05219954624772072,0.11890638619661331,0.03636590391397476,0.0057067666202783585,-0.07556352019309998,-0.12021207064390182,-0.052773043513298035,-0.08247006684541702,0.044350773096084595,-0.061617154628038406,-0.013049529865384102,0.05911100283265114,0.12868696451187134,0.06432157009840012,0.07056039571762085,0.04304612800478935,-0.010091446340084076,-0.1614380180835724,-0.26181760430336,-0.0776527151465416,-0.09516146034002304,-0.0972360372543335,0.017368657514452934,0.02628294564783573,0.056573208421468735,0.15586788952350616,0.0457683727145195,0.04726126790046692,-0.05178398638963699,-0.170112743973732,-0.16854391992092133,-0.15245090425014496,-0.1121317446231842,-0.06190565600991249,0.007646354380995035,-0.038111232221126556,0.06077352911233902,0.14633290469646454,0.11765456199645996,0.15654174983501434,0.0574035719037056,0.0033205559011548758,0.025322919711470604,-0.12991498410701752,-0.11709907650947571,-0.0570698082447052,-0.027041921392083168,0.09304960817098618,0.11350622773170471,0.0712161734700203,0.015446450561285019,0.11982394009828568,0.20593366026878357,0.1410282999277115,0.20126448571681976,0.09339890629053116,-0.05067531764507294,0.035978030413389206,0.024306626990437508,0.031997185200452805,0.17749285697937012,0.09400619566440582,0.014403127133846283,0.06769288331270218,0.13980403542518616,0.03669659048318863,0.09700393676757812,0.12716025114059448,0.17913559079170227,0.01294093206524849,0.037479374557733536,0.168173149228096,0.1373463124036789,-0.04664506018161774,0.174745574593544,0.028886381536722183,-0.012910877354443073,0.09155698865652084,0.015512117184698582,0.07906387746334076,-0.0008180348668247461,0.002670795889571309,0.18603943288326263,0.11149021983146667,0.16681179404258728,0.3510824143886566,0.17727093398571014,0.13976457715034485,-0.010154970921576023,-0.03867524862289429,-0.0896342396736145,-0.0287319403141737,0.018881043419241905,0.057104937732219696,0.040336836129426956,-0.057062093168497086,0.21638360619544983,0.25178706645965576,0.2860911190509796,0.21982470154762268,0.025546006858348846,-0.024696847423911095,-0.024867583066225052,-0.08250144869089127,-0.08931689709424973,0.0028635517228394747,-0.03984876349568367,-0.07775663584470749,0.029550818726420403,0.0805911049246788,0.12853148579597473,0.10428660362958908,0.13091665506362915,0.0007934420718811452,0.027398882433772087,-0.009475387632846832,0.0005928269820287824,-0.06562510877847672,-0.10166400671005249,-0.1411086767911911,-0.07816857099533081,-0.049871303141117096,0.035488612949848175,0.043638113886117935,0.13377997279167175,0.09420979768037796,-0.019660070538520813,-0.01862727291882038,0.03435828909277916,-0.0032761043403297663,-0.052484866231679916,-0.07611826807260513,-0.09119417518377304,-0.0731760635972023,-0.06584758311510086,-0.013233634643256664,0.03659261763095856,0.03226131945848465,0.07210176438093185,-0.0005823788233101368,-0.02686052769422531,-0.044861484318971634,-0.010996208526194096,0.015663202852010727,-0.0170123390853405,0.010873724706470966,0.01578466407954693,0.012164447456598282,0.01605117693543434,0.012103578075766563,0.05063175410032272,-0.042997509241104126,-0.02345837466418743,0.017543522641062737,-0.04072192683815956,0.03505212813615799,-0.006201412528753281,-0.02964412048459053,-0.08282718807458878,-0.0032796331215649843,-0.028594426810741425,-0.022365158423781395,-0.09761884063482285,-0.011867892928421497,0.0046209413558244705,-0.04898107424378395,0.015376513823866844,-0.019566234201192856,-0.04924236238002777,0.010527826845645905,-0.01882012002170086,-0.08484706282615662,-0.08965341001749039,-0.08739905804395676,-0.12944522500038147,-0.015453271567821503,-0.010451875627040863,0.018687551841139793,-0.009363733232021332,-0.030543699860572815,-0.013669688254594803,-0.05334601551294327,-0.044243745505809784,-0.007738367188721895,0.10001735389232635,-0.06880401074886322,-0.22795744240283966,-0.13258524239063263,-0.06672582030296326,0.0657760500907898,0.11276353895664215,-0.047804925590753555,0.009758523665368557,0.004371956456452608,-0.11667169630527496,-0.12959980964660645,0.1554119735956192,0.08063967525959015,0.28440961241722107,0.04619349166750908,0.03710813447833061,0.16599634289741516,0.20695514976978302,0.11699787527322769,0.05771058425307274,0.03643162548542023,0.022554360330104828,-0.10959514230489731,0.011259004473686218,0.10458601266145706,0.1754985898733139,0.2248181700706482,0.15034964680671692,0.06855138391256332,0.1883772760629654,0.15096519887447357,0.3067470192909241,0.19382724165916443,0.05929585173726082,-0.0007687277975492179,0.04819013923406601,-0.0868874117732048,0.2581803500652313,0.04783664271235466,0.19686990976333618,-0.07455393671989441,0.1201714277267456,0.29058846831321716,0.2935548424720764,0.20564821362495422,0.2167866826057434,0.028056900948286057,0.07148678600788116,0.06370719522237778,0.2746441960334778,0.1703336536884308,0.08573402464389801,0.014440883882343769,-0.19775518774986267,0.10131856799125671,0.07238198071718216,-0.08955508470535278,-0.06139443814754486,0.03368314728140831,0.10619676113128662,0.081544890999794,0.06364741921424866,0.11024072021245956,0.07820852845907211,0.10073404759168625,-0.05075564235448837,-0.19788570702075958,-0.16851165890693665,-0.13853071630001068,-0.0995621383190155,-0.06150317192077637,0.05464370548725128,0.006252332124859095,0.036672014743089676,0.07149414718151093,0.1425504833459854,0.22314226627349854,0.0540611669421196,-0.0164013784378767,-0.12651781737804413,-0.20422184467315674,-0.26625925302505493,-0.3502652645111084,-0.3894893527030945,-0.04974205419421196,-0.06433790177106857,-0.08874689042568207,0.016840359196066856,0.17157940566539764,0.19576098024845123,0.14840960502624512,0.08942906558513641,-0.2186775505542755,-0.14944589138031006,-0.3494301438331604,-0.13312749564647675,-0.07138615101575851,-0.12535706162452698,0.044340576976537704,0.041698288172483444,0.17869797348976135,0.08881168812513351,0.32303228974342346,-0.02748108096420765,0.16625332832336426,0.01704312488436699,-0.13382643461227417,-0.05969167500734329,-0.12513545155525208,-0.09151208400726318,-0.12787030637264252,-0.06600651144981384,0.07219334691762924,0.13240328431129456,0.05818074196577072,0.06962183117866516,0.08572030067443848,0.004860234912484884,-0.05089476704597473,0.032361507415771484,-0.05342008173465729,-0.043135836720466614,-0.11359710246324539,-0.014495513401925564,0.01424957625567913,0.014672921039164066,-0.010914469137787819,0.11606605350971222,0.09356902539730072,0.18025293946266174,0.19423046708106995,0.05638042092323303,0.04693959280848503,0.064539834856987,-0.08242689818143845,0.01894405484199524,0.011002369225025177,-0.006969164125621319,0.032312165945768356,-0.01232330221682787,0.07656367123126984,0.06959520280361176,0.16728036105632782,0.02865973673760891,0.20841746032238007,0.1942063570022583,0.15104036033153534,0.06843956559896469,0.044344332069158554,-0.02008695900440216,0.0044649275951087475,0.13285891711711884,0.01886431686580181,0.0907219722867012,0.1577470600605011,0.14770938456058502,0.22993522882461548,0.17862480878829956,0.2330927699804306,0.07357405126094818,0.128838449716568,0.07969050854444504,0.024639559909701347,0.036446452140808105,0.13860690593719482,0.07066438347101212,0.26939696073532104,0.057356152683496475,-0.006867805030196905,0.20878800749778748,0.05319175124168396,0.1821257323026657,0.04083391651511192,-0.05345400050282478,0.018481753766536713,0.04470237344503403,0.0414658859372139,0.02018340304493904,-0.08201099187135696,-0.02323545515537262,0.03880941867828369,0.10525744408369064,0.07332919538021088,0.08479737490415573,0.05866558477282524,0.08177310228347778,-0.054692864418029785,-0.05292642489075661,0.02297511324286461,-0.026924483478069305,-0.127858504652977,-0.07676191627979279,-0.05246465280652046,-0.0648481696844101,-0.12805868685245514,-0.020243700593709946,0.01990468241274357,0.11025788635015488,-0.017324335873126984,-0.11055942624807358,-0.19414377212524414,-0.08027919381856918,-0.09225697815418243,-0.3206048905849457,0.08004099130630493,-0.07285968959331512,-0.32228556275367737,-0.08017517626285553,-0.04074806347489357,-0.07040131092071533,0.10487683862447739,-0.09275797009468079,-0.21115145087242126,-0.3720889091491699,-0.07680293172597885,-0.06836377829313278,-0.05257392302155495,-0.02029329724609852,-0.135362446308136,0.04362049326300621,-0.01409304141998291,-0.0937235876917839,-0.018363773822784424,-0.021377233788371086,-0.14857102930545807,-0.20216993987560272,-0.20131590962409973,-0.06920190155506134,-0.04741868004202843,-0.06978653371334076,-0.05609314888715744,0.055573515594005585,0.2529090940952301,0.2813536524772644,0.024730974808335304,0.02169656753540039,0.0533151812851429,-0.14670711755752563,-0.21236760914325714,-0.20639681816101074,-0.06838696449995041,-0.05336300656199455,-0.014828864485025406,0.17079587280750275,0.28047916293144226,0.20670419931411743,0.352402925491333,0.2962685227394104,-0.04930412396788597,0.017840607091784477,-0.13097520172595978,-0.05102512240409851,-0.2713501751422882,-0.15334859490394592,0.03158268705010414,0.22035449743270874,0.12047896534204483,0.17425857484340668,0.25437435507774353,0.18829193711280823,0.23012375831604004,0.1860215961933136,0.1881108283996582,-0.01216804701834917,-0.21573162078857422,-0.12031329423189163,-0.07651589065790176,0.07515498250722885,0.20111292600631714,0.1372780203819275,0.3046024739742279,0.23421692848205566,0.22297564148902893,0.1441260129213333,0.0775027647614479,0.17653226852416992,0.07829625904560089,-0.0075582293793559074,-0.03644188866019249,-0.007668625097721815,0.0346696637570858,0.028334615752100945,0.11100231856107712,0.1080484613776207,0.09035106003284454,0.05242796242237091,0.1006859540939331,0.10843335092067719,0.08491816371679306,0.06547891348600388,0.016150496900081635,0.039605896919965744,-0.03220023214817047,0.017504185438156128,0.04812775179743767,0.06288646161556244,0.08210377395153046,0.0674603283405304,0.084068164229393,0.043277837336063385,0.03466329723596573,-0.013603434897959232,-0.013505231589078903,0.012681469321250916,0.004346856381744146,0.011002356186509132,-0.0012291105231270194,-0.0031403338070958853,-0.005746832583099604,-0.03373376652598381,0.07128895074129105,0.06154262274503708,0.14965808391571045,0.08535391092300415,0.1488579958677292,0.03903411701321602,0.10657060146331787,0.060350432991981506,-0.01514745969325304,0.052324388176202774,-0.03116973675787449,-0.022152388468384743,-0.18330752849578857,-0.08667217195034027,-0.06868057698011398,0.1360727846622467,0.11107107996940613,0.19350780546665192,0.28035208582878113,0.20921280980110168,0.15440413355827332,-0.010772943496704102,0.044539958238601685,-0.016431260854005814,-0.03810390830039978,-0.18656344711780548,-0.022131917998194695,-0.035066742449998856,0.19431549310684204,0.2479320615530014,0.38352149724960327,0.5006589293479919,0.3437807559967041,0.2480299323797226,-0.046547871083021164,-0.016905387863516808,-0.15478625893592834,-0.31416934728622437,-0.08263371139764786,-0.0858873575925827,0.15460939705371857,0.19324550032615662,0.2477935403585434,0.3325633406639099,0.4928405284881592,0.2622537910938263,0.18403853476047516,0.09044696390628815,0.06739875674247742,-0.07841262221336365,-0.14368057250976562,-0.16598378121852875,-0.03467770293354988,0.04713116213679314,0.05351946875452995,0.14789006114006042,0.19637161493301392,0.3462557792663574,0.3147044777870178,0.24848051369190216,0.03505588322877884,0.02819199487566948,-0.17406468093395233,0.014583440497517586,0.10342812538146973,0.07636598497629166,0.3315465748310089,-0.0030940354336053133,0.018087727949023247,-0.008597376756370068,-0.012475819326937199,-0.07408159971237183,0.017534421756863594,0.01978372409939766,0.024727674201130867,-0.09457884728908539,-0.06786705553531647,0.10995452105998993,0.09564793854951859,0.26406025886535645,0.1936294436454773,-0.16756336390972137,-0.2098790556192398,-0.17612572014331818,-0.2983187139034271,0.019591759890317917,-0.029961304739117622,0.0557188019156456,-0.01087657269090414,0.1163768470287323,0.12413502484560013,0.266547292470932,0.3689339756965637,-0.0518660768866539,-0.2494993358850479,-0.19414959847927094,-0.31095030903816223,-0.4290231466293335,-0.2716595530509949,-0.11882461607456207,0.11661584675312042,0.17332503199577332,0.023634672164916992,0.45426762104034424,0.38464272022247314,0.12941522896289825,0.012002444826066494,-0.19197963178157806,-0.18918775022029877,-0.4971029460430145,-0.4803689122200012,-0.44007325172424316,-0.2609180808067322,0.0883212760090828,0.17548617720603943,0.19873258471488953,0.41628164052963257,0.4531363546848297,0.3773696720600128,0.11025021225214005,-0.09888997673988342,-0.18902528285980225,-0.29877427220344543,-0.2719760537147522,-0.0853399708867073,-0.27214357256889343,0.06527955830097198,0.1587062031030655,0.3770846128463745,0.40708446502685547,0.4006210267543793,0.20074087381362915,0.16992633044719696,0.05350213125348091,-0.06229754909873009,-0.17412880063056946,-0.30999794602394104,-0.2084929198026657,-0.1287246197462082,0.021253051236271858,0.1207999736070633,0.11134972423315048,0.1590191274881363,0.2710695266723633,0.18448062241077423,0.18766683340072632,-0.06323011964559555,-0.009330878965556622,-0.1030488833785057,-0.11320170760154724,-0.10185248404741287,0.016387425363063812,0.026423955336213112,0.05131539702415466,0.019763993099331856,0.12026789784431458,0.19704729318618774,0.20737764239311218,0.12138661742210388,0.07380691170692444,0.09166203439235687,-0.059393953531980515,0.024262484163045883,0.009634291753172874,0.010169481858611107,-0.02082727663218975,0.06067799776792526,-0.004360875580459833,-0.02796979993581772,-0.1344461888074875,-0.12303441017866135,-0.315206915140152,-0.30499690771102905,-0.14885376393795013,-0.07264754921197891,-0.12054881453514099,-0.03133942559361458,0.023374643176794052,0.10495127737522125,0.09414805471897125,0.08242028951644897,-0.08506161719560623,-0.026894452050328255,-0.1387311816215515,-0.35111203789711,-0.19013568758964539,-0.06784061342477798,-0.0191231407225132,0.12517964839935303,0.10756364464759827,-0.07806377112865448,0.11353954672813416,0.27534908056259155,0.24956545233726501,0.15459954738616943,-0.28476521372795105,-0.26958444714546204,-0.274422287940979,-0.34836605191230774,-0.16818033158779144,0.05384986475110054,0.17745241522789001,0.14198878407478333,0.15641818940639496,0.18050137162208557,0.27488353848457336,0.09068817645311356,-0.11752377450466156,0.03888871520757675,-0.22876057028770447,-0.4573806822299957,-0.3033170700073242,-0.04176163673400879,0.048819489777088165,0.16846485435962677,0.2580625116825104,0.14656588435173035,0.267806738615036,0.4635855555534363,0.3802397847175598,0.15082357823848724,0.09725163131952286,-0.0649920403957367,-0.026277435943484306,-0.09872189164161682,0.08647936582565308,0.3417362868785858,0.38210707902908325,0.38164275884628296,0.2491564005613327,0.24552130699157715,0.41290128231048584,0.477273553609848,0.39230450987815857,0.15214206278324127,0.24761702120304108,0.17645634710788727,0.20878814160823822,-0.0859224796295166,0.31762078404426575,0.45238155126571655,0.5754122138023376,0.3295659124851227,0.2212219387292862,0.5100043416023254,0.5171120762825012,0.39880242943763733,0.2945108413696289,0.3004164695739746,0.13453345000743866,0.2350328117609024,0.40042299032211304,0.43772971630096436,0.3212312161922455,0.3060641586780548,0.22175070643424988,0.17469361424446106,0.2054591029882431,0.23376284539699554,0.3494599163532257,-0.04517464339733124,-0.023617640137672424,-0.08611159771680832,-0.09074439853429794,0.24980950355529785,0.28440818190574646,0.4461216628551483,0.3313540816307068,0.2870928943157196,0.10412006080150604,0.16247177124023438,0.19482165575027466,0.24482187628746033,-0.08819633722305298,-0.021108806133270264,-0.12857581675052643,-0.1580582857131958,-0.007073580287396908,0.08526639640331268,0.2715965807437897,0.15165357291698456,0.11269287765026093,0.03837026283144951,0.10165838897228241,0.040518760681152344,0.06433610618114471,-0.12757572531700134,-0.1836346834897995,-0.3229253590106964,-0.21073772013187408,-0.18528929352760315,0.009054487571120262,-0.173541858792305,0.07813914865255356,0.020977437496185303,-0.02319851703941822,0.04939432814717293,0.06658107042312622,-0.014542068354785442,-0.08138518035411835,-0.35359421372413635,-0.35290470719337463,-0.2832317650318146,-0.272966593503952,-0.2993382513523102,-0.043834127485752106,0.03634636849164963,0.05204438790678978,0.006180211436003447,-0.023843489587306976,0.025626180693507195,-0.1340813934803009,-0.16980645060539246,-0.23932380974292755,-0.28212714195251465,-0.3751278221607208,-0.23896047472953796,-0.13985256850719452,-0.012813194654881954,0.03918786346912384,0.03745947405695915,-0.03666289895772934,0.025885753333568573,0.03573165833950043,-0.0014131320640444756,-0.024909282103180885,-0.07830808311700821,-0.027555391192436218,-0.06829971820116043,0.0008511868654750288,0.001703801448456943,0.02000797726213932,0.017292341217398643,0.009294318966567516,0.030436962842941284,-0.017279215157032013,-0.010647880844771862,0.18778470158576965,0.0915050134062767,-0.0048454804345965385,0.034878943115472794,-0.01712200976908207,-0.024774091318249702,-0.03666456416249275,-0.07497385889291763,-0.06374211609363556,-0.010973259806632996,0.05763169750571251,0.10474227368831635,0.15236540138721466,0.17630335688591003,0.15635354816913605,0.09475453197956085,-0.09539593011140823,-0.06158963218331337,-0.043810367584228516,-0.1443311721086502,-0.11354108154773712,-0.0651291012763977,-0.04237036779522896,0.10563192516565323,0.2488667219877243,0.1837483048439026,0.38266080617904663,0.22764389216899872,0.12378522008657455,0.10979609936475754,-0.12288497388362885,-0.18737928569316864,-0.2975773513317108,-0.29433146119117737,-0.11084489524364471,-0.06862683594226837,0.10743315517902374,0.3412778377532959,0.1540137231349945,0.4258880913257599,0.411527156829834,0.32753658294677734,0.021703774109482765,-0.10556069761514664,-0.2502109408378601,-0.4215627610683441,-0.41353875398635864,-0.31823813915252686,-0.08549369871616364,-0.0931498184800148,0.13902395963668823,0.14365611970424652,0.3719240427017212,0.2368202805519104,0.23222403228282928,0.01853923872113228,-0.06458248943090439,-0.23608613014221191,-0.46652159094810486,-0.5025899410247803,-0.3421255946159363,-0.12018316239118576,0.003867299063131213,0.035819314420223236,0.04488702863454819,0.19199258089065552,0.14776398241519928,-0.02394067868590355,0.060526929795742035,-0.04070477560162544,-0.07247196137905121,-0.2639256715774536,-0.4470766484737396,-0.3370291292667389,-0.1316886991262436,-0.13936267793178558,-0.03851994499564171,0.11252003908157349,-0.17307744920253754,0.027018332853913307,-0.10138266533613205,-0.006274496205151081,0.1679692417383194,0.05685952305793762,-0.12898044288158417,-0.08873946219682693,-0.3272242248058319,-0.14824320375919342,-0.17282353341579437,-0.10215690732002258,-0.23257817327976227,-0.2903755009174347,-0.25936347246170044,0.09740989655256271,-0.028888367116451263,0.046273864805698395,0.2691393792629242,0.20735003054141998,0.034722909331321716,-0.2382672131061554,-0.05291425436735153,-0.17060121893882751,-0.302816241979599,-0.2436235547065735,-0.25658661127090454,-0.06586626172065735,0.11489345878362656,0.18766893446445465,0.3439755439758301,0.35078614950180054,0.4241659641265869,0.09459910541772842,-0.09817945957183838,0.05902852118015289,-0.3400861918926239,-0.11700104176998138,-0.24893902242183685,-0.14335773885250092,-0.08171244710683823,0.025635136291384697,0.21639259159564972,0.4140203595161438,0.5263895392417908,0.4978761076927185,0.35191264748573303,-0.010624636895954609,0.08261523395776749,-0.15990079939365387,-0.103343665599823,-0.22341139614582062,-0.10569390654563904,-0.084841787815094,0.12611182034015656,0.24732665717601776,0.3360636234283447,0.4142346978187561,0.3127092123031616,0.25428131222724915,0.06475792080163956,-0.012209147214889526,-0.13035398721694946,-0.07871773093938828,-0.09442730247974396,0.13597242534160614,0.17716364562511444,0.22579605877399445,0.36860084533691406,0.1574709415435791,0.17017345130443573,0.29356685280799866,0.08154913783073425,0.0698157399892807,-0.015256565064191818,-0.05768296495079994,-0.1170116513967514,-0.02365206927061081,0.04740564152598381,0.16123376786708832,0.19187772274017334,0.1672085076570511,0.15134941041469574,0.20541536808013916,0.1215050220489502,0.0176337119191885,0.007073888089507818,-0.050137415528297424]],"b":[-1.1303281784057617,0.015548310242593288,1.1147782802581787]}],"trainedCounts":[19,23,29],"dataset":[{"label":0,"pixels":[0,0,0,0,0,0,0,0,0,0,0,0,0,0,0,0,0,0,0,0,0,0,0,0,0,0,0,0,0,0,0,0,0,0,0,0,0,0,0,0,0,0,0,0,0,0,0,0,0,0,0,0,0,0,0,0,0,0,0,0,0,0,0,0,0,0,0,0,0,0,0,0,0,0,0,0,0,0,0,0,0,0,0,0,0,0,0,0,0,0,0,0,0,0,0,0,0,0,0,0,0,0,0,0,0,0,0,0,0,0,0,0,0,0,0,0,0,0,0,0,0,0,0,0,0,0,0.31,1,1,0.61,0,0,0,0,0,0,0,0,0,0,0,0,0,0,0,0,0,0,0,0,0,0,0.89,1,1,1,1,1,1,1,1,0,0,0,0,0,0,0,0,0,0,0,0,0,0,0,0,0,0,1,1,1,0.4,0,0,0,0.55,1,1,1,0,0,0,0,0,0,0,0,0,0,0,0,0,0,0,0,0,1,1,0,0,0,0,0,0,0,0,1,1,0,0,0,0,0,0,0,0,0,0,0,0,0,0,0,1,1,0,0,0,0,0,0,0,0,0,1,1,0,0,0,0,0,0,0,0,0,0,0,0,0,0,0,1,1,0,0,0,0,0,0,0,0,0,0.5,1,0,0,0,0,0,0,0,0,0,0,0,0,0,0,0,1,0,0,0,0,0,0,0,0,0,0,0,1,0,0,0,0,0,0,0,0,0,0,0,0,0,0,0,1,1,0,0,0,0,0,0,0,0,0,0.5,1,0,0,0,0,0,0,0,0,0,0,0,0,0,0,0,1,1,0.89,0,0,0,0,0,0,0,0,1,1,0,0,0,0,0,0,0,0,0,0,0,0,0,0,0,0,1,1,0,0,0,0,0,0,0,0,1,1,0,0,0,0,0,0,0,0,0,0,0,0,0,0,0,0,0.17,1,1,0.16,0,0,0,0,0,1,1,0,0,0,0,0,0,0,0,0,0,0,0,0,0,0,0,0,0,0.6,1,1,1,0.61,0,1,1,1,0.22,0,0,0,0,0,0,0,0,0,0,0,0,0,0,0,0,0,0,0,0,1,1,1,1,1,1,0,0,0,0,0,0,0,0,0,0,0,0,0,0,0,0,0,0,0,0,0,0,0,0,0,0.05,0,0,0,0,0,0,0,0,0,0,0,0,0,0,0,0,0,0,0,0,0,0,0,0,0,0,0,0,0,0,0,0,0,0,0,0,0,0,0,0,0,0,0,0,0,0,0,0,0,0,0,0,0,0,0,0,0,0,0,0,0,0,0,0,0,0,0,0,0,0,0,0,0,0,0,0,0,0,0,0,0,0,0,0,0,0,0,0,0,0,0,0,0,0,0,0,0,0,0,0,0,0,0,0,0,0,0,0,0,0,0,0,0,0,0,0,0,0,0,0,0,0,0,0,0,0,0,0,0,0,0,0,0,0,0,0,0,0,0,0,0,0,0,0,0,0,0,0,0,0,0,0,0,0,0,0,0,0,0,0,0,0,0,0,0,0,0,0,0,0,0,0,0,0,0,0,0,0,0,0,0,0,0,0,0,0,0,0,0,0,0,0,0,0,0,0,0,0,0,0,0,0,0,0,0,0,0,0,0,0,0,0,0,0,0,0,0,0,0,0,0,0,0,0,0,0,0,0,0,0,0,0,0,0,0,0,0,0,0,0,0,0,0,0,0,0,0,0,0,0,0,0,0,0,0,0,0,0,0,0,0,0,0,0,0,0,0,0,0,0,0,0,0,0,0,0,0,0,0,0,0,0,0,0,0,0,0,0,0,0]},{"label":1,"pixels":[0,0,0,0,0,0,0,0,0,0,0,0,0,0,0,0,0,0,0,0,0,0,0,0,0,0,0,0,0,0,0,0,0,0,0,0,0,0,0,0,0,0,0,0,0,0,0,0,0,0,0,0,0,0,0,0,0,0,0,0,0,0,0,0,0,0,0,0,0,0,0,0,0,0,0,0,0,0,0,0,0,0,0,0,0,0,0,0,0,0,0,0,0,0,0,0,0,0,0,0,0,0,0,0,0,0,0,0,0,0,0,0,0,0,0,0,0,0,0,0,0,0,0,0,0,0,0,0,0,0,0,0,0,0,0,0,0,0,0,0,0,0,0,0,0,0.09,1,1,1,1,1,1,1,1,1,1,1,1,1,1,0,0,0,0,0,0,0,0,0,0,0,0,0,1,1,1,1,1,1,1,1,1,1,1,1,1,1,1,1,0,0,0,0,0,0,0,0,0,0,0,0,1,1,0,0,0,0,0,0,0,0,0,0,0,0,1,1,0,0,0,0,0,0,0,0,0,0,0,0,0.5,1,0,0,0,0,0,0,0,0,0,0,0,0,1,1,0,0,0,0,0,0,0,0,0,0,0,0,0,1,0,0,0,0,0,0,0,0,0,0,0,0,1,1,0,0,0,0,0,0,0,0,0,0,0,0,0,1,0.5,0,0,0,0,0,0,0,0,0,0,0,1,1,0,0,0,0,0,0,0,0,0,0,0,0,0,1,1,0,0,0,0,0,0,0,0,0,0,0,1,1,0,0,0,0,0,0,0,0,0,0,0,0,0,1,1,0,0,0,0,0,0,0,0,0,0,0,1,1,0,0,0,0,0,0,0,0,0,0,0,0,0,1,1,0,0,0,0,0,0,0,0,0,0,0,1,1,0,0,0,0,0,0,0,0,0,0,0,0,0,1,1,0,0,0,0,0,0,0,0,0,0,0,1,1,0,0,0,0,0,0,0,0,0,0,0,0,0,1,1,0,0,0,0,0,0,0,0,0,0,0,1,1,0,0,0,0,0,0,0,0,0,0,0,0,0,0.6,1,0,0,0,0,0,0,0,0,0,0,0,1,1,0,0,0,0,0,0,0,0,0,0,0,0,0,0.5,1,0,0,0,0,0,0,0,0,0,0,0,1,1,0,0,0,0,0,0,0,0,0,0,0,0,0,0.5,1,0,0,0,0,0,0,0,0,0,0,0,1,1,0,0,0,0,0,0,0,0,0,0,0,0,0,0,1,0.51,0,0,0,0,0,0.73,1,1,1,1,1,1,0,0,0,0,0,0,0,0,0,0,0,0,0,0,1,1,1,1,1,1,1,1,1,1,1,1,1,0.42,0,0,0,0,0,0,0,0,0,0,0,0,0,0,1,1,1,1,1,0.6,0.3,0,0,0,0,0,0,0,0,0,0,0,0,0,0,0,0,0,0,0,0,0,0,0,0,0,0,0,0,0,0,0,0,0,0,0,0,0,0,0,0,0,0,0,0,0,0,0,0,0,0,0,0,0,0,0,0,0,0,0,0,0,0,0,0,0,0,0,0,0,0,0,0,0,0,0,0,0,0,0,0,0,0,0,0,0,0,0,0,0,0,0,0,0,0,0,0,0,0,0,0,0,0,0,0,0,0,0,0,0,0,0,0,0,0,0,0,0,0,0,0,0,0,0,0,0,0,0,0,0,0,0,0,0,0,0,0,0,0,0,0,0,0,0,0,0,0,0,0,0,0,0,0,0,0,0,0,0,0,0,0,0,0,0,0,0,0,0,0,0,0,0,0,0,0,0,0,0,0,0,0,0,0]},{"label":1,"pixels":[0,0,0,0,0,0,0,0,0,0,0,0,0,0,0,0,0,0,0,0,0,0,0,0,0,0,0,0,0,0,0,0,0,0,0,0,0,0,0,0,0,0,0,0,0,0,0,0,0,0,0,0,0,0,0,0,0,0,0,0,0,0,0,0,0,0,0,0,0,0,0,0,0,0,0,0,0,0,0,0,0,0,0,0,0,0,0,0,0,0,0,0,0,0,0,0,0,0,0,0,0,0,0,0,0,0,0,0,0,0,0,0,0,0,0,0,0,0,0,0,0,0,0,0,0,0,0,0,0,0,0,0,0,0,0,0,0,0,0,0,0,0,0,0,0,0,0,0,0,0,0,0,0,0,0,0,0,0,0,0,0,0,0,0,0,0,0,0,0,0,0,0,0,0,0,0,0,0,0,0,0,0,0,0,0,0,0,0,0,0,0,0,0,0,0,0,0,0,0,0,0,0,0,0,0,0,0,0,0,0,0,0.5,0.5,0,0,0,0,0,0,0,0,0,0,0,0,0,0,0,0,0,0,0,0,0,1,1,1,1,1,1,1,1,1,0,0,0,0,0,0,0,0,0,0,0,0,0,0,0,0,0,0,1,1,1,1,1,0.07,0,0,1,1,0,0,0,0,0,0,0,0,0,0,0,0,0,0,0,0,0,0,0,1,0.5,0,0,0,0,0,1,1,0,0,0,0,0,0,0,0,0,0,0,0,0,0,0,0,0,0,0,1,0.5,0,0,0,0,0,0.16,1,0.12,0,0,0,0,0,0,0,0,0,0,0,0,0,0,0,0,0,0,1,0.89,0,0,0,0,0,0,1,1,0,0,0,0,0,0,0,0,0,0,0,0,0,0,0,0,0,0,1,1,0,0,0,0,0,0,1,1,0,0,0,0,0,0,0,0,0,0,0,0,0,0,0,0,0,0,1,1,0,0,0,0,0,0,1,1,0,0,0,0,0,0,0,0,0,0,0,0,0,0,0,0,0,0,1,1,0,0,0,0,0,0,1,1,0,0,0,0,0,0,0,0,0,0,0,0,0,0,0,0,0,0,1,1,0,0,0,0,0,0,1,1,0,0,0,0,0,0,0,0,0,0,0,0,0,0,0,0,0,0,1,1,1,1,1,1,1,1,1,1,0,0,0,0,0,0,0,0,0,0,0,0,0,0,0,0,0,0,1,1,1,1,1,1,1,1,1,0.43,0,0,0,0,0,0,0,0,0,0,0,0,0,0,0,0,0,0,0,0,0,0,0,0,0,0,0,0,0,0,0,0,0,0,0,0,0,0,0,0,0,0,0,0,0,0,0,0,0,0,0,0,0,0,0,0,0,0,0,0,0,0,0,0,0,0,0,0,0,0,0,0,0,0,0,0,0,0,0,0,0,0,0,0,0,0,0,0,0,0,0,0,0,0,0,0,0,0,0,0,0,0,0,0,0,0,0,0,0,0,0,0,0,0,0,0,0,0,0,0,0,0,0,0,0,0,0,0,0,0,0,0,0,0,0,0,0,0,0,0,0,0,0,0,0,0,0,0,0,0,0,0,0,0,0,0,0,0,0,0,0,0,0,0,0,0,0,0,0,0,0,0,0,0,0,0,0,0,0,0,0,0,0,0,0,0,0,0,0,0,0,0,0,0,0,0,0,0,0,0,0,0,0,0,0,0,0,0,0,0,0,0,0,0,0,0,0,0,0,0,0,0,0,0,0,0,0,0,0,0,0,0,0,0,0,0,0,0,0,0,0,0,0,0,0,0,0,0,0,0,0,0,0,0,0,0,0,0,0,0]},{"label":1,"pixels":[0,0,0,0,0,0,0,0,0,0,0,0,0,0,0,0,0,0,0,0,0,0,0,0,0,0,0,0,0,0,0,0,0,0,0,0,0,0,0,0,0,0,0,0,0,0,0,0,0,0,0,0,0,0,0,0,0,0,0,0,0,0,0,0,0,0,0,0,0,0,0,0,0,0,0,0,0,0,0,0,0,0,0,0,0,0,0,0,0,0,0,0,0,0,0,0,0,0,0,0,0,0,0,0,0,0,0,0,0,0,0,0,0,0,0,0,0,0,0,0,0,0,0,0,0,1,1,1,1,1,1,0.82,0,0,0,0,0,0,0,0,0,0,0,0,0,0,0,0,0,0.15,1,1,1,1,1,1,1,1,1,1,0,0,0,0,0,0,0,0,0,0,0,0,0,0,0,0,0,1,1,1,0.43,0,0,0,0,0,1,1,0,0,0,0,0,0,0,0,0,0,0,0,0,0,0,0,0,1,0.5,0,0,0,0,0,0,0,0,1,0.96,0,0,0,0,0,0,0,0,0,0,0,0,0,0,0,0,1,0.5,0,0,0,0,0,0,0,0,1,1,0,0,0,0,0,0,0,0,0,0,0,0,0,0,0,0,1,0.5,0,0,0,0,0,0,0,0,1,1,0,0,0,0,0,0,0,0,0,0,0,0,0,0,0,0,1,0.5,0,0,0,0,0,0,0,0,0,1,0.98,0,0,0,0,0,0,0,0,0,0,0,0,0,0,0,1,0.5,0,0,0,0,0,0,0,0,0,1,1,0,0,0,0,0,0,0,0,0,0,0,0,0,0,0,1,0.68,0,0,0,0,0,0,0,0,0,1,1,0,0,0,0,0,0,0,0,0,0,0,0,0,0,0,1,1,0,0,0,0,0,0,0,0,0,0,1,1,0,0,0,0,0,0,0,0,0,0,0,0,0,0,1,1,0,0,0,0,0,0,0.5,1,1,1,1,1,0,0,0,0,0,0,0,0,0,0,0,0,0,0,1,1,0,0,0,0.99,1,1,1,1,1,1,0.53,0,0,0,0,0,0,0,0,0,0,0,0,0,0,0,0.65,1,0.99,1,1,1,1,0.92,0,0,0,0,0,0,0,0,0,0,0,0,0,0,0,0,0,0,0,0,0,1,1,1,0.92,0,0,0,0,0,0,0,0,0,0,0,0,0,0,0,0,0,0,0,0,0,0,0,0,1,1,0,0,0,0,0,0,0,0,0,0,0,0,0,0,0,0,0,0,0,0,0,0,0,0,0,0,0,0,0,0,0,0,0,0,0,0,0,0,0,0,0,0,0,0,0,0,0,0,0,0,0,0,0,0,0,0,0,0,0,0,0,0,0,0,0,0,0,0,0,0,0,0,0,0,0,0,0,0,0,0,0,0,0,0,0,0,0,0,0,0,0,0,0,0,0,0,0,0,0,0,0,0,0,0,0,0,0,0,0,0,0,0,0,0,0,0,0,0,0,0,0,0,0,0,0,0,0,0,0,0,0,0,0,0,0,0,0,0,0,0,0,0,0,0,0,0,0,0,0,0,0,0,0,0,0,0,0,0,0,0,0,0,0,0,0,0,0,0,0,0,0,0,0,0,0,0,0,0,0,0,0,0,0,0,0,0,0,0,0,0,0,0,0,0,0,0,0,0,0,0,0,0,0,0,0,0,0,0,0,0,0,0,0,0,0,0,0,0,0,0,0,0,0,0,0,0,0,0,0,0,0,0,0,0,0,0,0,0,0,0,0,0,0,0,0,0,0,0,0,0,0,0,0,0,0,0,0,0,0,0,0,0,0,0,0,0,0,0]},{"label":1,"pixels":[0,0,0,0,0,0,0,0,0,0,0,0,0,0,0,0,0,0,0,0,0,0,0,0,0,0,0,0,0,0,0,0,0,0,0,0,0,0,0,0,0,0,0,0,0,0,0,0,0,0,0,0,0,0,0,0,0,0,0,0,0,0,0,0,0,0,0,0,0,0,0,0,0,0,0,0,0,0,0,0,0,0,0,0,0,0,0,0,0,0,0,0,0,0,0,0,0,0,0,0,0,0,0,0,0,0,0,0,0,0,0,0,0,0,0,0,0,0,0,0,0,0,0,0,0,0,0,0,0,0,0,0,0,0,0,0,0,0,0,0,0,0,0,0,0,0,0,0,0,0,0,0,0,0,0,0,0,0,0,0,0,0,0,0,0,0,0,0,0,0,0,0,0,0,0,0,0,0,0,0,0,0,0.5,0,0,0,0,0,0,0,0,0,0,0,0,0,0,0,0,0,0,0,0,0,0,0,0,0,0.3,1,1,1,0,0,0,0,0,0,0,0,0,0,0,0,0,0,0,0,0,0,0,0,0,0,0,1,1,1,1,1,0.94,0,0,0,0,0,0,0,0,0,0,0,0,0,0,0,0,0,0,0,0,0,1,1,1,0,0,1,1,1,0,0,0,0,0,0,0,0,0,0,0,0,0,0,0,0,0,0,0,1,1,1,0,0,0,0,1,1,1,0,0,0,0,0,0,0,0,0,0,0,0,0,0,0,0,0,1,1,0.36,0,0,0,0,0,0,0.96,1,1,0,0,0,0,0,0,0,0,0,0,0,0,0,0,0,1,1,1,0,0,0,0,0,0,0,0,1,1,1,0,0,0,0,0,0,0,0,0,0,0,0,0,0,0,1,1,1,0,0,0,0,0,0,0,1,1,1,0,0,0,0,0,0,0,0,0,0,0,0,0,0,0,0,1,1,0.81,0,0,0,0,0,1,1,0.39,0,0,0,0,0,0,0,0,0,0,0,0,0,0,0,0,0,0,1,1,0.15,0,0,0.84,1,1,0.11,0,0,0,0,0,0,0,0,0,0,0,0,0,0,0,0,0,0,0,0,1,1,0.57,1,1,1,0,0,0,0,0,0,0,0,0,0,0,0,0,0,0,0,0,0,0,0,0,0,0,1,1,1,1,0,0,0,0,0,0,0,0,0,0,0,0,0,0,0,0,0,0,0,0,0,0,0,0,0,1,1,0,0,0,0,0,0,0,0,0,0,0,0,0,0,0,0,0,0,0,0,0,0,0,0,0,0,0,0,0,0,0,0,0,0,0,0,0,0,0,0,0,0,0,0,0,0,0,0,0,0,0,0,0,0,0,0,0,0,0,0,0,0,0,0,0,0,0,0,0,0,0,0,0,0,0,0,0,0,0,0,0,0,0,0,0,0,0,0,0,0,0,0,0,0,0,0,0,0,0,0,0,0,0,0,0,0,0,0,0,0,0,0,0,0,0,0,0,0,0,0,0,0,0,0,0,0,0,0,0,0,0,0,0,0,0,0,0,0,0,0,0,0,0,0,0,0,0,0,0,0,0,0,0,0,0,0,0,0,0,0,0,0,0,0,0,0,0,0,0,0,0,0,0,0,0,0,0,0,0,0,0,0,0,0,0,0,0,0,0,0,0,0,0,0,0,0,0,0,0,0,0,0,0,0,0,0,0,0,0,0,0,0,0,0,0,0,0,0,0,0,0,0,0,0,0,0,0,0,0,0,0,0,0,0,0,0,0,0,0,0,0,0,0,0,0,0,0,0,0,0,0,0,0,0,0,0,0,0,0,0,0,0,0,0,0]},{"label":2,"pixels":[0,0,0,0,0,0,0,0,0,0,0,0,0,0,0,0,0,0,0,0,0,0,0,0,0,0,0,0,0,0,0,0,0,0,0,0,0,0,0,0,0,0,0,0,0,0,0,0,0,0,0,0,0,0,0,0,0,0,0,0,0,0,0,0,0,0,0,0,0,0,0,0,0,0,0,0,0,0,0,0,0,0,0,0,0,0,0,0,0,0,0,0,0,0,0,0,0,0,0,0,0,0,0,0,0,0,0,0,0,0,0,0,0,0,0,0,0,0,0,0,0,0,0,0,0,0,0,0,0,0,0,0,0,0,0,0,0,0,0,0,0,0,0,0,0,0,0,0,0,0,0,0,0,0,0,0,0,0,0,0,0,0,0,0,0,0,0,0,0,0,0,0,0,0,0,0,0,0,0,0,0,0,0,0,0,0,0,0,0,0,0,0,0,0,0,0,0,0,0,0,0,0,0,0,0,0,0,0,0,0,0,0,0,0,0,0,0,0,0,0,0,0,0,0,0,0,0,0,0,0,0,0,0,0,0,0,1,1,0,0,0,0,0,0,0,0,0,0,0,0,0,0,0,0,0,0,0,0,0,0,0,0,0,0,1,1,1,0.31,0,0,0,0,0,0,0,0,0,0,0,0,0,0,0,0,0,0,0,0,0,0,0,0.81,1,0.85,1,1,0.48,0,0,0,0,0,0,0,0,0,0,0,0,0,0,0,0,0,0,0,0,0,0,1,1,0,0,1,1,0.18,0,0,0,0,0,0,0,0,0,0,0,0,0,0,0,0,0,0,0,0,0,1,1,0,0,0,1,1,0,0,0,0,0,0,0,0,0,0,0,0,0,0,0,0,0,0,0,0,1,1,0,0,0,0,0,1,1,0,0,0,0,0,0,0,0,0,0,0,0,0,0,0,0,0,0,0,1,1,0,0,0,0,0,0.15,1,1,0,0,0,0,0,0,0,0,0,0,0,0,0,0,0,0,0,0.62,1,0,0,0,0,0,0,0,0.22,1,1,0,0,0,0,0,0,0,0,0,0,0,0,0,0,0,0,1,1,0,0,0,0,0,1,1,1,1,1,1,1,0,0,0,0,0,0,0,0,0,0,0,0,0,0,1,1,0.99,1,1,1,1,1,1,1,1,1,1,1,0,0,0,0,0,0,0,0,0,0,0,0,0,0.66,1,1,1,1,1,1,0.55,0,0,0,0,0,0,0,0,0,0,0,0,0,0,0,0,0,0,0,0,0.42,1,1,0,0,0,0,0,0,0,0,0,0,0,0,0,0,0,0,0,0,0,0,0,0,0,0,0,0,0,0,0,0,0,0,0,0,0,0,0,0,0,0,0,0,0,0,0,0,0,0,0,0,0,0,0,0,0,0,0,0,0,0,0,0,0,0,0,0,0,0,0,0,0,0,0,0,0,0,0,0,0,0,0,0,0,0,0,0,0,0,0,0,0,0,0,0,0,0,0,0,0,0,0,0,0,0,0,0,0,0,0,0,0,0,0,0,0,0,0,0,0,0,0,0,0,0,0,0,0,0,0,0,0,0,0,0,0,0,0,0,0,0,0,0,0,0,0,0,0,0,0,0,0,0,0,0,0,0,0,0,0,0,0,0,0,0,0,0,0,0,0,0,0,0,0,0,0,0,0,0,0,0,0,0,0,0,0,0,0,0,0,0,0,0,0,0,0,0,0,0,0,0,0,0,0,0,0,0,0,0,0,0,0,0,0,0,0,0,0,0,0,0,0,0,0,0,0,0,0,0,0,0,0,0,0,0,0,0,0,0,0,0,0]},{"label":2,"pixels":[0,0,0,0,0,0,0,0,0,0,0,0,0,0,0,0,0,0,0,0,0,0,0,0,0,0,0,0,0,0,0,0,0,0,0,0,0,0,0,0,0,0,0,0,0,0,0,0,0,0,0,0,0,0,0,0,0,0,0,0,0,0,0,0,0,0,0,0,0,0,0,0,0,0,0,0,0,0,0,0,0,0,0,0,0,0,0,0,0,0,0,0,0,0,0,0,0,0,0,0,0,0,0,0,0,0,0,0,0,0,0,0,0,0,0,0,0,0,0,0,0,0,0,0,0,0,0,0,0,0,0,0,0,0,0,0,0,0,0,0,0,0,0,0,0,0,0,0,0,0,0,0,0,0,0,0,0,0,0,0,0,0,0,0,0,0,0,0,0,0,0,0,0,0,0,0,0,0,0,0,0,0,0,0,0,0,0,0,0,0,0,0,0,0,0,0,0,0,0,0,0,0,0,0,0,0,0,0,0,0,0,0,0,0,0,0,0,0,0,0,0,0,0,0,0,0,0,0,0,0,0,0,0,0,0,0,0,0,0,0,0,0,0,0,0,0,0,0,0,0,0,0,0,0,0,0,0,0,0,0,0,0,0,0,0,0,0,0,0,0,0,0,0,0,0,0,0,0,0,0,0,0,0,0,0,0,0,0,0,0,0,0,0,0,0,0,0,0,0,0,0,0,0,0,0,0,0,0,0,0,0,0,0,0,0,0,0,0,0,0,0,0,0,0,0,0,0,0,0,0,0,0,0,0,0,0,0,0,0,0,0,0,0,0,0,0,0,0,0,0,0,0,0,0,0,0,0,0,0,0,0,0,0,0,0,0,0,0,0,0,0,0,0,0,0,0,0,0,0,0,0,0,0,0,0,0,0,0,0,0,0,0,0,0,0,0,0,0,0,0,0,0,0.99,0.07,0,0,0,0,0,0,0,0,0,0,0,0,0,0,0,0,0,0,0,0,0,0,0,0,0,0,1,1,0.65,0,0,0,0,0,0,0,0,0,0,0,0,0,0,0,0,0,0,0,0,0,0,0,0,0,1,1,1,1,0,0,0,0,0,0,0,0,0,0,0,0,0,0,0,0,0,0,0,0,0,0,0,0,1,0.5,1,1,1,0,0,0,0,0,0,0,0,0,0,0,0,0,0,0,0,0,0,0,0,0,0,0.46,1,0,0,1,1,1,1,0.07,0,0,0,0,0,0,0,0,0,0,0,0,0,0,0,0,0,0,0,1,1,0,0,0,1,1,1,1,0,0,0,0,0,0,0,0,0,0,0,0,0,0,0,0,0,0,0,1,1,0.96,1,1,1,1,0.99,0,0,0,0,0,0,0,0,0,0,0,0,0,0,0,0,0,0,0,0,1,1,1,1,0.98,0,0,0,0,0,0,0,0,0,0,0,0,0,0,0,0,0,0,0,0,0,0,0,1,1,0.85,0,0,0,0,0,0,0,0,0,0,0,0,0,0,0,0,0,0,0,0,0,0,0,0,0,0,0,0,0,0,0,0,0,0,0,0,0,0,0,0,0,0,0,0,0,0,0,0,0,0,0,0,0,0,0,0,0,0,0,0,0,0,0,0,0,0,0,0,0,0,0,0,0,0,0,0,0,0,0,0,0,0,0,0,0,0,0,0,0,0,0,0,0,0,0,0,0,0,0,0,0,0,0,0,0,0,0,0,0,0,0,0,0,0,0,0,0,0,0,0,0,0,0,0,0,0,0,0,0,0,0,0,0,0,0,0,0,0,0,0,0,0,0,0,0,0,0,0,0,0,0,0,0,0,0,0]},{"label":2,"pixels":[0,0,0,0,0,0,0,0,0,0,0,0,0,0,0,0,0,0,0,0,0,0,0,0,0,0,0,0,0,0,0,0,0,0,0,0,0,0,0,0,0,0,0,0,0,0,0,0,0,0,0,0,0,0,0,0,0,0,0,0,0,0,0,0,0,0,0,0,0,0,0,0,0,0,0,0,0,0,0,0,0,0,0,0,0,0,0,0,0,0,0,0,0,0,0,0,0,0,0,0,0,0,0,0,0,0,0,0,0,0,0,0,0,0,0,0,0,0,0,0,0,0,0.98,0,0,0,0,0,0,0,0,0,0,0,0,0,0,0,0,0,0,0,0,0,0,0,0,0,0,0,1,1,0,0,0,0,0,0,0,0,0,0,0,0,0,0,0,0,0,0,0,0,0,0,0,0,0,0,1,1,1,0.98,0,0,0,0,0,0,0,0,0,0,0,0,0,0,0,0,0,0,0,0,0,0,0,0,1,1,1,1,1,0.36,0,0,0,0,0,0,0,0,0,0,0,0,0,0,0,0,0,0,0,0,0,0,1,0.47,0,0.09,1,1,1,0.15,0,0,0,0,0,0,0,0,0,0,0,0,0,0,0,0,0,0,0,0.97,1,0,0,0,0,0.88,1,1,1,0,0,0,0,0,0,0,0,0,0,0,0,0,0,0,0,0,0,1,1,0,0,0,0,0,0,0.99,1,1,0.98,0,0,0,0,0,0,0,0,0,0,0,0,0,0,0,0,1,1,0,0,0,0,0,0,0,0,1,1,1,0,0,0,0,0,0,0,0,0,0,0,0,0,0,0,1,1,0,0,0,0,0,0,0,0,0,1,1,1,0,0,0,0,0,0,0,0,0,0,0,0,0,0,1,0.98,0,0,0,0,0,0,0,0,0,0,0.52,1,1,1,0,0,0,0,0,0,0,0,0,0,0,0,1,0.5,0,0,0,0,0,0,0,0,0,0,1,1,1,1,0,0,0,0,0,0,0,0,0,0,0,0,1,0.35,0,0,0,0,0,0,0.12,1,1,1,1,1,1,0.89,0,0,0,0,0,0,0,0,0,0,0,0.25,1,0,0,0,0,0,1,1,1,1,1,0.27,0,0,0,0,0,0,0,0,0,0,0,0,0,0,0,1,1,0,0,1,1,1,1,1,0.74,0,0,0,0,0,0,0,0,0,0,0,0,0,0,0,0,0,0,1,1,1,1,1,1,0.62,0,0,0,0,0,0,0,0,0,0,0,0,0,0,0,0,0,0,0,0,0,1,1,1,1,0,0,0,0,0,0,0,0,0,0,0,0,0,0,0,0,0,0,0,0,0,0,0,0,0.66,1,0,0,0,0,0,0,0,0,0,0,0,0,0,0,0,0,0,0,0,0,0,0,0,0,0,0,0,0,0,0,0,0,0,0,0,0,0,0,0,0,0,0,0,0,0,0,0,0,0,0,0,0,0,0,0,0,0,0,0,0,0,0,0,0,0,0,0,0,0,0,0,0,0,0,0,0,0,0,0,0,0,0,0,0,0,0,0,0,0,0,0,0,0,0,0,0,0,0,0,0,0,0,0,0,0,0,0,0,0,0,0,0,0,0,0,0,0,0,0,0,0,0,0,0,0,0,0,0,0,0,0,0,0,0,0,0,0,0,0,0,0,0,0,0,0,0,0,0,0,0,0,0,0,0,0,0,0,0,0,0,0,0,0,0,0,0,0,0,0,0,0,0,0,0,0,0,0,0,0,0,0,0,0,0,0,0,0,0,0,0,0,0,0,0,0,0,0,0,0,0,0,0,0,0,0,0,0,0,0,0,0,0,0,0]},{"label":2,"pixels":[0,0,0,0,0,0,0,0,0,0,0,0,0,0,0,0,0,0,0,0,0,0,0,0,0,0,0,0,0,0,0,0,0,0,0,0,0,0,0,0,0,0,0,0,0,0,0,0,0,0,0,0,0,0,0,0,0,0,0,0,0,0,0,0,0,0,0,0,0,0,0,0,0,0,0,0,0,0,0,0,0,0,0,0,0,0,0,0,0,0,0,0,0,0,0,0,0,0,0,0,0,0,0,0,0,0,0,0,0,0,0,0,0,0,0,0,0,0,0,0,0,0,0,0,0,0,0,0,0,0,0,0,0,0,0,0,0,0,0,0,0,0,0,0,0,0,0,0,0,0,0,0,0,0,0,0,0,0,0,0,0,0,0,0,0,0,0,0,0,0,0,0,0,0,0,0,0,0,0,0,0,0,0,0,0,0,0,0,0,0,0,0,0,0,0,0,0,0,0,0,0,0,0,0,0,0,0,0,0,0.17,0.33,0,0,0,0,0,0,0,0,0,0,0,0,0,0,0,0,0,0,0,0,0,0,0,0,0,0,1,1,1,0,0,0,0,0,0,0,0,0,0,0,0,0,0,0,0,0,0,0,0,0,0,0,0,0,1,1,1,0.98,0,0,0,0,0,0,0,0,0,0,0,0,0,0,0,0,0,0,0,0,0,0,0,0,1,1,1,1,1,0,0,0,0,0,0,0,0,0,0,0,0,0,0,0,0,0,0,0,0,0,0,0.96,1,0,0,1,1,1,1,0,0,0,0,0,0,0,0,0,0,0,0,0,0,0,0,0,0,0,0,1,1,0,0,0,0,1,1,1,1,1,1,0.5,0,0,0,0,0,0,0,0,0,0,0,0,0,0,0,1,1,0,0,0,0,0,0.13,1,1,1,1,0,0,0,0,0,0,0,0,0,0,0,0,0,0,0,0,1,1,0,0,0,0,1,1,1,1,0,0,0,0,0,0,0,0,0,0,0,0,0,0,0,0,0,0,1,1,0,0,0.91,1,1,1,0,0,0,0,0,0,0,0,0,0,0,0,0,0,0,0,0,0,0,0,1,1,0.65,1,1,1,0,0,0,0,0,0,0,0,0,0,0,0,0,0,0,0,0,0,0,0,0,0,1,1,1,1,0.54,0,0,0,0,0,0,0,0,0,0,0,0,0,0,0,0,0,0,0,0,0,0,0,0.5,1,1,0,0,0,0,0,0,0,0,0,0,0,0,0,0,0,0,0,0,0,0,0,0,0,0,0,0,0,0,0,0,0,0,0,0,0,0,0,0,0,0,0,0,0,0,0,0,0,0,0,0,0,0,0,0,0,0,0,0,0,0,0,0,0,0,0,0,0,0,0,0,0,0,0,0,0,0,0,0,0,0,0,0,0,0,0,0,0,0,0,0,0,0,0,0,0,0,0,0,0,0,0,0,0,0,0,0,0,0,0,0,0,0,0,0,0,0,0,0,0,0,0,0,0,0,0,0,0,0,0,0,0,0,0,0,0,0,0,0,0,0,0,0,0,0,0,0,0,0,0,0,0,0,0,0,0,0,0,0,0,0,0,0,0,0,0,0,0,0,0,0,0,0,0,0,0,0,0,0,0,0,0,0,0,0,0,0,0,0,0,0,0,0,0,0,0,0,0,0,0,0,0,0,0,0,0,0,0,0,0,0,0,0,0,0,0,0,0,0,0,0,0,0,0,0,0,0,0,0,0,0,0,0,0,0,0,0,0,0,0,0,0,0,0,0,0,0,0,0,0,0,0,0,0,0,0,0,0,0,0,0,0,0,0,0,0]},{"label":2,"pixels":[0,0,0,0,0,0,0,0,0,0,0,0,0,0,0,0,0,0,0,0,0,0,0,0,0,0,0,0,0,0,0,0,0,0,0,0,0,0,0,0,0,0,0,0,0,0,0,0,0,0,0,0,0,0,0,0,0,0,0,0,0,0,0,0,0,0,0,0,0,0,0,0,0,0,0,0,0,0,0,0,0,0,0,0,0,0,0,0,0,0,0,0,0,0,0,0,0,0,0,0,0,0,0,0,0,0,0,0,0,0,0,0,0,0,0,0,0,0,0,0,0,0,0,0,0,0,0,0,0,0,0,0,0,0,0,0,0,0,0,0,0,0,0,0,0,0,0,0,1,0,0,0,0,0,0,0,0,0,0,0,0,0,0,0,0,0,0,0,0,0,0,0,0,0,0,1,1,1,0.98,0,0,0,0,0,0,0,0,0,0,0,0,0,0,0,0,0,0,0,0,0,0,0,0,1,1,1,1,1,0.33,0,0,0,0,0,0,0,0,0,0,0,0,0,0,0,0,0,0,0,0,0,1,1,0,0,0.99,1,1,1,0,0,0,0,0,0,0,0,0,0,0,0,0,0,0,0,0,0,0,0,1,1,0,0,0,0,0.99,1,1,0,0,0,0,0,0,0,0,0,0,0,0,0,0,0,0,0,0,0.6,1,0.47,0,0,0,0,0,0.16,1,1,0.87,0,0,0,0,0,0,0,0,0,0,0,0,0,0,0,0,1,1,0,0,0,0,0,0,0,0,1,1,1,0,0,0,0,0,0,0,0,0,0,0,0,0,0,0,1,1,0,0,0,0,0,0,0,0,0,1,1,1,0.37,0,0,0,0,0,0,0,0,0,0,0,0,1,1,0,0,0,0,0,0,0,0,0,0,0,0,1,1,1,0,0,0,0,0,0,0,0,0,0,0,1,1,0,0,0,0,0,0,0,0,0,0,0.5,1,1,1,1,1,0,0,0,0,0,0,0,0,0,0,1,0.7,0,0,0,0,0,0.82,1,1,1,1,1,1,1,0.56,0,0.38,0,0,0,0,0,0,0,0,0,1,1,0,0.95,1,1,1,1,1,1,1,1,0.77,0,0,0,0,0,0,0,0,0,0,0,0,0,0,0,1,1,1,1,1,1,1,1,0,0,0,0,0,0,0,0,0,0,0,0,0,0,0,0,0,0,0,0,1,1,0.98,0,0,0,0,0,0,0,0,0,0,0,0,0,0,0,0,0,0,0,0,0,0,0,0,0,0.47,0,0,0,0,0,0,0,0,0,0,0,0,0,0,0,0,0,0,0,0,0,0,0,0,0,0,0,0,0,0,0,0,0,0,0,0,0,0,0,0,0,0,0,0,0,0,0,0,0,0,0,0,0,0,0,0,0,0,0,0,0,0,0,0,0,0,0,0,0,0,0,0,0,0,0,0,0,0,0,0,0,0,0,0,0,0,0,0,0,0,0,0,0,0,0,0,0,0,0,0,0,0,0,0,0,0,0,0,0,0,0,0,0,0,0,0,0,0,0,0,0,0,0,0,0,0,0,0,0,0,0,0,0,0,0,0,0,0,0,0,0,0,0,0,0,0,0,0,0,0,0,0,0,0,0,0,0,0,0,0,0,0,0,0,0,0,0,0,0,0,0,0,0,0,0,0,0,0,0,0,0,0,0,0,0,0,0,0,0,0,0,0,0,0,0,0,0,0,0,0,0,0,0,0,0,0,0,0,0,0,0,0,0,0,0,0,0,0,0,0,0,0,0,0,0,0,0,0,0,0,0,0,0,0,0,0,0,0,0,0,0,0,0,0,0,0,0,0]},{"label":2,"pixels":[0,0,0,0,0,0,0,0,0,0,0,0,0,0,0,0,0,0,0,0,0,0,0,0,0,0,0,0,0,0,0,0,0,0,0,0,0,0,0,0,0,0,0,0,0,0,0,0,0,0,0,0,0,0,0,0,0,0,0,0,0,0,0,0,0,0,0,0,0,0,0,0,0,0,0,0,0,0,0,0,0,0,0,0,0,0,0,0,0,0,0,0,0,0,0,0,0,0,0,0,0,0,0,0,0,0,0,0,0,0,0,0,0,0,0,0,0,0,0,0,0,0,0,0,0,0,0,0,0,0,0,0,0,0,0,0,0,0,0,0,0,0,0,0,0,0,1,1,1,0.14,0,0,0,0,0,0,0,0,0,0,0,0,0,0,0,0,0,0,0,0,0,0,0,0,1,1,1,1,1,0,0,0,0,0,0,0,0,0,0,0,0,0,0,0,0,0,0,0,0,0,0,0,1,1,0,0.85,1,1,0.12,0,0,0,0,0,0,0,0,0,0,0,0,0,0,0,0,0,0,0,0,0,1,1,0,0,0.03,1,1,1,0,0,0,0,0,0,0,0,0,0,0,0,0,0,0,0,0,0,0,0.97,1,0.04,0,0,0,0,1,1,1,0.61,0,0,0,0,0,0,0,0,0,0,0,0,0,0,0,0,0,1,1,0,0,0,0,0,0,0.16,1,1,1,1,0,0,0,0,0,0,0,0,0,0,0,0,0,0,0,1,1,0,0,0,0,0,0,0,0,0.4,1,1,1,1,0,0,0,0,0,0,0,0,0,0,0,0,0.53,1,0,0,0,0,0,0,0,0,0,0,0,0,1,1,1,0.16,0,0,0,0,0,0,0,0,0,0,1,1,0,0,0,0,0,0,0,0,0,0,0,0,0,0.22,1,1,1,1,0,0,0,0,0,0,0,0,1,1,0,0,0,0,0,0,0,0,0,0,0,0,0,0,0.13,1,1,1,0,0,0,0,0,0,0,0,1,1,0,0,0,0,0,0,0,0,0,0,0,0,0,1,1,1,0.89,0,0,0,0,0,0,0,0,0,1,0.47,0,0,0,0,0,0,0,0,0,0,0,1,1,1,1,0,0,0,0,0,0,0,0,0,0,0.53,1,0,0,0,0,0,0,0,0,0,0,0.98,1,1,1,0,0,0,0,0,0,0,0,0,0,0,0,1,1,0,0,0,0,0,0,0,0.82,1,1,1,1,0.35,0,0,0,0,0,0,0,0,0,0,0,0,0,1,1,0,0,0,0,0,1,1,1,1,1,0,0,0,0,0,0,0,0,0,0,0,0,0,0,0,0,1,1,0,0.83,1,1,1,1,1,0.1,0,0,0,0,0,0,0,0,0,0,0,0,0,0,0,0,0,0,1,1,1,1,1,1,1,0,0,0,0,0,0,0,0,0,0,0,0,0,0,0,0,0,0,0,0,0,1,1,1,0,0,0,0,0,0,0,0,0,0,0,0,0,0,0,0,0,0,0,0,0,0,0,0,0,0,1,0,0,0,0,0,0,0,0,0,0,0,0,0,0,0,0,0,0,0,0,0,0,0,0,0,0,0,0,0,0,0,0,0,0,0,0,0,0,0,0,0,0,0,0,0,0,0,0,0,0,0,0,0,0,0,0,0,0,0,0,0,0,0,0,0,0,0,0,0,0,0,0,0,0,0,0,0,0,0,0,0,0,0,0,0,0,0,0,0,0,0,0,0,0,0,0,0,0,0,0,0,0,0,0,0,0,0,0,0,0,0,0,0,0,0,0,0,0,0,0,0,0,0,0,0,0,0,0,0,0,0,0,0,0,0]},{"label":2,"pixels":[0,0,0,0,0,0,0,0,0,0,0,0,0,0,0,0,0,0,0,0,0,0,0,0,0,0,0,0,0,0,0,0,0,0,0,0,0,0,0,0,0,0,0,0,0,0,0,0,0,0,0,0,0,0,0,0,0,0,0,0,0,0,0,0,0,0,0,0,0,0,0,0,0,0,0,0,0,0,0,0,0,0,0,0,0,0,0,0,0,0,0,0,0,0,0,0,0,0,0,0,0,0,0,0,0,0,0,0,0,0,0,0,0,0,0,0,0,0,0,0,0,0,0,0,0,0,0,0,0,0,0,0,0,0,0,0,0,0,0,0,0,0,0,0,0,0,0,0,0,0,0,0,0,0,0,0,0,0,0,0,0,0,0,0,0,0,0,0,0,0,0,0,0,0,0,0,0,0,0,0,0,0,0,0,0,0,0,0,0,0,0,0,0,0,0,0,0,0,0,0,0,0,0,0,0,0,0.28,1,1,0,0,0,0,0,0,0,0,0,0,0,0,0,0,0,0,0,0,0,0,0,0,0,0,0,1,1,1,0.96,0,0,0,0,0,0,0,0,0,0,0,0,0,0,0,0,0,0,0,0,0,0,0,1,1,1,1,1,0.45,0,0,0,0,0,0,0,0,0,0,0,0,0,0,0,0,0,0,0,0,0,1,1,1,0,0.76,1,1,0.38,0,0,0,0,0,0,0,0,0,0,0,0,0,0,0,0,0,0,0,0.3,1,1,0,0,0,0.96,1,1,0.54,0,0,0,0,0,0,0,0,0,0,0,0,0,0,0,0,0,0,1,1,0.79,0,0,0,0,1,1,1,0.1,0,0,0,0,0,0,0,0,0,0,0,0,0,0,0,0,0.27,1,1,0,0,0,0,0,0,1,1,1,1,0,0,0,0,0,0,0,0,0,0,0,0,0,0,0,1,1,0.5,0,0,0,0,0,0,0,0.91,1,1,1,0,0,0,0,0,0,0,0,0,0,0,0,0,0,1,1,0,0,0,0,0,0,0,0,0,0.02,1,1,1,0,0,0,0,0,0,0,0,0,0,0,0,0.99,1,1,0,0,0,0,0,0,0,0,0,0,0,1,1,1,0,0,0,0,0,0,0,0,0,0,0,1,1,0,0,0,0,0,0,0,0,0,0,0,0,0,1,1,1,0,0,0,0,0,0,0,0,0,0.8,1,1,1,1,1,1,1,1,1,1,1,1,1,1,1,1,1,1,1,0,0,0,0,0,0,0,0,1,1,1,1,1,1,1,1,1,1,1,1,1,1,1,1,1,1,1,1,0,0,0,0,0,0,0,0,1,1,0.96,0,0,0,0,0,0,0,0,0,0,0,0,0,0,0,0,0,0,0,0,0,0,0,0,0,0,0,0,0,0,0,0,0,0,0,0,0,0,0,0,0,0,0,0,0,0,0,0,0,0,0,0,0,0,0,0,0,0,0,0,0,0,0,0,0,0,0,0,0,0,0,0,0,0,0,0,0,0,0,0,0,0,0,0,0,0,0,0,0,0,0,0,0,0,0,0,0,0,0,0,0,0,0,0,0,0,0,0,0,0,0,0,0,0,0,0,0,0,0,0,0,0,0,0,0,0,0,0,0,0,0,0,0,0,0,0,0,0,0,0,0,0,0,0,0,0,0,0,0,0,0,0,0,0,0,0,0,0,0,0,0,0,0,0,0,0,0,0,0,0,0,0,0,0,0,0,0,0,0,0,0,0,0,0,0,0,0,0,0,0,0,0,0,0,0,0,0,0,0,0,0,0,0,0,0,0,0,0,0,0,0,0,0,0,0,0,0]},{"label":0,"pixels":[0,0,0,0,0,0,0,0,0,0,0,0,0,0,0,0,0,0,0,0,0,0,0,0,0,0,0,0,0,0,0,0,0,0,0,0,0,0,0,0,0,0,0,0,0,0,0,0,0,0,0,0,0,0,0,0,0,0,0,0,0,0,0,0,0,0,0,0,0,0,0,0,0,0,0,0,0,0,0,0,0,0,0,0,0,0,0,0,0,0,0,0,0,0,0,0,0,0,0,0,0,0,0,0,0,0,0,0,0,0,0,0,0,0,0,0,0,0,0,0,0,0,0,0,0,0,0,0,0,0,0,0,0,0,0,0,0,0,0,0,0,0,0,0,0,0,0,0.19,0.68,0.9,0.95,0.95,0.95,0.95,0.92,0.58,0,0,0,0,0,0,0,0,0,0,0,0,0,0,0,0,0,0.05,0.77,1,1,1,1,1,1,1,1,1,0.96,0.65,0.01,0,0,0,0,0,0,0,0,0,0,0,0,0,0.08,1,1,1,1,0.83,0.51,0.51,0.51,0.51,0.86,1,1,1,0.92,0.42,0,0,0,0,0,0,0,0,0,0,0,0,0.78,1,1,0.77,0.05,0,0,0,0,0,0,0.24,0.81,1,1,1,0.93,0.2,0,0,0,0,0,0,0,0,0,0,1,1,0.85,0,0,0,0,0,0,0,0,0,0,0.4,0.96,1,1,1,0.6,0,0,0,0,0,0,0,0,0,1,1,0.58,0,0,0,0,0,0,0,0,0,0,0,0.05,0.41,1,1,0.98,0.36,0,0,0,0,0,0,0,0,1,1,0.26,0,0,0,0,0,0,0,0,0,0,0,0,0,0.37,1,1,0.92,0,0,0,0,0,0,0,0,1,1,0.41,0,0,0,0,0,0,0,0,0,0,0,0,0,0,1,1,0.92,0,0,0,0,0,0,0,0,0.93,1,1,0,0,0,0,0,0,0,0,0,0,0,0,0,0,0.48,1,0.96,0,0,0,0,0,0,0,0,0.28,1,1,0.16,0,0,0,0,0,0,0,0,0,0,0,0,0,0.41,1,0.96,0,0,0,0,0,0,0,0,0.17,1,1,0.32,0,0,0,0,0,0,0,0,0,0,0,0,0,0.48,1,0.96,0,0,0,0,0,0,0,0,0.08,1,1,0.52,0,0,0,0,0,0,0,0,0,0,0,0,0.14,1,1,0.91,0,0,0,0,0,0,0,0,0,1,1,1,0.03,0,0,0,0,0,0,0,0,0,0,0.32,0.91,1,1,0.09,0,0,0,0,0,0,0,0,0,0.27,1,1,0.59,0.05,0,0,0,0,0,0,0.03,0.22,0.82,1,1,1,0.61,0,0,0,0,0,0,0,0,0,0,0,0.86,1,1,1,0.81,0.51,0.51,0.51,0.68,1,1,1,1,1,0.99,0.41,0,0,0,0,0,0,0,0,0,0,0,0,0.1,0.96,1,1,1,1,1,1,1,1,1,1,1,0.64,0.09,0,0,0,0,0,0,0,0,0,0,0,0,0,0,0.05,0.44,0.82,1,1,1,1,1,1,0.64,0.4,0.08,0,0,0,0,0,0,0,0,0,0,0,0,0,0,0,0,0,0,0,0,0,0,0,0,0,0,0,0,0,0,0,0,0,0,0,0,0,0,0,0,0,0,0,0,0,0,0,0,0,0,0,0,0,0,0,0,0,0,0,0,0,0,0,0,0,0,0,0,0,0,0,0,0,0,0,0,0,0,0,0,0,0,0,0,0,0,0,0,0,0,0,0,0,0,0,0,0,0,0,0,0,0,0,0,0,0,0,0,0,0,0,0,0,0,0,0,0,0,0,0,0,0,0,0,0,0,0,0,0,0,0,0,0,0,0,0,0,0,0,0,0,0,0,0,0,0,0,0,0,0,0,0,0,0,0,0,0,0,0,0,0,0,0,0,0,0,0,0,0,0,0,0,0,0,0,0,0]},{"label":1,"pixels":[0,0,0,0,0,0,0,0,0,0,0,0,0,0,0,0,0,0,0,0,0,0,0,0,0,0,0,0,0,0,0,0,0,0,0,0,0,0,0,0,0,0,0,0,0,0,0,0,0,0,0,0,0,0,0,0,0,0,0,0,0,0,0,0,0,0,0,0,0,0,0,0,0,0,0,0,0,0,0,0,0,0,0,0,0,0,0,0,0,0,0,0,0,0,0,0,0,0,0,0,0,0,0,0,0,0,0,0,0,0,0,0,0,0,0,0,0,0,0,0,0,0,0,0,0,0,0,0,0,0,0,0,0,0,0,0,0,0,0,0,0,0,0,0,0,0.46,0.9,0.92,0.93,0.96,0.96,0.96,0.96,0.96,0.96,0.96,0.96,0.96,0.96,0.96,0.96,0.96,0.29,0,0,0,0,0,0,0,0,0,0.96,1,1,1,1,1,1,1,1,1,1,1,1,1,1,1,1,1,0.91,0,0,0,0,0,0,0,0,0,0.96,1,1,0.74,0.55,0.41,0.41,0.41,0.41,0.41,0.41,0.41,0.41,0.41,0.41,0.56,1,1,0.08,0,0,0,0,0,0,0,0,0,0.49,1,1,0,0,0,0,0,0,0,0,0,0,0,0,0.21,1,1,0.08,0,0,0,0,0,0,0,0,0,0,1,1,0.04,0,0,0,0,0,0,0,0,0,0,0,0,1,1,0.28,0,0,0,0,0,0,0,0,0,0,1,1,0.2,0,0,0,0,0,0,0,0,0,0,0,0,1,1,0.83,0,0,0,0,0,0,0,0,0,0,1,1,0.2,0,0,0,0,0,0,0,0,0,0,0,0,0.82,1,1,0,0,0,0,0,0,0,0,0,0,1,1,0.37,0,0,0,0,0,0,0,0,0,0,0,0,0.2,1,1,0,0,0,0,0,0,0,0,0,0,0.99,1,0.4,0,0,0,0,0,0,0,0,0,0,0,0,0.15,1,1,0.06,0,0,0,0,0,0,0,0,0,0.92,1,0.4,0,0,0,0,0,0,0,0,0,0,0,0,0.15,1,1,0.2,0,0,0,0,0,0,0,0,0,0.89,1,0.42,0,0,0,0,0,0,0,0,0,0,0,0,0.15,1,1,0.2,0,0,0,0,0,0,0,0,0,0.83,1,0.69,0,0,0,0,0,0,0,0,0,0,0,0,0.13,1,1,0.2,0,0,0,0,0,0,0,0,0,0.83,1,0.7,0,0,0,0,0,0,0,0,0,0,0,0,0.07,1,1,0.2,0,0,0,0,0,0,0,0,0,0.83,1,0.7,0,0,0,0,0,0,0,0,0.27,0.52,0.82,0.82,0.84,1,1,0.91,0,0,0,0,0,0,0,0,0,0.83,1,0.99,0.65,0.67,0.83,0.88,1,1,1,1,1,1,1,1,1,1,1,1,0,0,0,0,0,0,0,0,0,0.82,1,1,1,1,1,1,1,1,1,1,1,1,1,0.75,0.67,0.51,0.51,0.13,0,0,0,0,0,0,0,0,0,0.09,0.94,0.9,0.67,0.67,0.67,0.67,0.4,0.33,0.33,0.33,0,0,0,0,0,0,0,0,0,0,0,0,0,0,0,0,0,0,0,0,0,0,0,0,0,0,0,0,0,0,0,0,0,0,0,0,0,0,0,0,0,0,0,0,0,0,0,0,0,0,0,0,0,0,0,0,0,0,0,0,0,0,0,0,0,0,0,0,0,0,0,0,0,0,0,0,0,0,0,0,0,0,0,0,0,0,0,0,0,0,0,0,0,0,0,0,0,0,0,0,0,0,0,0,0,0,0,0,0,0,0,0,0,0,0,0,0,0,0,0,0,0,0,0,0,0,0,0,0,0,0,0,0,0,0,0,0,0,0,0,0,0,0,0,0,0,0,0,0,0,0,0,0,0,0,0,0,0,0,0,0,0,0,0,0,0,0,0,0,0,0,0,0,0,0,0,0,0,0,0]},{"label":2,"pixels":[0,0,0,0,0,0,0,0,0,0,0,0,0,0,0,0,0,0,0,0,0,0,0,0,0,0,0,0,0,0,0,0,0,0,0,0,0,0,0,0,0,0,0,0,0,0,0,0,0,0,0,0,0,0,0,0,0,0,0,0,0,0,0,0,0,0,0,0,0,0,0,0,0,0,0,0,0,0,0,0,0,0,0,0,0,0,0,0,0,0,0,0,0,0,0,0,0,0,0,0,0,0,0,0,0,0,0,0,0,0,0,0,0,0,0,0,0,0,0,0,0,0,0,0,0,0,0,0,0,0,0,0,0,0,0,0,0,0,0,0,0,0,0,0,0,0,0,0,0,0,0,0,0,0,0,0,0,0,0,0,0,0,0,0,0,0,0,0,0,0,0,0,0,0,0,0,0,0,0,0,0,0,0,0,0,0,0,0,0,0,0,0,0,0,0,0,0,0,0,0,0,0,0,0,0,0,0,0,0,0,0,0,0,0,0,0,0,0,0,0,0,0,0,0,0,0,0,0,0,0,0,0,0,0,0,0,0,0,0,0,0,0,0,0,0,0,0,0,0,0,0,0,0,0,0,0,0,0,0,0,0,0,0,0.06,0.25,0.84,1,0.43,0.13,0,0,0,0,0,0,0,0,0,0,0,0,0,0,0,0,0,0,0,0,0,0.25,0.6,0.94,1,1,1,0.61,0.02,0,0,0,0,0,0,0,0,0,0,0,0,0,0,0,0,0,0,0.17,0.64,0.85,1,0.87,0.42,0.32,1,0.89,0.7,0.11,0,0,0,0,0,0,0,0,0,0,0,0,0,0,0,0.02,0.49,0.93,1,0.98,0.58,0.08,0.02,0,0.27,1,1,0.92,0,0,0,0,0,0,0,0,0,0,0,0,0,0.11,0.19,1,1,0.95,0.76,0,0,0,0,0,0,0,0.54,0.98,0.96,0.1,0.02,0,0,0,0,0,0,0,0,0,0,0.85,1,1,1,0.76,0.37,0.34,0.19,0,0,0,0,0,0,0.54,1,0.87,0.39,0.09,0,0,0,0,0,0,0,0,0,0.6,0.72,0.72,0.85,1,1,0.99,0.8,0.57,0.57,0.57,0.57,0.45,0.11,0,0.45,1,0.96,0.68,0.06,0,0,0,0,0,0,0,0,0.08,0.1,0.1,0.15,0.21,0.21,0.62,1,1,1,1,1,0.96,0.83,0.79,0.8,1,1,1,0.82,0,0,0,0,0,0,0,0,0,0,0,0,0,0,0,0,0,0.01,0.49,0.98,0.98,0.98,0.98,0.98,0.98,0.98,0.98,0.98,0,0,0,0,0,0,0,0,0,0,0,0,0,0,0,0,0,0,0,0,0,0,0,0,0,0,0,0,0,0,0,0,0,0,0,0,0,0,0,0,0,0,0,0,0,0,0,0,0,0,0,0,0,0,0,0,0,0,0,0,0,0,0,0,0,0,0,0,0,0,0,0,0,0,0,0,0,0,0,0,0,0,0,0,0,0,0,0,0,0,0,0,0,0,0,0,0,0,0,0,0,0,0,0,0,0,0,0,0,0,0,0,0,0,0,0,0,0,0,0,0,0,0,0,0,0,0,0,0,0,0,0,0,0,0,0,0,0,0,0,0,0,0,0,0,0,0,0,0,0,0,0,0,0,0,0,0,0,0,0,0,0,0,0,0,0,0,0,0,0,0,0,0,0,0,0,0,0,0,0,0,0,0,0,0,0,0,0,0,0,0,0,0,0,0,0,0,0,0,0,0,0,0,0,0,0,0,0,0,0,0,0,0,0,0,0,0,0,0,0,0,0,0,0,0,0,0,0,0,0,0,0,0,0,0,0,0,0,0,0,0,0,0,0,0,0,0,0,0,0,0,0,0,0,0,0,0,0,0,0,0,0,0,0,0,0,0,0,0,0,0,0,0,0,0,0,0,0,0,0,0,0,0,0]},{"label":0,"pixels":[0,0,0,0,0,0,0,0,0,0,0,0,0,0,0,0,0,0,0,0,0,0,0,0,0,0,0,0,0,0,0,0,0,0,0,0,0,0,0,0,0,0,0,0,0,0,0,0,0,0,0,0,0,0,0,0,0,0,0,0,0,0,0,0,0,0,0,0,0,0,0,0,0,0,0,0,0,0,0,0,0,0,0,0,0,0,0,0,0,0,0,0,0,0,0,0,0,0,0,0,0,0,0,0,0,0,0,0,0,0,0,0,0,0,0,0,0,0,0,0.04,0.13,0.68,1,1,1,1,1,1,0.89,0.46,0.17,0,0,0,0,0,0,0,0,0,0,0,0,0,0,0,0.13,0.61,0.96,1,1,1,1,1,1,1,1,1,1,0.36,0.02,0,0,0,0,0,0,0,0,0,0,0,0,0.01,0.79,1,1,1,1,1,1,1,1,1,1,1,1,0.96,0.4,0,0,0,0,0,0,0,0,0,0,0,0,0.92,1,1,1,1,1,0.64,0.52,0.52,0.73,0.99,1,1,1,1,0.91,0.2,0,0,0,0,0,0,0,0,0,0,0.17,0.96,1,1,0.85,0.52,0,0,0,0,0,0,0.08,0.65,0.98,1,1,0.62,0,0,0,0,0,0,0,0,0,0,0.58,1,1,1,0.25,0,0,0,0,0,0,0,0,0.15,0.88,1,1,1,0.5,0,0,0,0,0,0,0,0,0,0.65,1,1,0.9,0.12,0,0,0,0,0,0,0,0,0,0.17,1,1,1,0.97,0.28,0,0,0,0,0,0,0,0,0.66,1,1,0.49,0.01,0,0,0,0,0,0,0,0,0,0,0.29,1,1,1,0.65,0,0,0,0,0,0,0,0,0.82,1,1,0.45,0,0,0,0,0,0,0,0,0,0,0,0.12,0.9,1,1,0.65,0,0,0,0,0,0,0,0,0.82,1,1,0.45,0,0,0,0,0,0,0,0,0,0,0,0.06,0.67,1,1,0.76,0,0,0,0,0,0,0,0,0.82,1,1,0.45,0,0,0,0,0,0,0,0,0,0,0,0,0.47,1,1,0.82,0,0,0,0,0,0,0,0,0.73,1,1,0.73,0.14,0,0,0,0,0,0,0,0,0,0,0,0.45,1,1,0.82,0,0,0,0,0,0,0,0,0.64,1,1,1,0.72,0.31,0,0,0,0,0,0,0,0,0,0,0.45,1,1,0.82,0,0,0,0,0,0,0,0,0.17,0.96,1,1,1,0.91,0.44,0.02,0,0,0,0,0,0,0,0.05,0.63,1,1,0.82,0,0,0,0,0,0,0,0,0,0.14,1,1,1,1,1,1,0.98,0.5,0.07,0.01,0,0,0.01,0.97,1,1,1,0.75,0,0,0,0,0,0,0,0,0,0,0.21,0.83,0.99,1,1,1,1,1,1,1,0.57,0.36,0.92,1,1,1,0.98,0.47,0,0,0,0,0,0,0,0,0,0,0,0.19,0.57,1,1,1,1,1,1,1,1,1,1,1,1,1,0.51,0,0,0,0,0,0,0,0,0,0,0,0,0,0.04,0.16,0.41,0.93,1,1,1,1,1,1,1,1,0.86,0.29,0.03,0,0,0,0,0,0,0,0,0,0,0,0,0,0,0,0,0,0,0.09,0.58,0.88,0.89,0.89,0.89,0.78,0.1,0,0,0,0,0,0,0,0,0,0,0,0,0,0,0,0,0,0,0,0,0,0,0,0,0,0,0,0,0,0,0,0,0,0,0,0,0,0,0,0,0,0,0,0,0,0,0,0,0,0,0,0,0,0,0,0,0,0,0,0,0,0,0,0,0,0,0,0,0,0,0,0,0,0,0,0,0,0,0,0,0,0,0,0,0,0,0,0,0,0,0,0,0,0,0,0,0,0,0,0,0,0,0,0,0,0,0,0,0,0,0,0,0,0,0,0,0,0,0,0,0,0,0,0,0,0,0,0,0,0,0,0,0,0,0,0,0,0,0,0,0,0,0,0,0,0,0]},{"label":1,"pixels":[0,0,0,0,0,0,0,0,0,0,0,0,0,0,0,0,0,0,0,0,0,0,0,0,0,0,0,0,0,0,0,0,0,0,0,0,0,0,0,0,0,0,0,0,0,0,0,0,0,0,0,0,0,0,0,0,0,0,0,0,0,0,0,0,0,0,0,0,0,0,0,0,0,0,0,0,0,0,0,0,0,0,0,0,0,0,0,0,0,0,0,0,0,0,0,0,0,0,0,0,0,0,0,0,0,0,0,0,0,0,0,0,0,0,0,0,0,0,0,0,0,0,0,0,0,0,0,0,0,0,0,0,0,0,0,0,0,0,0,0,0,0,0,0,0,0,0,0,0,0,0,0,0,0,0,0,0,0,0,0,0,0,0,0,0,0,0,0,0,0,0,0,0,0.71,0.96,0.92,0.91,0.91,0.73,0.46,0.46,0.17,0,0,0,0,0,0,0,0,0,0,0,0,0,0,0,0,0,0,0,0.99,1,1,1,1,1,1,1,1,1,1,1,0.84,0.74,0.74,0.74,0.79,1,0.77,0,0,0,0,0,0,0,0,0,0.99,1,0.82,0.56,0.82,1,1,1,1,1,1,1,1,1,1,1,1,1,1,0,0,0,0,0,0,0,0,0,0.99,1,0.68,0,0,0,0,0,0,0.4,0.6,0.6,0.6,0.6,0.6,0.6,1,1,0.84,0,0,0,0,0,0,0,0,0,0.99,1,0.52,0,0,0,0,0,0,0,0,0,0,0,0,0,1,1,0.58,0,0,0,0,0,0,0,0,0.08,0.99,1,0.36,0,0,0,0,0,0,0,0,0,0,0,0,0.02,1,1,0.17,0,0,0,0,0,0,0,0,0.15,1,1,0.36,0,0,0,0,0,0,0,0,0,0,0,0,0.29,1,1,0.16,0,0,0,0,0,0,0,0,0.16,1,1,0.24,0,0,0,0,0,0,0,0,0,0,0,0,0.36,1,1,0.12,0,0,0,0,0,0,0,0,0.16,1,1,0.1,0,0,0,0,0,0,0,0,0,0,0,0,0.36,1,0.99,0.07,0,0,0,0,0,0,0,0,0.32,1,1,0,0,0,0,0,0,0,0,0,0,0,0,0,0.36,1,0.99,0,0,0,0,0,0,0,0,0,0.91,1,1,0,0,0,0,0,0,0,0,0,0,0,0,0,0.64,1,0.99,0,0,0,0,0,0,0,0,0,1,1,1,0,0,0,0,0,0,0,0,0,0,0,0,0,1,1,0.99,0,0,0,0,0,0,0,0,0,1,1,0.75,0,0,0,0,0,0,0,0,0,0,0,0,0,1,1,0.6,0,0,0,0,0,0,0,0,0,1,1,0.87,0.68,0.68,0.68,0.68,0.68,0.68,0.68,0.68,0.68,0.68,0.68,0.68,0.68,1,1,0.45,0,0,0,0,0,0,0,0,0,1,1,1,1,1,1,1,1,1,1,1,1,1,1,1,1,1,1,0,0,0,0,0,0,0,0,0,0,0.64,0.66,0.66,0.66,0.66,0.66,0.66,0.66,0.66,0.66,0.66,0.66,0.66,0.66,0.71,0.95,1,0.95,0,0,0,0,0,0,0,0,0,0,0,0,0,0,0,0,0,0,0,0,0,0,0,0,0,0,0,0,0,0,0,0,0,0,0,0,0,0,0,0,0,0,0,0,0,0,0,0,0,0,0,0,0,0,0,0,0,0,0,0,0,0,0,0,0,0,0,0,0,0,0,0,0,0,0,0,0,0,0,0,0,0,0,0,0,0,0,0,0,0,0,0,0,0,0,0,0,0,0,0,0,0,0,0,0,0,0,0,0,0,0,0,0,0,0,0,0,0,0,0,0,0,0,0,0,0,0,0,0,0,0,0,0,0,0,0,0,0,0,0,0,0,0,0,0,0,0,0,0,0,0,0,0,0,0,0,0,0,0,0,0,0,0,0,0,0,0,0,0,0,0,0,0,0]},{"label":2,"pixels":[0,0,0,0,0,0,0,0,0,0,0,0,0,0,0,0,0,0,0,0,0,0,0,0,0,0,0,0,0,0,0,0,0,0,0,0,0,0,0,0,0,0,0,0,0,0,0,0,0,0,0,0,0,0,0,0,0,0,0,0,0,0,0,0,0,0,0,0,0,0,0,0,0,0,0,0,0,0,0,0,0,0,0,0,0,0,0,0,0,0,0,0,0,0,0,0,0,0,0,0,0,0,0,0,0,0,0,0,0,0,0,0,0,0,0,0,0,0,0,0,0,0,0,0,0,0,0,0,0,0,0,0,0,0,0,0,0,0,0,0,0,0,0,0,0,0,0,0,0,0,0,0,0,0,0,0,0,0,0,0,0,0,0,0,0,0,0,0,0,0,0,0,0,0,0,0,0,0,0,0,0,0,0,0,0,0,0,0,0,0,0,0,0,0,0,0,0,0,0,0,0,0,0,0,0,0,0.01,0.22,1,0.9,0.12,0.02,0,0,0,0,0,0,0,0,0,0,0,0,0,0,0,0,0,0,0,0,0,0,0.08,1,1,1,0.91,0.25,0,0,0,0,0,0,0,0,0,0,0,0,0,0,0,0,0,0,0,0,0.01,0.14,0.24,1,0.98,0.85,1,0.88,0.16,0.05,0,0,0,0,0,0,0,0,0,0,0,0,0,0,0,0,0,0,0.1,0.85,1,0.98,0.72,0.09,0.84,1,0.92,0.44,0.12,0,0,0,0,0,0,0,0,0,0,0,0,0,0,0,0,0.02,0.47,1,0.98,0.71,0,0,0.11,0.82,1,0.97,0.7,0.12,0,0,0,0,0,0,0,0,0,0,0,0,0,0,0.01,0.26,1,0.98,0.69,0,0,0,0,0.11,0.8,1,0.96,0.65,0.15,0,0,0,0,0,0,0,0,0,0,0,0,0,0.27,1,0.99,0.7,0,0,0,0,0,0,0.12,0.78,0.97,0.97,0.71,0.16,0,0,0,0,0,0,0,0,0,0,0,0.09,1,0.99,0.69,0,0,0,0,0,0,0,0,0.11,0.69,0.95,0.98,0.69,0,0,0,0,0,0,0,0,0,0,0,0.49,1,0.93,0,0,0,0,0,0,0,0,0,0,0.1,0.65,1,0.85,0.23,0,0,0,0,0,0,0,0,0,0.2,1,1,0.91,0.31,0.31,0.31,0.31,0.31,0.31,0.31,0.31,0.31,0.31,0.31,0.44,1,1,0.84,0.24,0,0,0,0,0,0,0,0,0.76,1,1,1,1,1,1,1,1,1,1,1,1,1,1,1,1,1,1,0.76,0,0,0,0,0,0,0,0,1,1,1,0.99,0.82,0.65,0.65,0.65,0.65,0.65,0.65,0.65,0.65,0.65,0.65,0.65,0.65,0.68,0.82,0.74,0,0,0,0,0,0,0,0,0.63,0.63,0.63,0.62,0.29,0,0,0,0,0,0,0,0,0,0,0,0,0.05,0.3,0.45,0,0,0,0,0,0,0,0,0,0,0,0,0,0,0,0,0,0,0,0,0,0,0,0,0,0,0,0,0,0,0,0,0,0,0,0,0,0,0,0,0,0,0,0,0,0,0,0,0,0,0,0,0,0,0,0,0,0,0,0,0,0,0,0,0,0,0,0,0,0,0,0,0,0,0,0,0,0,0,0,0,0,0,0,0,0,0,0,0,0,0,0,0,0,0,0,0,0,0,0,0,0,0,0,0,0,0,0,0,0,0,0,0,0,0,0,0,0,0,0,0,0,0,0,0,0,0,0,0,0,0,0,0,0,0,0,0,0,0,0,0,0,0,0,0,0,0,0,0,0,0,0,0,0,0,0,0,0,0,0,0,0,0,0,0,0,0,0,0,0,0,0,0,0,0,0,0,0,0,0,0,0,0,0,0,0,0,0,0,0,0,0,0,0,0,0,0,0,0,0,0,0,0,0,0,0,0,0,0,0,0,0,0,0,0,0,0,0,0,0,0,0,0,0,0,0,0,0]},{"label":1,"pixels":[0,0,0,0,0,0,0,0,0,0,0,0,0,0,0,0,0,0,0,0,0,0,0,0,0,0,0,0,0,0,0,0,0,0,0,0,0,0,0,0,0,0,0,0,0,0,0,0,0,0,0,0,0,0,0,0,0,0,0,0,0,0,0,0,0,0,0,0,0,0,0,0,0,0,0,0,0,0,0,0,0,0,0,0,0,0,0,0,0,0,0,0,0,0,0,0,0,0,0,0,0,0,0,0,0,0,0,0,0,0,0,0,0,0,0,0,0,0,0,0,0,0,0,0,0,0,0,0,0,0,0,0,0,0,0,0,0,0,0,0,0,0,0,0,0.19,0.69,0.07,0,0.06,0.73,0.76,0.76,0.76,0.76,0.76,0.76,0.76,0.76,0.76,0.76,0.76,0.76,0.73,0.41,0,0,0,0,0,0,0,0,0.75,0.98,0.8,0.78,0.8,0.99,1,1,1,1,1,1,1,1,1,1,1,1,0.99,0.81,0,0,0,0,0,0,0,0,0.88,1,1,1,1,1,0.33,0.2,0.2,0.2,0.2,0.2,0.2,0.2,0.2,0.2,0.2,0.27,1,0.88,0,0,0,0,0,0,0,0,0.88,1,0.25,0.17,0.17,0.17,0.03,0,0,0,0,0,0,0,0,0,0,0.09,1,0.88,0,0,0,0,0,0,0,0,0.88,1,0.09,0,0,0,0,0,0,0,0,0,0,0,0,0,0,0.09,1,0.88,0,0,0,0,0,0,0,0,0.88,1,0.09,0,0,0,0,0,0,0,0,0,0,0,0,0,0,0.09,1,0.88,0,0,0,0,0,0,0,0,0.88,1,0.15,0,0,0,0,0,0,0,0,0,0,0,0,0,0,0.09,1,0.88,0,0,0,0,0,0,0,0,0.88,1,0.93,0.07,0,0,0,0,0,0,0,0,0,0,0,0,0,0.09,1,0.88,0,0,0,0,0,0,0,0,0.41,0.95,1,0.08,0,0,0,0,0,0,0,0,0,0,0,0,0,0.09,1,0.88,0,0,0,0,0,0,0,0,0.02,0.9,1,0.08,0,0,0,0,0,0,0,0,0,0,0,0,0,0.09,1,0.88,0,0,0,0,0,0,0,0,0,0.89,1,0.08,0,0,0,0,0,0,0,0,0,0,0,0,0,0.09,1,0.88,0,0,0,0,0,0,0,0,0,0.89,1,0.98,0.07,0,0,0,0,0,0,0,0,0,0,0,0,0.09,1,0.88,0,0,0,0,0,0,0,0,0,0.89,1,1,0.07,0,0,0,0,0,0,0,0,0,0,0,0,0.09,1,0.88,0,0,0,0,0,0,0,0,0,0.87,1,1,0.07,0,0,0,0,0,0,0,0.02,0.05,0.05,0.05,0.05,0.14,1,0.88,0,0,0,0,0,0,0,0,0,0.42,0.95,1,0.14,0.07,0.07,0.07,0.07,0.07,0.07,0.08,0.55,1,1,1,1,1,1,0.88,0,0,0,0,0,0,0,0,0,0,0.91,1,1,1,1,1,1,1,1,1,1,1,0.95,0.91,0.91,0.91,0.91,0.8,0,0,0,0,0,0,0,0,0,0,0.8,0.89,0.89,0.89,0.89,0.89,0.89,0.89,0.89,0.89,0.89,0.87,0.42,0,0,0,0,0,0,0,0,0,0,0,0,0,0,0,0,0,0,0,0,0,0,0,0,0,0,0,0,0,0,0,0,0,0,0,0,0,0,0,0,0,0,0,0,0,0,0,0,0,0,0,0,0,0,0,0,0,0,0,0,0,0,0,0,0,0,0,0,0,0,0,0,0,0,0,0,0,0,0,0,0,0,0,0,0,0,0,0,0,0,0,0,0,0,0,0,0,0,0,0,0,0,0,0,0,0,0,0,0,0,0,0,0,0,0,0,0,0,0,0,0,0,0,0,0,0,0,0,0,0,0,0,0,0,0,0,0,0,0,0,0,0,0,0,0,0,0,0,0,0,0,0,0,0,0,0,0,0,0,0,0,0,0,0,0,0,0,0,0,0,0,0,0,0,0,0,0]},{"label":0,"pixels":[0,0,0,0,0,0,0,0,0,0,0,0,0,0,0,0,0,0,0,0,0,0,0,0,0,0,0,0,0,0,0,0,0,0,0,0,0,0,0,0,0,0,0,0,0,0,0,0,0,0,0,0,0,0,0,0,0,0,0,0,0,0,0,0,0,0,0,0,0,0,0,0,0,0,0,0,0,0,0,0,0,0,0,0,0,0,0,0,0,0,0,0,0,0,0,0,0,0,0,0,0,0,0,0,0,0,0,0,0,0,0,0,0,0,0,0,0,0,0.03,0.14,0.56,1,1,1,1,1,1,1,0.69,0.46,0.14,0.01,0,0,0,0,0,0,0,0,0,0,0,0,0,0.01,0.58,0.94,1,1,1,1,1,1,1,1,1,1,0.93,0.5,0.03,0,0,0,0,0,0,0,0,0,0,0,0,0.7,1,1,1,1,1,1,1,1,1,1,1,1,1,1,0.6,0.03,0,0,0,0,0,0,0,0,0,0,0.16,1,1,1,0.99,0.91,0.55,0.45,0.45,0.45,0.53,0.89,0.89,0.99,1,1,1,0.44,0,0,0,0,0,0,0,0,0,0,0.67,1,1,1,0.54,0.06,0,0,0,0,0,0,0,0.56,0.86,1,1,1,0.44,0,0,0,0,0,0,0,0,0,0.7,1,1,0.88,0,0,0,0,0,0,0,0,0,0.02,0.38,0.97,1,1,1,0.42,0,0,0,0,0,0,0,0,0.84,1,1,0.27,0,0,0,0,0,0,0,0,0,0,0,0.86,1,1,1,0.67,0,0,0,0,0,0,0,0,0.84,1,1,0.27,0,0,0,0,0,0,0,0,0,0,0,0,0.73,1,1,0.73,0,0,0,0,0,0,0,0,0.84,1,1,0.27,0,0,0,0,0,0,0,0,0,0,0,0,0.27,1,1,0.84,0,0,0,0,0,0,0,0,0.82,1,1,0.51,0,0,0,0,0,0,0,0,0,0,0,0,0.27,1,1,0.84,0,0,0,0,0,0,0,0,0.67,1,1,0.91,0,0,0,0,0,0,0,0,0,0,0,0,0.27,1,1,0.84,0,0,0,0,0,0,0,0,0.58,1,1,1,0.06,0,0,0,0,0,0,0,0,0,0,0,0.27,1,1,0.84,0,0,0,0,0,0,0,0,0.24,1,1,1,0.75,0,0,0,0,0,0,0,0,0,0,0,0.35,1,1,0.71,0,0,0,0,0,0,0,0,0,0.9,1,1,0.94,0.09,0,0,0,0,0,0,0,0,0.01,0.22,1,1,1,0.67,0,0,0,0,0,0,0,0,0,0.32,1,1,0.99,0.72,0.22,0,0,0,0,0,0.25,0.55,0.6,0.94,1,1,1,0.58,0,0,0,0,0,0,0,0,0,0.03,0.96,1,1,1,0.93,0.89,0.89,0.89,0.89,0.89,0.94,0.99,1,1,1,1,0.97,0.05,0,0,0,0,0,0,0,0,0,0,0.38,1,1,1,1,1,1,1,1,1,1,1,1,1,0.99,0.85,0.02,0,0,0,0,0,0,0,0,0,0,0,0.18,0.74,1,1,1,1,1,1,1,1,1,1,0.97,0.7,0.45,0.15,0,0,0,0,0,0,0,0,0,0,0,0,0,0.08,0.16,0.16,0.45,1,1,1,0.16,0.16,0.16,0.16,0.15,0.07,0,0,0,0,0,0,0,0,0,0,0,0,0,0,0,0,0,0,0,0,0,0,0,0,0,0,0,0,0,0,0,0,0,0,0,0,0,0,0,0,0,0,0,0,0,0,0,0,0,0,0,0,0,0,0,0,0,0,0,0,0,0,0,0,0,0,0,0,0,0,0,0,0,0,0,0,0,0,0,0,0,0,0,0,0,0,0,0,0,0,0,0,0,0,0,0,0,0,0,0,0,0,0,0,0,0,0,0,0,0,0,0,0,0,0,0,0,0,0,0,0,0,0,0,0,0,0,0,0,0,0,0,0,0,0,0,0,0,0,0,0,0,0,0,0,0,0,0]},{"label":2,"pixels":[0,0,0,0,0,0,0,0,0,0,0,0,0,0,0,0,0,0,0,0,0,0,0,0,0,0,0,0,0,0,0,0,0,0,0,0,0,0,0,0,0,0,0,0,0,0,0,0,0,0,0,0,0,0,0,0,0,0,0,0,0,0,0,0,0,0,0,0,0,0,0,0,0,0,0,0,0,0,0,0,0,0,0,0,0,0,0,0,0,0,0,0,0,0,0,0,0,0,0,0,0,0,0,0,0,0,0,0,0,0,0,0,0,0,0,0,0,0,0,0,0.64,1,0.58,0.09,0,0,0,0,0,0,0,0,0,0,0,0,0,0,0,0,0,0,0,0,0,0,0,0,1,1,1,0.81,0.05,0,0,0,0,0,0,0,0,0,0,0,0,0,0,0,0,0,0,0,0,0,0,0,1,1,1,1,0.94,0.17,0,0,0,0,0,0,0,0,0,0,0,0,0,0,0,0,0,0,0,0,0,0.04,1,1,0.99,1,1,1,0.29,0,0,0,0,0,0,0,0,0,0,0,0,0,0,0,0,0,0,0,0,0.5,1,1,0.28,0.7,1,1,1,0.56,0.02,0,0,0,0,0,0,0,0,0,0,0,0,0,0,0,0,0,0,0.81,1,0.99,0.16,0.02,0.27,1,1,1,0.75,0,0,0,0,0,0,0,0,0,0,0,0,0,0,0,0,0,0.11,1,1,0.84,0,0,0,0.31,1,1,1,0.69,0,0,0,0,0,0,0,0,0,0,0,0,0,0,0,0,0.97,1,1,0,0,0,0,0,0.31,0.96,1,1,0.62,0.01,0,0,0,0,0,0,0,0,0,0,0,0,0,0.17,0.99,1,0.67,0,0,0,0,0,0,0.13,0.97,1,1,0.45,0,0,0,0,0,0,0,0,0,0,0,0,0,0.28,1,1,0.51,0,0,0,0,0,0,0,0.21,1,1,1,0.33,0,0,0,0,0,0,0,0,0,0,0,0,0.69,1,1,0.05,0,0,0,0,0,0,0,0,0.29,1,1,1,0.32,0,0,0,0,0,0,0,0,0,0,0,1,1,0.94,0,0,0,0,0,0,0,0,0,0,0.27,0.99,