window.PRETRAINED_WEIGHTS = {"config":{"inputSize":28,"numClasses":3,"convLayers":1,"numFilters":6,"filterSize":3,"learningRate":0.02,"epochs":12},"layers":[{"type":"Conv2D","inChannels":1,"numFilters":6,"fSize":3,"W":[[[[0.2379656732082367,0.7978019714355469,0.6652088165283203],[-0.5337649583816528,-0.46992579102516174,-0.2640003561973572],[0.20466944575309753,0.08286873996257782,-0.4510359764099121]]],[[[0.7172033190727234,0.18235819041728973,0.002185863209888339],[0.6425948143005371,-0.32320329546928406,-0.2291078418493271],[0.5425248146057129,0.2976880967617035,-0.756939709186554]]],[[[-0.8249502182006836,-0.33047428727149963,-0.09043794870376587],[0.3739781081676483,-0.6728382706642151,-0.37889760732650757],[0.8556692004203796,0.8021861910820007,0.6128503084182739]]],[[[0.1334560066461563,0.29272010922431946,0.34622296690940857],[0.5933422446250916,-0.02611701190471649,0.10913386195898056],[0.5640045404434204,0.38907894492149353,-0.2712479829788208]]],[[[-0.005088442005217075,0.36057478189468384,0.9559246897697449],[-0.2979898154735565,-0.5374333262443542,-0.16129674017429352],[0.4621818959712982,-0.40902283787727356,-0.5285388231277466]]],[[[0.02352098748087883,-0.5353298187255859,-0.47370848059654236],[-0.03368009626865387,0.012111641466617584,0.24326634407043457],[0.2061661332845688,0.5928427577018738,0.22964785993099213]]]],"b":[0.0651337206363678,0.02053995616734028,0.10099194198846817,-0.09623363614082336,0.19659456610679626,0.03339288756251335]},{"type":"ReLU"},{"type":"MaxPool2D","size":2},{"type":"Flatten"},{"type":"Dense","inDim":1014,"outDim":3,"W":[[-0.027381867170333862,-0.04571911692619324,0.01902581751346588,-0.014258185401558876,-0.03573532775044441,-0.03772635757923126,0.025527244433760643,0.0392950102686882,0.019508160650730133,0.01569804921746254,0.03838363662362099,-0.01897979900240898,-0.03234246373176575,0.04050499573349953,0.01337332371622324,-0.00454941438511014,-0.03593553602695465,-0.010308829136192799,-0.032445862889289856,-0.0008439517114311457,0.0633063018321991,0.07387669384479523,0.0603511743247509,0.003866196610033512,-0.001615155953913927,0.021638330072164536,0.009945244528353214,-0.0344574898481369,-0.0002287575916852802,-0.10521508753299713,-0.05633392930030823,0.014162183739244938,-0.1250256597995758,0.023618200793862343,0.11055948585271835,0.006371351424604654,-0.009606686420738697,0.004301075357943773,0.02339903451502323,0.025923751294612885,-0.030890492722392082,-0.050576966255903244,-0.08156082779169083,-0.1283598393201828,-0.09424728900194168,-0.028833962976932526,0.019340544939041138,-0.08617500215768814,0.08649533241987228,-0.00044472876470535994,0.02680875174701214,0.011767449788749218,0.03863809257745743,0.009284863248467445,0.032138653099536896,0.02415582723915577,-0.06999211758375168,0.05449866130948067,-0.03203848749399185,0.00853844452649355,0.05212543532252312,-0.04578845202922821,0.05130259692668915,-0.043454717844724655,0.020246122032403946,-0.00829270388931036,0.02206370420753956,0.051947399973869324,0.013551306910812855,-0.024161363020539284,-0.0697895735502243,-0.025840984657406807,-0.01147322729229927,-0.013123407028615475,0.0013216122752055526,-0.12298603355884552,-0.03394211456179619,-0.016864756122231483,0.013277591206133366,0.06580937653779984,-0.051217857748270035,0.022436751052737236,0.043618831783533096,0.06824193149805069,-0.0148754408583045,0.051701124757528305,-0.02141452580690384,0.021994445472955704,-0.0012352485209703445,0.027246888726949692,0.002182192401960492,0.04006637632846832,0.05308856442570686,-0.09914650022983551,-0.029168905690312386,-0.057691942900419235,0.10000075399875641,0.05987120419740677,-0.06243588775396347,-0.14065396785736084,-0.07656853646039963,-0.08012678474187851,-0.035032499581575394,0.0015314462361857295,0.010114477947354317,0.11154095828533173,0.011603225022554398,-0.11505163460969925,-0.09156336635351181,-0.1108986958861351,0.029925307258963585,0.050340186804533005,0.21505454182624817,0.08877995610237122,0.19183412194252014,0.10510869324207306,-0.02227412909269333,-0.0022563235834240913,0.14250093698501587,0.32504695653915405,0.1314266473054886,-0.02076154761016369,-0.05530158430337906,-0.08082348108291626,-0.0399322435259819,-0.2220482975244522,-0.012528356164693832,-0.07982577383518219,-0.0022281731944531202,-0.009627707302570343,0.023135431110858917,-0.09253707528114319,-0.05751395225524902,0.08350622653961182,-0.026274532079696655,-0.0429912768304348,-0.08400740474462509,-0.049069568514823914,0.07745436578989029,0.031748343259096146,-0.18036574125289917,-0.02594129368662834,0.0108643164858222,0.0054450007155537605,-0.026134707033634186,-0.1262047290802002,-0.00005273712667985819,0.017924997955560684,0.03454846143722534,0.0719359815120697,0.06150096282362938,-0.058827828615903854,-0.08533304929733276,-0.03611759841442108,-0.03906751051545143,-0.013739300891757011,0.018180212005972862,-0.016558431088924408,0.033279918134212494,-0.008673378266394138,-0.03942990303039551,0.031144924461841583,0.038917869329452515,-0.04585907980799675,-0.00533949863165617,0.037958595901727676,0.01859995163977146,-0.023326309397816658,-0.043635353446006775,-0.010935516096651554,0.03586826100945473,-0.04298371449112892,-0.01122298277914524,0.015891792252659798,0.04150936380028725,-0.031964413821697235,0.04321696609258652,-0.020324962213635445,0.03475486859679222,0.0046790605410933495,-0.0032684053294360638,-0.03755287081003189,0.03712848573923111,-0.0012026391923427582,0.018686218187212944,-0.0491497628390789,0.011523373425006866,-0.019208161160349846,0.034526526927948,0.130705326795578,0.07323421537876129,0.05142300948500633,-0.06629198789596558,-0.09153108298778534,0.001441584900021553,0.038542333990335464,0.03387365862727165,-0.16450582444667816,-0.054347023367881775,-0.0027133189141750336,0.08857882022857666,-0.029025781899690628,0.007588301319628954,0.046142447739839554,-0.04139670729637146,-0.0696726143360138,-0.1022784486413002,-0.03812823444604874,0.036839909851551056,0.0322214774787426,-0.1612614244222641,0.027686825022101402,-0.08563625067472458,-0.027384204789996147,0.04580826684832573,-0.04600529372692108,0.05858467519283295,-0.07289940863847733,0.044852644205093384,0.0770680233836174,-0.029773224145174026,-0.038828227669000626,-0.03212254121899605,-0.00162039278075099,0.021019142121076584,-0.18943685293197632,0.07195250689983368,-0.0219405684620142,-0.04870433360338211,0.0003779281978495419,0.011551846750080585,-0.06501912325620651,0.1543334573507309,-0.02135566808283329,0.0005943591240793467,-0.012146434746682644,0.04198575019836426,-0.10607216507196426,-0.11989770829677582,0.11186248809099197,0.12113168835639954,-0.056163981556892395,-0.12393663078546524,-0.01425716932862997,-0.042465414851903915,0.12625360488891602,-0.051423393189907074,-0.039131734520196915,0.03999806568026543,-0.07235884666442871,0.030553163960576057,-0.09325223416090012,-0.06679168343544006,0.12703843414783478,-0.0021842517890036106,0.0022635299246758223,-0.06831933557987213,-0.0927402451634407,0.2570185661315918,-0.004823585972189903,0.021563822403550148,0.00018942375027108938,-0.017315516248345375,0.09874029457569122,-0.10027828067541122,-0.14847980439662933,-0.031236078590154648,-0.021069630980491638,-0.12395832687616348,-0.1701783835887909,0.1357288956642151,0.2844550609588623,-0.052838657051324844,0.031168602406978607,-0.04458542913198471,0.04219894856214523,0.05104701966047287,0.1629825085401535,-0.09741310030221939,-0.12779198586940765,0.04874817281961441,-0.018503475934267044,0.009657584130764008,0.17062124609947205,0.16921864449977875,0.03401464223861694,-0.004404890816658735,0.007466309238225222,-0.05054834485054016,0.003360833739861846,0.03196253627538681,-0.04569021984934807,-0.0589175708591938,-0.018073616549372673,-0.04745137318968773,0.05399040877819061,0.03665165230631828,-0.15668857097625732,-0.03921152651309967,0.008513400331139565,-0.01343743409961462,-0.15114034712314606,-0.14542557299137115,-0.07523448765277863,-0.022478194907307625,0.03283916786313057,0.003782866057008505,0.07732966542243958,0.12888281047344208,-0.06979738920927048,-0.11602204293012619,-0.013994595967233181,0.04264608025550842,0.032998453825712204,-0.04859018698334694,-0.0913604199886322,-0.057705651968717575,0.03770691901445389,0.07672948390245438,0.0556214340031147,0.007376456167548895,-0.04874253273010254,-0.0604933500289917,-0.016510656103491783,0.02944299578666687,-0.022049520164728165,-0.02825821191072464,0.030643850564956665,-0.0289068054407835,0.001224991399794817,0.018016742542386055,0.030276896432042122,0.02853233553469181,0.016522305086255074,-0.025527000427246094,0.028227971866726875,0.030839107930660248,0.02945241704583168,-0.0404246486723423,0.03762282431125641,0.001551179913803935,0.015772467479109764,0.01889793574810028,-0.004718449432402849,0.028093215078115463,0.005942714400589466,-0.03711964562535286,0.0389673188328743,0.0035815113224089146,-0.001486647641286254,0.03447163105010986,-0.03036159835755825,-0.05358880013227463,-0.1926680952310562,-0.09838417917490005,0.004549855832010508,0.11965006589889526,0.162604421377182,0.05026467889547348,0.08343091607093811,-0.017506100237369537,-0.11231283098459244,-0.07182284444570541,0.0032113175839185715,-0.04592450335621834,-0.08091285824775696,-0.06248568743467331,-0.018498707562685013,-0.06768524646759033,-0.30395397543907166,-0.3748084306716919,-0.13678571581840515,0.09987236559391022,0.24356989562511444,0.08693939447402954,-0.025744203478097916,0.00931554939597845,-0.031046481803059578,0.07228542119264603,0.1325031965970993,-0.0821789801120758,-0.04081166908144951,-0.10430629551410675,-0.1541529893875122,-0.1933468133211136,-0.12000501155853271,0.04589803144335747,0.20416642725467682,0.09632772207260132,0.039757728576660156,0.03876321762800217,0.09452199190855026,-0.02200080268085003,-0.08583703637123108,0.00031824997859075665,0.12426283210515976,0.02429446578025818,-0.08185513317584991,-0.09094379842281342,-0.05788961797952652,0.01875743269920349,0.09382209181785583,-0.0414200983941555,-0.01969599537551403,0.03292705491185188,0.04173118621110916,-0.060987576842308044,0.013660314492881298,0.10026387870311737,0.04928750544786453,-0.016171418130397797,-0.021244017407298088,-0.0032175076194107533,0.03908532112836838,-0.024523142725229263,-0.0215932484716177,0.019978882744908333,-0.004967777524143457,-0.013320335187017918,0.1373767852783203,-0.06893837451934814,-0.21181315183639526,0.0751299113035202,0.02242780104279518,-0.03389829397201538,-0.10355226695537567,0.045534439384937286,0.15940628945827484,-0.04155675694346428,-0.005166701506823301,0.004424708429723978,-0.0005411304300650954,0.062413014471530914,0.22246208786964417,-0.0570002943277359,-0.11203283071517944,0.14427651464939117,0.1407729834318161,0.13355249166488647,-0.01999713107943535,0.009069361723959446,0.027900028973817825,0.00235145166516304,-0.03536259010434151,0.04160202667117119,-0.054492685943841934,0.26478391885757446,0.07486673444509506,-0.0818263590335846,-0.017459005117416382,-0.04219750314950943,0.06193138659000397,-0.00730265723541379,-0.1711639016866684,0.036516886204481125,-0.042662736028432846,-0.02440543845295906,-0.07752703130245209,-0.27436602115631104,-0.08661895245313644,0.03941302374005318,-0.08534162491559982,-0.1038542091846466,0.07924405485391617,-0.03149872273206711,-0.18436697125434875,-0.023951372131705284,0.02338469587266445,0.039156749844551086,0.0380166731774807,-0.0366876982152462,-0.17059333622455597,-0.07232982665300369,-0.06710228323936462,-0.052456241101026535,-0.07846064865589142,-0.08157575875520706,-0.041906971484422684,-0.053212814033031464,-0.03068951703608036,-0.012456553988158703,0.01585318148136139,-0.040421612560749054,-0.027533521875739098,0.03798968344926834,-0.03305802494287491,-0.003880205564200878,-0.015725715085864067,0.0422917865216732,-0.007225219625979662,0.0038398713804781437,0.03969423845410347,0.030481044203042984,-0.03585870563983917,0.029717786237597466,-0.04190719872713089,0.036506328731775284,-0.01629171147942543,0.006458734627813101,0.013617284595966339,0.017885901033878326,-0.00009503265027888119,0.0010644999565556645,0.03598614037036896,-0.013114104978740215,0.021681567654013634,0.0009660495561547577,0.032019175589084625,0.014117755927145481,-0.006373051553964615,0.02808547019958496,0.04207392409443855,0.028759488835930824,-0.01611757092177868,0.009475180879235268,0.03958766907453537,0.013033444993197918,0.018501676619052887,-0.009743569418787956,0.02311183325946331,0.03988653048872948,-0.032121870666742325,-0.036610931158065796,-0.04920056834816933,0.02814239077270031,0.04470529407262802,0.07048587501049042,0.08104900270700455,0.06798413395881653,-0.042611777782440186,-0.018076803535223007,-0.09394115209579468,-0.01233617402613163,0.007425729651004076,-0.06438257545232773,-0.15794414281845093,-0.005269655957818031,-0.04305582121014595,0.022776799276471138,0.0494423434138298,0.12124647945165634,0.02819879911839962,-0.03333209455013275,-0.04461134597659111,-0.007612848188728094,-0.009767461568117142,-0.04345880076289177,-0.007994065061211586,-0.05760277807712555,0.06261155754327774,-0.035559192299842834,-0.08749505877494812,0.0008308653486892581,0.048245031386613846,0.12774772942066193,0.08344017714262009,0.08469624817371368,0.03761579841375351,0.028831031173467636,0.040425702929496765,-0.009555592201650143,0.10700759291648865,0.010142320767045021,-0.14834286272525787,0.1606038212776184,-0.014884505420923233,-0.03773108869791031,-0.02079816721379757,0.06836305558681488,-0.015428039245307446,0.03780919685959816,-0.029110120609402657,-0.04183492437005043,0.08446569740772247,0.07418966293334961,-0.08931241184473038,-0.03411661460995674,0.11525031924247742,0.025372255593538284,-0.03951182961463928,-0.053116325289011,0.05650434270501137,0.01886575110256672,0.11038719117641449,0.012084207497537136,0.008846498094499111,0.039558909833431244,-0.005720171611756086,0.05371108651161194,0.03708444535732269,-0.12562163174152374,0.08850262314081192,0.02451212890446186,-0.13709889352321625,-0.0513211265206337,0.03712601959705353,0.20549921691417694,-0.0014283765340223908,0.034410811960697174,0.04252982512116432,0.07214444875717163,0.09989932179450989,-0.057901717722415924,-0.06946209818124771,-0.06225890666246414,-0.03825586289167404,-0.012599530629813671,0.0035351100377738476,0.18279734253883362,0.17338070273399353,-0.016390249133110046,-0.01638777367770672,-0.029279032722115517,0.09703218936920166,0.07865472882986069,0.07561802864074707,-0.1137949749827385,0.00021350551105570048,0.12294735759496689,-0.01397339440882206,0.04918067157268524,0.13745488226413727,-0.03860087692737579,0.0048111421056091785,-0.037416983395814896,-0.03752601519227028,-0.13450747728347778,-0.013395345769822598,-0.03069905750453472,0.03395525738596916,-0.0170010793954134,0.017725244164466858,0.03659150376915932,0.052300263196229935,0.008645589463412762,-0.1991114318370819,0.017515195533633232,0.008554850704967976,-0.048863064497709274,-0.14707738161087036,-0.0951174646615982,-0.060109011828899384,0.05813395231962204,0.0706525519490242,0.11708703637123108,0.07990263402462006,0.013120797462761402,-0.20114532113075256,-0.07308590412139893,-0.03833611682057381,0.03458257019519806,-0.03526851162314415,-0.07875216752290726,-0.019362011924386024,-0.0041473931632936,0.03750995919108391,0.02272120490670204,-0.009738214313983917,-0.009770886972546577,-0.07912241667509079,-0.027956072241067886,-0.01718253828585148,0.04157201200723648,-0.02556103840470314,-0.022918831557035446,0.010858841240406036,0.02442326955497265,0.04121129587292671,0.031204551458358765,0.01864657923579216,0.042483314871788025,-0.028807977214455605,0.003341055242344737,0.024285176768898964,-0.021903570741415024,-0.034243181347846985,-0.007910048589110374,-0.023257749155163765,-0.04642344266176224,-0.02133960649371147,-0.010028662160038948,-0.023458153009414673,0.016058266162872314,0.009920008480548859,0.022935647517442703,0.02997567504644394,-0.02521923929452896,-0.03743901476264,0.009369361214339733,-0.04913966730237007,-0.020408684387803078,-0.013085123151540756,-0.011957818642258644,-0.04666439816355705,-0.054283253848552704,-0.023418229073286057,0.06686487793922424,0.027683701366186142,0.014982564374804497,-0.009174308739602566,-0.031077666208148003,0.0003762936976272613,-0.00865807756781578,-0.03823646157979965,-0.036475591361522675,-0.03900817781686783,-0.03923514485359192,0.007754237856715918,-0.12588883936405182,-0.011830936186015606,0.05353587865829468,-0.011388729326426983,0.033309392631053925,-0.011042218655347824,0.01641993410885334,0.01520818192511797,-0.037540778517723083,-0.0656050369143486,-0.12168856710195541,-0.12388376146554947,-0.13243432343006134,-0.014654734171926975,-0.009694415144622326,-0.05539592728018761,0.055594708770513535,0.09021160006523132,0.047359615564346313,0.003927768673747778,-0.015892740339040756,-0.034908901900053024,-0.015438304282724857,-0.015156851150095463,-0.11170545965433121,-0.08671026676893234,-0.0010883663780987263,0.0751098096370697,0.04308674484491348,0.07545778900384903,-0.050269730389118195,-0.00007656055822735652,-0.01770561933517456,-0.018836796283721924,-0.1184370145201683,-0.07287469506263733,0.015597234480082989,0.05347256362438202,-0.09594426304101944,-0.03205632045865059,-0.009498486295342445,-0.003335533896461129,-0.07597926259040833,-0.015496233478188515,-0.037352465093135834,-0.010508942417800426,-0.009266874752938747,0.05450383201241493,-0.08315951377153397,-0.000250403507379815,0.12894313037395477,0.009972539730370045,-0.02166055142879486,0.006517283618450165,0.019112126901745796,0.041972801089286804,-0.05102704092860222,-0.013705572113394737,0.026202626526355743,0.0008871624013409019,0.024232909083366394,-0.06136041507124901,-0.02463984489440918,-0.04113971069455147,0.08793508261442184,0.06191224604845047,-0.07668484002351761,-0.14070208370685577,-0.05000785365700722,-0.10981940478086472,-0.006326620001345873,-0.047868918627500534,-0.003777454374358058,0.1686362624168396,-0.02869308553636074,-0.04225625470280647,-0.07857920229434967,-0.1305217742919922,0.04584357514977455,0.05530781298875809,0.15765467286109924,0.03303985297679901,0.11217692494392395,-0.02891809120774269,-0.020711809396743774,-0.038010627031326294,0.18474629521369934,0.21197345852851868,0.07585902512073517,-0.042930714786052704,-0.10060197114944458,-0.033354442566633224,-0.08167155086994171,-0.21885672211647034,-0.06319670379161835,-0.11751310527324677,-0.004773713648319244,-0.0051992908120155334,0.02334328554570675,-0.11579110473394394,0.015718720853328705,0.08078653365373611,-0.0012162311468273401,-0.10536789894104004,-0.10171892493963242,-0.05778830498456955,0.11049751937389374,-0.06473103910684586,-0.11393366754055023,0.03032604791224003,-0.042939264327287674,0.02391553297638893,-0.08128760755062103,-0.09415511786937714,-0.03259209543466568,0.06409074366092682,0.03436155244708061,0.05870945006608963,0.038283299654722214,-0.09691615402698517,-0.10150179266929626,-0.027636926621198654,0.00007228367758216336,-0.033679064363241196,-0.007823639549314976,0.013012726791203022,0.029611030593514442,0.02900509163737297,0.0017853645840659738,0.011579673737287521,0.016447411850094795,0.018005186691880226,0.033625684678554535,0.026797037571668625,0.03616807237267494,0.011250905692577362,-0.01580333523452282,-0.012355857528746128,-0.006665830500423908,-0.030677709728479385,0.031256403774023056,-0.013707738369703293,0.0428105965256691,-0.0035320655442774296,-0.0259613785892725,-0.028827566653490067,0.028820106759667397,0.018194148316979408,0.03859863802790642,-0.009530872106552124,0.038504861295223236,-0.03252943977713585,-0.14000573754310608,0.054880037903785706,0.03877876326441765,0.03169615566730499,0.10774391144514084,0.02211029827594757,-0.042326420545578,-0.06393507122993469,-0.08888475596904755,-0.06863465905189514,0.03136739507317543,-0.03284214064478874,-0.12802202999591827,0.026277530938386917,-0.010521430522203445,-0.13489744067192078,-0.1857358068227768,-0.12999960780143738,-0.05449070781469345,0.0503867082297802,0.07986188679933548,-0.008714207448065281,0.05249140411615372,0.04185718670487404,0.03845646604895592,0.05158683657646179,0.09605946391820908,-0.03512131795287132,-0.1358320266008377,-0.05410924553871155,-0.09883376955986023,-0.0314456932246685,0.03059469722211361,0.07884956151247025,0.10105474293231964,0.034682754427194595,0.04527311027050018,0.027408340945839882,0.05027102679014206,-0.017823351547122,-0.17510895431041718,0.07131633162498474,0.0771353542804718,-0.07411153614521027,0.001544344355352223,0.010819420218467712,-0.020640984177589417,0.016776936128735542,0.00861639529466629,0.01723012514412403,-0.018238874152302742,0.06583791226148605,-0.07349008321762085,0.0771002545952797,0.07140935212373734,0.05148130655288696,0.021486690267920494,-0.11727990955114365,-0.042428527027368546,0.004529265686869621,0.0589134581387043,-0.017467809841036797,-0.007494423072785139,-0.037265803664922714,-0.08053284883499146,0.03845154494047165,0.10780185461044312,-0.11668243259191513,-0.06388441473245621,-0.027012968435883522,-0.05307385325431824,-0.016779206693172455,0.015314227901399136,-0.013184900395572186,0.049990396946668625,0.025179123505949974,0.022288117557764053,-0.020954353734850883,0.00342142884619534,0.11826024204492569,0.08206689357757568,-0.08021436631679535,0.027995657175779343,0.017835333943367004,0.03241477534174919,0.032563988119363785,0.06610781699419022,-0.00002361032420594711,-0.020656069740653038,-0.024762749671936035,-0.015359867364168167,-0.05313719063997269,0.11125969141721725,0.08838208019733429,-0.004059577360749245,-0.10231441259384155,-0.006853059865534306,-0.00875961221754551,0.12275513261556625,-0.06002730503678322,-0.021460292860865593,-0.034361034631729126,0.011749316938221455,0.013927344232797623,-0.0428047776222229,-0.08822443336248398,-0.01596875488758087,0.01676934026181698,0.018813835456967354,0.03840561583638191,0.020348500460386276,-0.10995562374591827,-0.01599249057471752,-0.05264468491077423,-0.02194409817457199,0.043892428278923035,-0.0187586210668087,-0.029718786478042603,-0.08223412930965424,-0.019558601081371307,-0.047884535044431686,-0.032786715775728226,-0.037642702460289,-0.07261046767234802,-0.05495447665452957,-0.013082429766654968,-0.008822469040751457,0.01640624925494194,-0.03280206397175789,0.03291108459234238,0.03720325604081154,-0.0421319343149662,0.04336106777191162,-0.041910089552402496,0.03766409680247307,-0.017697475850582123,0.0052468180656433105,0.008006492629647255,0.03442253917455673,0.03745448961853981,-0.030233625322580338,-0.041592299938201904,0.04171757772564888,0.04301774501800537,0.017511194571852684,-0.004448068793863058,0.03834664449095726,0.029150549322366714,-0.034496650099754333,-0.016758963465690613,-0.019329799339175224,0.028514467179775238,-0.018376661464571953,0.041923414915800095],[0.027918512001633644,0.03138209134340286,0.005434155929833651,0.026328200474381447,-0.03090711310505867,0.027054639533162117,-0.006291242316365242,0.036188285797834396,-0.04217110574245453,-0.009466148912906647,-0.017016200348734856,0.032066475600004196,0.023384999483823776,-0.003144219983369112,0.007953272201120853,0.02693384885787964,-0.02209009975194931,-0.04446100443601608,0.028501594439148903,0.018130168318748474,-0.05460107699036598,-0.09439920634031296,0.02994718961417675,0.04565665125846863,-0.004978813696652651,0.042588040232658386,-0.0003834469825960696,-0.00017268522060476243,0.08049187809228897,0.08685503154993057,0.05436014011502266,0.02392229065299034,0.1299845576286316,0.06665068119764328,-0.03475789725780487,-0.018852243199944496,0.05490146204829216,0.028583791106939316,-0.03484535217285156,0.03342750668525696,0.03622565045952797,0.05226479470729828,0.16697046160697937,0.06667307019233704,0.13265040516853333,0.06111665442585945,0.03689825162291527,0.18623659014701843,-0.04812639579176903,0.03011636808514595,-0.05184605345129967,0.010221806354820728,-0.03225437551736832,0.014632640406489372,-0.005395872052758932,0.06793461740016937,0.005017722491174936,0.0356886088848114,0.07105457782745361,0.0400143638253212,-0.03948115557432175,0.08688471466302872,-0.06351841241121292,-0.007747707888484001,-0.007469380274415016,0.038581762462854385,0.044931549578905106,-0.028286922723054886,-0.06282202899456024,0.04771855100989342,-0.05158870294690132,-0.17904621362686157,-0.05049167945981026,-0.11249589174985886,-0.028507834300398827,0.09085236489772797,0.0041478597559034824,0.021597377955913544,-0.0008472711779177189,-0.03048361837863922,0.09077249467372894,0.018047410994768143,-0.13471242785453796,-0.07794386893510818,-0.017415326088666916,-0.1628400981426239,-0.05107708275318146,0.0016068541444838047,-0.03360169008374214,-0.02489314414560795,0.026753362268209457,0.024238569661974907,-0.04952225834131241,0.05068018287420273,0.10406123846769333,0.009721384383738041,-0.06774767488241196,-0.11205508559942245,0.004990413784980774,0.04136652126908302,0.055999547243118286,-0.06430923193693161,-0.06791548430919647,-0.02261228673160076,-0.03319893777370453,0.029248083010315895,0.02629704400897026,0.02620765008032322,-0.04383103549480438,0.019499193876981735,-0.03541301190853119,-0.15219302475452423,-0.20273354649543762,-0.15418286621570587,-0.08814474940299988,-0.06389927119016647,0.015205311588943005,0.007855456322431564,-0.09922315180301666,-0.10389740765094757,-0.13201169669628143,0.19103947281837463,0.13587774336338043,0.018535736948251724,0.06417127698659897,0.19671204686164856,-0.019335482269525528,-0.04394775629043579,-0.01770334504544735,-0.015536351129412651,0.02596547082066536,0.09744869917631149,0.004400565288960934,-0.08311629295349121,-0.02057981863617897,0.011002488434314728,0.04543899744749069,0.014973393641412258,-0.09160220623016357,0.013027753680944443,0.18888452649116516,0.05741778388619423,0.04170256108045578,-0.002655165735632181,-0.02809062972664833,0.041437067091464996,-0.05310317501425743,-0.0582314096391201,-0.1356896013021469,-0.05503091961145401,-0.0069563621655106544,0.05212244763970375,0.13950051367282867,0.03378221392631531,-0.02970477007329464,-0.02846495993435383,0.014027957804501057,0.019411476328969002,0.03409723564982414,0.011129410937428474,-0.01922266185283661,-0.007826930843293667,0.02272982709109783,-0.035710811614990234,0.012129898183047771,0.012889736331999302,0.0007890771375969052,0.017772670835256577,0.029619185253977776,-0.0016518037300556898,-0.039237651973962784,0.010659552179276943,0.042822469025850296,0.004861125256866217,-0.022838080301880836,-0.01635078154504299,0.008976797573268414,-0.01131393201649189,-0.0044869305565953255,-0.027646858245134354,0.0312427319586277,-0.007739572320133448,-0.007126816548407078,-0.022133205085992813,0.017522215843200684,-0.013463868759572506,-0.0077178324572741985,-0.04527793079614639,-0.00896594300866127,-0.0790642574429512,-0.03592173010110855,-0.0226424653083086,0.07127168774604797,0.023509060963988304,-0.02830815501511097,-0.022054309025406837,-0.03480992093682289,0.2056313008069992,0.07111747562885284,0.04711925983428955,-0.11219219118356705,-0.05953185260295868,0.1198853850364685,0.06600209325551987,0.19491435587406158,0.09484095126390457,0.1450960785150528,-0.03882025554776192,-0.036912739276885986,-0.023123541846871376,0.23116132616996765,0.045701052993535995,0.11234766989946365,0.03989742323756218,-0.022871142253279686,0.07394406199455261,0.13438262045383453,0.23365892469882965,0.12094459682703018,-0.018195562064647675,-0.03331231698393822,0.016294997185468674,-0.04138948395848274,0.03280015289783478,-0.08361183106899261,0.03850172832608223,-0.049412548542022705,0.043928276747465134,-0.036543119698762894,0.052984245121479034,0.10297773778438568,0.16434049606323242,-0.027217494323849678,0.0378664955496788,-0.03154592961072922,0.02205934002995491,0.017707163468003273,0.04770074412226677,0.13032793998718262,-0.020779239013791084,-0.1820250153541565,-0.09452731162309647,-0.13536778092384338,0.06966333091259003,0.21615222096443176,-0.12613603472709656,-0.05798473209142685,0.029636574909090996,-0.00015044209430925548,0.06272383779287338,0.023097729310393333,0.07740531116724014,0.12456163018941879,-0.21463878452777863,-0.08105826377868652,-0.008303014561533928,0.10988474637269974,0.16124506294727325,-0.15751121938228607,-0.031087150797247887,0.0160225722938776,0.00894496776163578,-0.019560588523745537,0.007014147937297821,0.007967186160385609,0.11601395905017853,-0.055248454213142395,-0.021250708028674126,0.003471352392807603,0.09494546800851822,-0.09358367323875427,-0.20636959373950958,-0.06620817631483078,-0.026350991800427437,-0.030129503458738327,-0.031659241765737534,-0.016038576140999794,-0.23596791923046112,0.05397462472319603,0.09944545477628708,0.016804499551653862,-0.10190412402153015,-0.01843155547976494,-0.13473285734653473,-0.10975280404090881,-0.03848900645971298,-0.039826005697250366,-0.0037566819228231907,0.09359726309776306,0.05765154957771301,-0.07853684574365616,0.004775429610162973,0.05368677154183388,-0.015662360936403275,-0.031013034284114838,-0.020932426676154137,-0.12090664356946945,0.10565034300088882,0.013436020351946354,-0.021399280056357384,0.030921993777155876,0.11733803153038025,0.09219884127378464,0.0049994769506156445,-0.10082288831472397,-0.060273557901382446,-0.026479139924049377,-0.06890010088682175,-0.09139825403690338,0.07991195470094681,0.11920569092035294,-0.0028848652727901936,-0.039252448827028275,0.009042802266776562,-0.012105276808142662,0.052194591611623764,-0.0027320445515215397,-0.0907498151063919,-0.04286407679319382,-0.039176587015390396,0.009361046366393566,0.09704350680112839,0.0638851597905159,0.03499739244580269,0.006971481256186962,-0.002606709022074938,0.037998832762241364,0.010265606455504894,-0.009372384287416935,0.0015998563030734658,-0.007274318020790815,0.01667879894375801,0.006404018960893154,0.029141763225197792,0.03603906184434891,-0.036187946796417236,-0.03100879304111004,0.006541385781019926,-0.006804555654525757,0.032117150723934174,-0.0005335594760254025,-0.037255533039569855,0.019779963418841362,-0.040067676454782486,0.03235555812716484,0.02451741136610508,-0.0207761712372303,-0.006923194043338299,0.040102213621139526,0.02737453579902649,-0.009392953477799892,0.03967219591140747,0.05161052942276001,0.18761898577213287,0.09642774611711502,-0.04945731908082962,-0.07580198347568512,-0.0010218546958640218,0.13065993785858154,0.1405695676803589,0.10922358930110931,0.16925957798957825,0.05575549602508545,0.023429030552506447,-0.029920144006609917,0.11537820100784302,0.17682576179504395,0.0960945263504982,0.1266494244337082,0.09057870507240295,0.2238607555627823,0.3020188808441162,-0.005756980273872614,-0.09214175492525101,0.05680755153298378,0.0317363403737545,-0.005650682840496302,-0.036656010895967484,-0.09497889876365662,-0.15530189871788025,-0.0014796886825934052,-0.011031649075448513,0.0716753602027893,-0.005740174558013678,0.2477484792470932,0.22624655067920685,0.014285234734416008,-0.0913970023393631,-0.07012410461902618,0.004239081870764494,0.023314109072089195,-0.028231551870703697,-0.054267119616270065,0.14997458457946777,-0.009163400158286095,-0.047338634729385376,-0.022290440276265144,-0.25098758935928345,-0.1689082235097885,-0.037465691566467285,-0.07222067564725876,-0.044261302798986435,-0.043598875403404236,-0.014172645285725594,0.008791359141469002,-0.015073821879923344,0.07057002931833267,0.08292604237794876,-0.071635901927948,-0.10089525580406189,-0.017186561599373817,-0.11705412715673447,0.08418184518814087,-0.10160292685031891,-0.20915648341178894,-0.0037623748648911715,0.031589653342962265,0.0015103634214028716,-0.06246179714798927,-0.0996551662683487,0.01987486518919468,0.008214122615754604,-0.13496123254299164,0.035411614924669266,-0.09371045231819153,-0.17209284007549286,-0.11941729485988617,-0.006571448873728514,-0.020386720076203346,-0.03248703107237816,0.012668265029788017,0.00392876798287034,-0.11557871103286743,-0.14314483106136322,0.1090206652879715,0.029679467901587486,-0.11296118050813675,-0.13825058937072754,-0.08322127908468246,-0.09164948761463165,0.0071789599023759365,0.038690511137247086,-0.040674541145563126,0.009675844572484493,0.04287417605519295,0.14028231799602509,-0.1938905566930771,0.002103684237226844,0.04267330467700958,-0.04599525034427643,0.023173369467258453,-0.04217621311545372,0.04570179805159569,0.015160656534135342,0.03786293789744377,-0.03325643390417099,0.03151630237698555,0.12027080357074738,0.19627904891967773,0.018615854904055595,-0.022504907101392746,0.08800558745861053,0.15191112458705902,-0.03298182785511017,0.07195377349853516,0.12291082739830017,-0.003163583343848586,0.045131951570510864,0.011348121799528599,0.02963152900338173,0.01679130271077156,0.08611243963241577,0.0642547532916069,0.0008695510914549232,0.03956553712487221,0.0385042279958725,0.08258449286222458,0.08424503356218338,-0.006856513675302267,-0.006186219397932291,-0.018736662343144417,0.01405003760010004,-0.017294365912675858,0.003520595608279109,-0.03913949429988861,0.010637117549777031,0.021015385165810585,-0.013247890397906303,-0.030308937653899193,-0.02854990027844906,0.014667804352939129,0.0013350923545658588,0.024269387125968933,-0.010473499074578285,-0.01411786675453186,-0.016845960170030594,0.035922881215810776,-0.014040062204003334,-0.023683693259954453,0.004123236518353224,0.02592475153505802,0.023304160684347153,-0.0027282852679491043,-0.031821783632040024,-0.03201257437467575,-0.012621251866221428,-0.03928118944168091,-0.03866389021277428,-0.03608671575784683,0.002071973867714405,0.036366190761327744,0.032191820442676544,-0.0218108631670475,0.030141562223434448,-0.000538970110937953,0.032928626984357834,-0.020554250106215477,-0.04099885746836662,0.023237859830260277,0.026919610798358917,0.012852735817432404,-0.033720713108778,0.014282501302659512,0.06974215805530548,-0.0005265168147161603,-0.0506739541888237,0.007614786271005869,-0.013603782281279564,0.013382932171225548,0.07623135298490524,0.03888861462473869,0.05737203359603882,-0.0062407804653048515,0.018872777000069618,-0.0025777826085686684,0.2257923185825348,-0.01603553257882595,0.04964284226298332,-0.09737317264080048,-0.005943340715020895,0.12875859439373016,0.07454648613929749,0.13409128785133362,0.12031520903110504,0.02800500951707363,0.007875397801399231,-0.025624357163906097,0.04156709089875221,0.0868508517742157,-0.06168130785226822,0.04253101348876953,-0.021656155586242676,-0.007680963259190321,0.03597622737288475,0.030463192611932755,0.15123319625854492,0.08629164844751358,0.019038308411836624,-0.03253855183720589,-0.033122580498456955,0.024222448468208313,-0.09373798221349716,-0.0135929761454463,0.09789988398551941,-0.0004118598299100995,-0.016065899282693863,-0.08537760376930237,0.006625348702073097,-0.016304273158311844,0.019176319241523743,0.04500656947493553,-0.034051407128572464,0.028071068227291107,-0.06990727037191391,0.0043754843063652515,0.05034922435879707,0.08966420590877533,-0.04060706868767738,-0.1715775579214096,-0.04293152317404747,-0.07719256728887558,0.012023870833218098,0.027597002685070038,-0.06605594605207443,-0.030070139095187187,0.041046932339668274,-0.030558746308088303,0.02076316997408867,-0.01089596189558506,0.01558773498982191,0.048243362456560135,-0.1633138209581375,-0.02100304141640663,0.0710228681564331,0.04870043694972992,-0.10441494733095169,-0.13139918446540833,-0.008341309614479542,-0.003294202499091625,-0.034119851887226105,0.004074905999004841,-0.014419515617191792,-0.03012187033891678,0.021983902901411057,0.04202182590961456,0.03170877695083618,-0.04029722139239311,0.027347974479198456,-0.16895250976085663,-0.1947201043367386,-0.030740581452846527,-0.03881299868226051,-0.04610559716820717,-0.05260453373193741,-0.06951043009757996,-0.1682443469762802,0.0852108746767044,0.08726199716329575,-0.07371027022600174,0.011794336140155792,-0.07519543915987015,-0.09461818635463715,-0.03351077437400818,-0.0041854665614664555,0.02572973631322384,-0.009321998804807663,0.05289040878415108,-0.012195855379104614,-0.060882870107889175,-0.07001636922359467,-0.034258563071489334,0.005489165894687176,0.02980154938995838,-0.055733807384967804,-0.027277739718556404,0.1233624666929245,-0.021222569048404694,-0.009844169951975346,0.025702841579914093,0.10896079987287521,0.04360485076904297,0.013448379933834076,-0.08519058674573898,-0.081242635846138,-0.11013709753751755,-0.026461342349648476,-0.0251372829079628,0.1682387739419937,0.014776251278817654,-0.011261342093348503,-0.013442648574709892,-0.0026741239707916975,0.017741749063134193,0.05169747397303581,-0.04414884373545647,-0.053066011518239975,-0.05613299086689949,-0.07489750534296036,0.06056235730648041,0.10380516946315765,0.012578511610627174,0.041077326983213425,0.01633286289870739,0.033061228692531586,0.040794968605041504,-0.011247985064983368,0.014581267721951008,0.005625580903142691,0.006601401604712009,-0.021966328844428062,-0.022020915523171425,-0.005426269024610519,-0.015224486589431763,-0.007418821565806866,-0.04036279767751694,0.024827538058161736,0.045499738305807114,-0.014846771955490112,0.045962851494550705,0.002270930679515004,0.025232458487153053,-0.004301863256841898,-0.01682654209434986,0.02141251601278782,0.02020813710987568,0.030813414603471756,0.011043013073503971,0.034433044493198395,-0.011016352102160454,0.030716747045516968,0.016570331528782845,-0.0065760002471506596,-0.012067124247550964,-0.03391887992620468,-0.0027571457903832197,-0.02005300670862198,-0.06294278055429459,-0.0894339382648468,0.051534902304410934,0.0012798848329111934,0.04873446375131607,0.040498171001672745,0.02940761297941208,-0.028377380222082138,0.010598734952509403,0.0005640106392093003,0.06391683220863342,0.034184426069259644,0.06618302315473557,0.1190219447016716,-0.0009049501386471093,0.04537886008620262,-0.01963384449481964,-0.021516861394047737,0.002131293760612607,0.013155067339539528,0.045839644968509674,0.0492098443210125,0.10578575730323792,0.11392847448587418,0.10583466291427612,0.009043928235769272,-0.049870237708091736,0.10692161321640015,-0.08697374910116196,-0.015209672972559929,-0.007634371519088745,0.00803948100656271,-0.018912410363554955,0.03740436211228371,-0.00044962367974221706,0.09001408517360687,-0.008693035691976547,0.0158440712839365,0.039272043853998184,0.020064102485775948,-0.04943578690290451,0.02017322927713394,-0.025281038135290146,-0.024932075291872025,-0.0006885557668283582,0.04355109483003616,0.08978445082902908,0.03592383861541748,-0.036091357469558716,-0.033913351595401764,0.023580938577651978,-0.13022564351558685,-0.026721995323896408,-0.18628738820552826,0.06534866988658905,0.0800112932920456,-0.011616076342761517,-0.05801486223936081,0.014897518791258335,-0.050620242953300476,0.10645104199647903,0.015857979655265808,-0.0854661762714386,-0.020231034606695175,-0.1146182045340538,-0.05508706346154213,-0.04316389560699463,-0.03439851105213165,0.0233004093170166,-0.010913927108049393,0.024300405755639076,0.015572978183627129,-0.06175130978226662,0.07247766852378845,0.07154890149831772,0.03912186250090599,-0.07606299966573715,-0.05293950438499451,0.014276555739343166,0.0034450916573405266,0.05291293188929558,-0.022192616015672684,-0.032594598829746246,-0.0389244444668293,0.04161536693572998,-0.0736410841345787,0.044883448630571365,0.06296762079000473,0.021916832774877548,0.0328519269824028,-0.043077223002910614,-0.0727117732167244,-0.17125536501407623,-0.004387177061289549,-0.04686923697590828,0.04325133189558983,0.016509948298335075,-0.04815646633505821,-0.08557838946580887,-0.1046467274427414,0.00932395551353693,0.12219709903001785,0.10847559571266174,0.03243079409003258,0.04821835830807686,0.1662614643573761,-0.08788944780826569,0.01393902488052845,0.0010691602947190404,0.03883909434080124,-0.04438153654336929,0.02863624319434166,0.0162919033318758,-0.13749739527702332,-0.06701501458883286,0.04030581936240196,0.03484766185283661,0.04456332325935364,-0.034665826708078384,0.057455189526081085,0.08813109248876572,0.004224817268550396,-0.013380763120949268,-0.01082474272698164,0.008804700337350368,0.0569641999900341,-0.035609424114227295,-0.09302936494350433,-0.04958680272102356,-0.09419697523117065,0.01434495858848095,0.0942380279302597,0.08074899762868881,0.019308479502797127,-0.028470749035477638,0.0216258205473423,0.025369888171553612,-0.02213893085718155,0.04288798198103905,0.003957012202590704,0.03496727719902992,-0.03812625631690025,-0.03685588389635086,0.020818745717406273,0.022038765251636505,-0.007279495242983103,0.03729625046253204,-0.00816026609390974,-0.009338770993053913,-0.03932444006204605,-0.03524760156869888,-0.028647195547819138,-0.01978491246700287,-0.0037609508726745844,0.01192962471395731,-0.002856946550309658,-0.027596641331911087,-0.019450286403298378,0.03113725408911705,0.034256111830472946,0.041897568851709366,-0.012641601264476776,0.02659052424132824,0.05563129112124443,0.14435656368732452,-0.05940767377614975,-0.037073586136102676,-0.03765850514173508,-0.04574153199791908,-0.0013332900125533342,0.12261303514242172,0.11144959926605225,0.1391008496284485,0.025707317516207695,-0.03588562458753586,0.016039114445447922,0.09078332036733627,0.08038124442100525,-0.015486947260797024,0.07384312897920609,0.07956736534833908,0.1682233363389969,0.11689360439777374,-0.055674683302640915,0.01914822869002819,0.032296519726514816,0.01063508354127407,-0.03753599897027016,-0.01986772194504738,-0.09935616701841354,-0.07757575064897537,0.033638451248407364,0.13259831070899963,0.10988152772188187,0.05090471729636192,0.12820737063884735,0.0944453626871109,-0.005145421717315912,-0.06176882982254028,-0.002873225137591362,-0.019576264545321465,0.02045493572950363,-0.06711799651384354,0.0705847516655922,0.11180484294891357,0.03321189060807228,-0.014497438445687294,-0.06528256088495255,-0.084071084856987,-0.042925819754600525,-0.02312021702528,-0.051123201847076416,0.016691768541932106,-0.021548060700297356,-0.0006498973234556615,-0.0692780539393425,-0.010173741728067398,0.04085937514901161,0.032959725707769394,-0.049091193825006485,-0.054811056703329086,-0.06732159107923508,-0.07524482905864716,0.00006170954293338582,-0.0457916334271431,-0.08644653856754303,0.009647554717957973,0.014368885196745396,0.06242091953754425,-0.031235795468091965,-0.07882754504680634,0.03820713236927986,-0.04145039618015289,-0.054761067032814026,0.06430469453334808,-0.005116587970405817,-0.031667839735746384,0.012501992285251617,-0.08809667825698853,0.011429674923419952,-0.029617473483085632,0.03120669163763523,0.033012647181749344,-0.10902667790651321,-0.021695837378501892,0.013362251222133636,0.007030284497886896,0.01401257049292326,-0.08474314957857132,-0.07077658176422119,-0.053639546036720276,-0.00372194591909647,-0.032582588493824005,-0.0019505196250975132,-0.06669578701257706,0.05582904815673828,-0.02796790562570095,-0.04442427307367325,0.06418387591838837,0.02234128676354885,-0.050220102071762085,-0.002049673581495881,-0.06292674690485,0.038977429270744324,-0.013303544372320175,0.02391175739467144,0.028463944792747498,-0.02210627868771553,0.06644725799560547,0.042329709976911545,0.009511333890259266,-0.06779631227254868,-0.0182544756680727,-0.04363885149359703,0.0052771419286727905,0.04727188125252724,0.0619860477745533,0.041090890765190125,0.029463624581694603,-0.027220429852604866,0.02879612147808075,0.004248866345733404,0.03445610776543617,0.024390095844864845,-0.032315779477357864,0.002215654356405139,0.03411876782774925,0.10347968339920044,0.03230399638414383,-0.020381201058626175,0.03241037204861641,-0.028579115867614746,0.020649567246437073,-0.0045973919332027435,0.014402687549591064,0.015110817737877369,-0.03340113162994385,0.007044403348118067,0.007402080576866865,-0.04468754678964615,-0.03710276260972023,0.04217158257961273,-0.01252593845129013,0.01037608366459608,0.0064805797301232815,0.042216941714286804,0.03955310210585594,0.02951054275035858,-0.022552335634827614,-0.024628499522805214,-0.02228393591940403,0.014342619106173515,-0.01323793176561594,-0.03681474179029465,0.025921577587723732,0.04169578477740288,-0.03374098241329193,-0.01302215363830328],[0.0036588641814887524,0.006254090927541256,0.0020533606875687838,-0.035881638526916504,-0.00533733144402504,0.029144152998924255,-0.03539865463972092,-0.004678807687014341,-0.03617767244577408,0.01776847615838051,0.003483512671664357,0.037264566868543625,0.03791237622499466,0.03490419685840607,-0.028906065970659256,-0.036179546266794205,0.03846908360719681,0.05232281610369682,0.008643445558845997,-0.0025412270333617926,-0.043738290667533875,-0.024616802111268044,-0.009317235089838505,0.012896792963147163,-0.042923662811517715,0.029960783198475838,0.044718433171510696,-0.02500099688768387,0.007956781424582005,-0.019983751699328423,-0.007519871927797794,0.02254432998597622,0.0013650701148435473,-0.04823443293571472,-0.08865051716566086,0.015440748073160648,-0.00893262680619955,-0.021874653175473213,0.014814015477895737,-0.03994646668434143,-0.027536068111658096,-0.000781705544795841,0.011782410554587841,0.05612948164343834,0.029400933533906937,-0.05232762545347214,-0.02330339513719082,-0.08898744732141495,-0.08080455660820007,-0.000255264196312055,-0.043373607099056244,-0.041977476328611374,0.029678458347916603,-0.016677996143698692,0.02728494442999363,0.01292872428894043,0.04103992506861687,-0.043346066027879715,-0.0014540842967107892,-0.11278004199266434,-0.008402863517403603,-0.012387226335704327,-0.022161534056067467,-0.04166140779852867,0.037831053137779236,-0.03331675007939339,0.030225833877921104,0.018019456416368484,0.016565293073654175,-0.0004823181952815503,0.08160445839166641,0.1278667151927948,0.13621680438518524,0.13115647435188293,0.0469774529337883,-0.03266426920890808,0.030547060072422028,-0.0029565049335360527,0.000028842607207479887,0.011452291160821915,-0.02634746953845024,-0.030293721705675125,0.06363390386104584,0.004220294300466776,0.12120262533426285,0.13523747026920319,0.04628106951713562,-0.04777960479259491,0.08164180815219879,0.04277247563004494,0.021553287282586098,0.040504343807697296,0.027076931670308113,0.10985050350427628,0.013944095931947231,0.08306381106376648,0.04647594317793846,0.015464487485587597,0.04788883775472641,0.10555250942707062,-0.019197484478354454,0.09006841480731964,0.1138063594698906,0.04574937745928764,-0.02089383639395237,-0.08481132239103317,-0.011529045179486275,0.06118388473987579,0.0982593223452568,0.09415668994188309,0.09544111043214798,0.05030303820967674,-0.06241897866129875,0.03327924758195877,-0.1514146625995636,-0.09726105630397797,-0.01391158439218998,-0.02726718969643116,-0.119522824883461,-0.1952584832906723,-0.0860690325498581,-0.12110750377178192,-0.06936918199062347,0.016965826973319054,-0.05405053496360779,0.05921834707260132,0.04146232083439827,0.14329805970191956,0.06112508475780487,0.038428205996751785,0.005705425515770912,0.015060563571751118,-0.028897572308778763,0.044320590794086456,0.011141547001898289,-0.01122966967523098,0.02080131135880947,0.04747813940048218,0.01323033683001995,-0.018830446526408195,-0.03004925511777401,0.023629743605852127,0.005953070241957903,0.007743651047348976,0.08344247937202454,0.07198779284954071,0.02009677328169346,0.04398244619369507,0.0619896836578846,-0.038702379912137985,-0.0030345215927809477,-0.006299714092165232,0.012493632733821869,0.0021512028761208057,-0.021487638354301453,0.0026461377274245024,-0.04212227463722229,0.03548036143183708,0.03547164425253868,0.02573423832654953,0.022352207452058792,-0.0328713022172451,0.0329747274518013,0.0408284068107605,-0.03982909768819809,-0.030939966440200806,-0.025827743113040924,0.024067308753728867,-0.011348576284945011,0.022244980558753014,-0.036457937210798264,-0.025244003161787987,0.01644774153828621,-0.011938368901610374,0.0011281401384621859,0.03450813144445419,0.020342646166682243,-0.03520548716187477,0.0351082906126976,-0.02892255038022995,0.030517157167196274,-0.02342403493821621,-0.02371588908135891,-0.033560920506715775,0.023867035284638405,0.012338568456470966,0.0841575637459755,0.11753654479980469,0.0302568469196558,-0.01574653387069702,-0.022520598024129868,-0.09352855384349823,-0.054083336144685745,0.031473807990550995,0.02902246080338955,-0.02795741707086563,-0.03169719874858856,-0.03335300460457802,0.00656915083527565,-0.013577536679804325,0.014588476158678532,0.061865974217653275,-0.19392795860767365,-0.07394970953464508,-0.1093817874789238,-0.09388457238674164,-0.058834902942180634,-0.03581283986568451,0.016790390014648438,0.03866232559084892,-0.09664095193147659,-0.07238201051950455,-0.053568560630083084,0.0004778271832037717,-0.01667122356593609,-0.060543667525053024,-0.16542716324329376,-0.14144586026668549,-0.16276343166828156,-0.07155398279428482,-0.03966951370239258,-0.035474590957164764,0.013623849488794804,-0.015475166030228138,-0.023907657712697983,0.15313485264778137,-0.07107438892126083,-0.05351607874035835,0.12003250420093536,-0.039084333926439285,-0.1678050309419632,-0.08981532603502274,-0.07782653719186783,0.0016265111044049263,-0.041658274829387665,-0.01375010795891285,-0.056113019585609436,0.10976416617631912,0.07038749754428864,-0.04257158935070038,0.09773439913988113,0.19120454788208008,0.24694086611270905,-0.04703424870967865,-0.17785263061523438,-0.072160504758358,0.024167196825146675,-0.010181265883147717,0.010825343430042267,-0.006142595317214727,-0.1002897247672081,0.016069766134023666,-0.11452705413103104,0.10790133476257324,0.10050726681947708,0.08460630476474762,-0.04688827693462372,-0.029214100912213326,-0.1255422681570053,0.07690802961587906,0.038049474358558655,-0.015092678368091583,0.043661341071128845,-0.1117371916770935,0.08101989328861237,0.04754774644970894,0.17000722885131836,0.046770427376031876,0.05134795233607292,0.06615041196346283,0.04961134493350983,-0.06735841929912567,0.08546069264411926,0.0006008644122630358,0.06288972496986389,-0.010363360866904259,-0.050517693161964417,0.09379351139068604,0.11171938478946686,-0.013041502796113491,-0.03558168560266495,0.06283598393201828,-0.009762726724147797,-0.0440097413957119,-0.02870817855000496,0.01814604550600052,0.038802750408649445,0.052993908524513245,-0.01278788223862648,-0.04875319451093674,0.08584192395210266,0.02036803774535656,0.001094896113499999,0.029419580474495888,0.0209222249686718,0.003457135520875454,-0.013075225986540318,0.10728221386671066,0.03189945966005325,0.04483610764145851,0.026562904939055443,0.0895005613565445,-0.00611116411164403,0.10885456204414368,0.07333803921937943,0.0009703861433081329,0.02465253882110119,-0.03566933423280716,-0.04213828966021538,-0.057662758976221085,-0.04096192866563797,-0.006024536211043596,-0.02864697389304638,0.01467119064182043,0.038176342844963074,0.024349210783839226,0.08741307258605957,0.06990694999694824,-0.023423003032803535,0.0075258901342749596,0.03477947786450386,0.01978997141122818,0.04323136433959007,-0.005855202209204435,-0.008234605193138123,0.014983092434704304,-0.005958021618425846,-0.03804711624979973,-0.02070479467511177,-0.005423489958047867,-0.006386110559105873,-0.0360967293381691,-0.0012913474347442389,-0.028878655284643173,-0.026091216132044792,0.03896681219339371,0.02048836275935173,-0.005945501383394003,0.026559296995401382,0.028729673475027084,-0.0027220670599490404,-0.03521221503615379,-0.024222418665885925,-0.00020845157268922776,-0.01805214211344719,0.01102717500180006,-0.019292812794446945,-0.02296401374042034,-0.027210453525185585,0.011098290793597698,0.01793987862765789,-0.02735988050699234,0.00039956331602297723,-0.04060110077261925,0.02362762950360775,-0.012024353258311749,0.0317109152674675,-0.1251804232597351,-0.20787298679351807,-0.19587528705596924,-0.15568813681602478,-0.046172577887773514,0.013753042556345463,-0.037613220512866974,0.029249068349599838,-0.0029825163073837757,-0.028783142566680908,-0.05288737639784813,0.02682730183005333,0.2059101164340973,0.07277174293994904,-0.18915307521820068,-0.09301310032606125,-0.1299610286951065,-0.09578016400337219,-0.02076471410691738,0.002141689881682396,0.012629120610654354,0.04623847454786301,0.04482204094529152,0.09459639340639114,0.04092621058225632,-0.007206853944808245,0.1123703271150589,0.00668709073215723,-0.11521540582180023,-0.1348213255405426,-0.10678344964981079,-0.06987376511096954,0.005884331185370684,0.011646827682852745,-0.009343276731669903,0.0810529887676239,-0.008564801886677742,0.05422735959291458,-0.06015481427311897,0.07256950438022614,0.2914734184741974,0.2559794783592224,0.032203711569309235,0.027361834421753883,-0.0656009241938591,0.02758103609085083,0.005097361281514168,-0.013984336517751217,0.006068079266697168,0.01166177075356245,-0.06730283051729202,-0.025325264781713486,0.11324948072433472,0.06954603642225266,0.15141671895980835,-0.044577572494745255,-0.009512275457382202,0.178228959441185,0.0452454537153244,0.034002985805273056,0.054677993059158325,0.08088425546884537,-0.01638096570968628,0.1228540763258934,0.18168151378631592,0.03960748761892319,0.028662294149398804,0.12021823227405548,0.3353097140789032,0.11238463222980499,-0.10874433815479279,0.06075137108564377,0.05846773087978363,0.047783710062503815,-0.012110145762562752,-0.02953561395406723,-0.07110144942998886,0.025102972984313965,0.0661017894744873,-0.05557242035865784,-0.04971521720290184,-0.028350450098514557,0.20699810981750488,0.017019616439938545,-0.015982646495103836,0.029520511627197266,0.021288730204105377,-0.04100848361849785,-0.0855228528380394,0.014467289671301842,0.0015769674209877849,-0.03487592190504074,0.08233165740966797,0.05955035239458084,-0.03415820747613907,-0.02640482597053051,0.09233497083187103,0.01189110241830349,0.03909003734588623,0.0280452948063612,0.035171493887901306,0.006702817510813475,0.06363570690155029,0.05939335376024246,0.017246946692466736,-0.04473854601383209,-0.031536731868982315,-0.05212175101041794,0.01030986849218607,-0.024708807468414307,-0.011410593055188656,0.031575217843055725,0.03891732916235924,0.014929322525858879,0.04439065605401993,0.04174835979938507,0.03932530805468559,0.043819062411785126,0.017261264845728874,0.01763271540403366,0.009618274867534637,0.03031022660434246,0.004235170315951109,0.005008112173527479,0.03346743434667587,0.031780216842889786,-0.026587190106511116,-0.011106309480965137,0.0014902057591825724,0.005318673327565193,-0.04021913558244705,0.04474169760942459,0.031002961099147797,-0.0398239903151989,-0.027044905349612236,0.005369438789784908,-0.00003034801375179086,-0.007153585087507963,-0.03802766278386116,-0.0326673798263073,0.04076702520251274,-0.012916206382215023,0.03539469465613365,-0.000602243875619024,0.024117672815918922,0.03815050795674324,0.010099361650645733,0.014618218876421452,0.0048336912877857685,0.04505433142185211,-0.040940433740615845,0.019886188209056854,-0.012737804092466831,-0.0018874768866226077,0.011254973709583282,-0.013275588862597942,-0.01777561381459236,-0.04130934178829193,-0.03755373880267143,0.0010211060289293528,-0.0436536967754364,0.012592659331858158,0.02012602798640728,-0.03462712839245796,0.01592998206615448,-0.013206698931753635,0.006573761813342571,0.03190242871642113,0.04142970219254494,-0.06393890082836151,-0.03658539056777954,-0.07591187208890915,-0.033209867775440216,0.01412619836628437,-0.015069064684212208,-0.04097245633602142,0.03330642729997635,0.01381739042699337,-0.04530312493443489,0.02050710842013359,-0.0566176101565361,0.008703580126166344,0.0031602103263139725,-0.21453957259655,-0.157114639878273,-0.10628518462181091,-0.07112593948841095,-0.030968807637691498,-0.012117958627641201,-0.006087055429816246,-0.0007857041782699525,-0.08115947246551514,-0.0037643599789589643,0.04775061458349228,0.08870039135217667,-0.04135778173804283,-0.08185607939958572,-0.19741873443126678,-0.1336011290550232,-0.13318049907684326,-0.0027992629911750555,0.031067438423633575,-0.041427742689847946,0.02287755161523819,-0.06693965941667557,0.059275299310684204,0.01918424479663372,-0.04226658120751381,0.038313545286655426,0.06495662778615952,0.02038852497935295,-0.07534264028072357,-0.020317165181040764,-0.07923188805580139,0.04288012161850929,-0.004155454691499472,-0.0082181915640831,-0.0240922998636961,0.006663009524345398,-0.0070625790394842625,-0.033014070242643356,0.11266922205686569,0.1263079047203064,0.17820648849010468,-0.0689244344830513,-0.1357661336660385,0.007662234827876091,0.04936903342604637,-0.0015623226063326001,0.0273978803306818,0.005982569884508848,-0.015573052689433098,-0.010997090488672256,0.06536386162042618,0.11530771851539612,0.07955519109964371,0.08919758349657059,-0.02362445555627346,0.05600782111287117,-0.033119697123765945,0.08426139503717422,-0.03277396038174629,0.018316131085157394,-0.02187327854335308,-0.050131164491176605,0.11350424587726593,0.027931291610002518,0.07438240200281143,0.004846034571528435,0.0558319017291069,-0.015082426369190216,-0.09193698316812515,-0.008790912106633186,0.03968130424618721,0.03639440983533859,-0.0317501425743103,-0.03405515104532242,0.006361893843859434,0.08913382887840271,0.04351283982396126,-0.08804929256439209,-0.059287507086992264,0.000497629342135042,-0.0614464171230793,-0.03193613886833191,-0.009330099448561668,0.027134571224451065,0.022810526192188263,0.05592738464474678,0.0010360539890825748,0.037649549543857574,0.09939634054899216,0.03345942497253418,-0.034813784062862396,0.011257383041083813,-0.06539937853813171,-0.023211857303977013,0.02992405742406845,0.028802504763007164,0.018798595294356346,-0.0074689253233373165,0.05685599893331528,0.026525430381298065,0.04350414499640465,0.11422383785247803,0.01662996970117092,-0.021665025502443314,0.019814787432551384,-0.07568451762199402,0.0081469202414155,0.024223189800977707,0.030377453193068504,0.03095616213977337,-0.03231480345129967,0.034031689167022705,0.002064542844891548,-0.0054495446383953094,0.04986779764294624,0.04568270966410637,-0.018435565754771233,-0.021734612062573433,-0.02761850878596306,0.03842563554644585,0.001807619584724307,0.024270741268992424,0.03614906221628189,0.015012583695352077,-0.0014726390363648534,0.034002721309661865,0.001482667401432991,0.04038049280643463,0.005221565719693899,-0.008933796547353268,0.0014316663146018982,-0.021041342988610268,0.007685927674174309,-0.005449843592941761,-0.03464913368225098,-0.02195129543542862,-0.0333617702126503,0.028892062604427338,0.00491976086050272,0.018297104164958,-0.008747394196689129,-0.027447037398815155,0.005989737343043089,-0.036363959312438965,0.01900670677423477,0.03797733783721924,0.042878225445747375,0.04192465916275978,0.012149136513471603,-0.03764292225241661,-0.030346287414431572,-0.02624484710395336,0.020373264327645302,0.03946484252810478,0.01590055786073208,0.053204361349344254,0.020430991426110268,-0.033916790038347244,-0.007595439441502094,0.015561643987894058,0.017053980380296707,0.03688913211226463,-0.04105018079280853,-0.02450835146009922,-0.03531484305858612,-0.007480225991457701,-0.03977447375655174,0.011230538599193096,0.11082027107477188,-0.05438324809074402,-0.09967724978923798,-0.050408151000738144,0.003879319643601775,-0.006673801224678755,-0.0067158411256968975,0.03656070679426193,0.016610294580459595,-0.022869408130645752,0.03661712259054184,0.009798642247915268,0.005943672265857458,0.00004925320536131039,-0.019017349928617477,-0.026086220517754555,-0.03197590634226799,-0.014115487225353718,-0.018925562500953674,0.002410156885161996,0.03718889504671097,-0.003774399869143963,-0.039934512227773666,-0.09597932547330856,0.04827551171183586,-0.021708814427256584,-0.024874653667211533,-0.03385278582572937,-0.01875617913901806,-0.03304741159081459,0.0021384316496551037,-0.04307595267891884,0.04378688707947731,-0.02561803348362446,-0.009267332032322884,-0.029764888808131218,0.06143896281719208,-0.08679505437612534,-0.004129983484745026,0.1961364448070526,0.004971964284777641,0.14836788177490234,-0.012859879992902279,0.003076833439990878,0.060132212936878204,0.04770610108971596,-0.0045900302939116955,-0.03047769144177437,-0.003809351706877351,-0.009217373095452785,-0.045382168143987656,0.05792972445487976,0.11985588073730469,0.05310797691345215,0.013206135481595993,0.049994051456451416,0.09745800495147705,-0.006092648953199387,0.043459389358758926,-0.021888842806220055,-0.006569774821400642,0.05315940082073212,-0.10247243940830231,-0.0291425921022892,0.05507483705878258,0.021690497174859047,0.08604910969734192,0.12776769697666168,-0.006221562623977661,0.04608309268951416,0.0440419465303421,-0.02594052627682686,0.019689621403813362,-0.1103937178850174,0.046434346586465836,0.05504531040787697,0.005678677931427956,0.13465924561023712,0.015426634810864925,0.029376190155744553,-0.008368988521397114,-0.025762097910046577,-0.07356411218643188,0.04902467876672745,-0.03224269300699234,0.031045781448483467,-0.10525035113096237,-0.16424745321273804,-0.048205792903900146,-0.09324387460947037,-0.02913818322122097,-0.06976661086082458,0.04465634003281593,0.07074533402919769,0.07244675606489182,0.09755424410104752,0.04115965962409973,-0.029176907613873482,0.02961062453687191,0.05945151299238205,0.002666422165930271,0.03327092155814171,-0.01290931273251772,0.02108457125723362,0.01400446891784668,0.008160406723618507,-0.032183486968278885,0.03415532782673836,-0.0010864221258088946,0.022986194118857384,-0.018006373196840286,0.02835533767938614,0.06792248785495758,0.07628420740365982,0.04176248610019684,0.09981226176023483,-0.030525974929332733,0.04619170352816582,-0.022272657603025436,0.034811414778232574,-0.013798796571791172,-0.02955976501107216,-0.025551654398441315,0.03780060634016991,0.04570474103093147,0.03004593215882778,-0.029401518404483795,-0.01858140528202057,0.0052603259682655334,-0.03899231180548668,-0.02342366985976696,-0.03672046959400177,0.03786328434944153,0.02440587617456913,-0.003666660049930215,0.023373909294605255,0.031101029366254807,0.019108612090349197,0.002756861038506031,0.01800590567290783,0.0437515564262867,-0.044450126588344574,0.025555048137903214,0.03904080390930176,0.0006962583283893764,-0.025176480412483215,0.023782692849636078,-0.03185306489467621,0.012456492520868778,0.007352046202868223,0.009492101147770882,-0.038529641926288605,-0.028701176866889,0.03967302292585373,0.04828793555498123,0.0001358513836748898,-0.11905697733163834,-0.08138702809810638,-0.0524035282433033,-0.06776536256074905,-0.03228450194001198,-0.005116649437695742,-0.03582295775413513,0.009941653348505497,-0.040817540138959885,-0.0481833852827549,-0.018588341772556305,-0.030740482732653618,0.09310095757246017,0.046232424676418304,-0.13886193931102753,-0.10103311389684677,-0.03761941194534302,-0.08244843780994415,-0.01297286432236433,0.028807442635297775,-0.03557384014129639,-0.03934292495250702,-0.003442801535129547,0.03989202529191971,0.022224081680178642,-0.0653417557477951,0.04700881615281105,-0.045620206743478775,-0.1036980152130127,-0.07668087631464005,-0.07913235574960709,-0.04481564834713936,0.019056357443332672,0.02404142916202545,-0.01515957247465849,0.05861962214112282,0.03302275761961937,-0.01784166693687439,-0.08194756507873535,0.07198332250118256,0.047441575676202774,0.0569487102329731,0.0667218565940857,0.023134656250476837,-0.006115042604506016,0.009490607306361198,-0.03752001374959946,-0.027211254462599754,0.05664012208580971,-0.039072856307029724,-0.06950800120830536,0.017023054882884026,0.031231720000505447,0.09862726181745529,0.03616716340184212,-0.029982132837176323,0.044935524463653564,0.05012606084346771,0.044647216796875,-0.028562862426042557,0.029577599838376045,0.01373542845249176,-0.027427708730101585,0.08389603346586227,0.06360751390457153,0.09046807885169983,0.028686044737696648,0.07286275923252106,0.08116425573825836,0.0511675700545311,0.02433410845696926,-0.03295009210705757,0.008024333976209164,0.011515463702380657,-0.06279835850000381,-0.03921499848365784,-0.020398596301674843,0.030025450512766838,0.013248036615550518,-0.036638230085372925,-0.003033470595255494,0.008656575344502926,0.04393593966960907,0.01644737645983696,0.036926787346601486,0.018028076738119125,0.04026447609066963,0.024904325604438782,-0.03252655267715454,0.03382176160812378,0.007546732667833567,0.032994307577610016,0.0468115508556366,0.014781620353460312,-0.04231923446059227,0.06535638868808746,0.02022230625152588,-0.03614157438278198,-0.008949951268732548,0.024436520412564278,0.06009025126695633,-0.01392081007361412,0.019632408395409584,0.03491397202014923,0.0004585747665259987,-0.005120205692946911,-0.00309533579275012,0.02490289881825447,-0.010624661110341549,0.018453996628522873,-0.02391032874584198,0.038778070360422134,-0.0021447017788887024,0.047852419316768646,-0.027479834854602814,0.06274189054965973,-0.018123824149370193,-0.01577846147119999,0.008280540816485882,-0.01426832564175129,-0.03969622403383255,-0.011452831327915192,0.04426513612270355,0.03633552044630051,-0.0034093731082975864,-0.03916379436850548,0.029365835711359978,-0.035613421350717545,-0.006675932556390762,0.021585596725344658,0.03004215657711029,0.03159608691930771,-0.001956281950697303,0.008016202598810196,0.022798646241426468,-0.013340613804757595,-0.04078932851552963,0.004228164907544851,-0.031411390751600266,-0.0038535352796316147,-0.03584304451942444,0.022808589041233063,0.014136334881186485,0.021163849160075188,0.03814231604337692,-0.004046154674142599,0.0284391138702631,-0.01339635904878378,-0.009865724481642246,0.027349404990673065]],"b":[-0.1354745775461197,0.05667433887720108,0.07880032807588577]}],"trainedCounts":[17,21,19]};