window.PRETRAINED_WEIGHTS = {"config":{"inputSize":28,"numClasses":3,"convLayers":1,"numFilters":6,"filterSize":3,"learningRate":0.02,"epochs":12},"layers":[{"type":"Conv2D","inChannels":1,"numFilters":6,"fSize":3,"W":[[[[0.2329423725605011,0.7849037647247314,0.6528297662734985],[-0.5295297503471375,-0.466395765542984,-0.26112088561058044],[0.20357389748096466,0.08571512997150421,-0.44598838686943054]]],[[[0.7000041604042053,0.17593279480934143,0.002202408853918314],[0.6252010464668274,-0.32594484090805054,-0.22432565689086914],[0.525339663028717,0.2912452518939972,-0.7508079409599304]]],[[[-0.816764771938324,-0.32450324296951294,-0.0875282734632492],[0.36892348527908325,-0.6706364750862122,-0.37818679213523865],[0.8366391062736511,0.7847042679786682,0.6043961644172668]]],[[[0.12618978321552277,0.2815347909927368,0.33751180768013],[0.5775072574615479,-0.037730176001787186,0.10300423204898834],[0.5474521517753601,0.3781238794326782,-0.272187739610672]]],[[[-0.007114080246537924,0.35298874974250793,0.9442458152770996],[-0.2948077619075775,-0.5333351492881775,-0.15916374325752258],[0.46077919006347656,-0.40602561831474304,-0.5224428176879883]]],[[[0.023986153304576874,-0.5283851027488708,-0.4689923822879791],[-0.03658239170908928,0.009968041442334652,0.23949241638183594],[0.19873954355716705,0.5841510891914368,0.22317858040332794]]]],"b":[0.06046917289495468,0.015012025833129883,0.0926431268453598,-0.10487387329339981,0.18770577013492584,0.029845625162124634]},{"type":"ReLU"},{"type":"MaxPool2D","size":2},{"type":"Flatten"},{"type":"Dense","inDim":1014,"outDim":3,"W":[[-0.0272687915712595,-0.045606035739183426,0.019138893112540245,-0.014145087450742722,-0.0356222465634346,-0.03761327639222145,0.025640320032835007,0.03940809145569801,0.019621236249804497,0.015811124816536903,0.0384967178106308,-0.018866723403334618,-0.032229382544755936,0.04061807692050934,0.013486421667039394,-0.004461769945919514,-0.03578618913888931,-0.009970336221158504,-0.03206133469939232,-0.0008114984375424683,0.06282340735197067,0.073201984167099,0.05994716286659241,0.0041770064271986485,-0.0013991822488605976,0.0217514056712389,0.010058342479169369,-0.03442008048295975,0.00030494917882606387,-0.10446982830762863,-0.05676554888486862,0.01114173885434866,-0.12407324463129044,0.024966713041067123,0.11003933101892471,0.0073715015314519405,-0.008889920078217983,0.004310803487896919,0.023512110114097595,0.026036826893687248,-0.030055340379476547,-0.04923996701836586,-0.07899026572704315,-0.1255669891834259,-0.09137555211782455,-0.027444476261734962,0.019543753936886787,-0.08562897890806198,0.08469442278146744,-0.0008371100411750376,0.02594972401857376,0.011880547739565372,0.03875117376446724,0.010635019280016422,0.03252628445625305,0.025532687082886696,-0.06851647049188614,0.05424949526786804,-0.031512029469013214,0.00846700370311737,0.05175642669200897,-0.04456768184900284,0.05027841031551361,-0.04277932643890381,0.02035919763147831,-0.008179605938494205,0.022658541798591614,0.050433289259672165,0.013297134079039097,-0.024846293032169342,-0.06927017122507095,-0.0264262817800045,-0.01133845653384924,-0.013796364888548851,0.002010574797168374,-0.12083626538515091,-0.03308315947651863,-0.016718100756406784,0.01339068915694952,0.06545732915401459,-0.05012515187263489,0.022914307191967964,0.04209265857934952,0.06675975024700165,-0.014320100657641888,0.051524464040994644,-0.021849695593118668,0.02037269063293934,-0.000880062987562269,0.027175024151802063,0.0023013907484710217,0.040179457515478134,0.052312370389699936,-0.09801969677209854,-0.02887001633644104,-0.05665792524814606,0.09946524351835251,0.05906680226325989,-0.06198380887508392,-0.13868142664432526,-0.07632000744342804,-0.0811157375574112,-0.034383196383714676,0.001673590624704957,0.010227594524621964,0.11111214011907578,0.01281051803380251,-0.11352024972438812,-0.09091582894325256,-0.10933158546686172,0.02921353280544281,0.04819158837199211,0.21226492524147034,0.08644839376211166,0.18797647953033447,0.10334131866693497,-0.022161053493618965,-0.00214317231439054,0.1387370377779007,0.32103678584098816,0.12853364646434784,-0.020583612844347954,-0.055210333317518234,-0.0809943825006485,-0.03931353613734245,-0.21772848069667816,-0.012072128243744373,-0.07842938601970673,-0.0005900280666537583,-0.009514609351754189,0.023249218240380287,-0.09107932448387146,-0.05825069919228554,0.08002322912216187,-0.02654939331114292,-0.04085220396518707,-0.08058211207389832,-0.04767444357275963,0.07602715492248535,0.032703645527362823,-0.177582785487175,-0.024904709309339523,0.010977414436638355,0.0055592977441847324,-0.025214269757270813,-0.12265068292617798,0.0014498938107863069,0.018181225284934044,0.03341200575232506,0.06999419629573822,0.059854235500097275,-0.05943475291132927,-0.08360697329044342,-0.03450407087802887,-0.038751114159822464,-0.013626202940940857,0.018293287605047226,-0.016445355489850044,0.033392999321222305,-0.008560280315577984,-0.039316821843385696,0.03125801309943199,0.039030950516462326,-0.04574599862098694,-0.005226390901952982,0.03807167708873749,0.018713027238845825,-0.023213233798742294,-0.043522272258996964,-0.010904943570494652,0.03589881211519241,-0.042953163385391235,-0.011192410252988338,0.01592235639691353,0.04153991490602493,-0.03193386271595955,0.043247517198324203,-0.020294398069381714,0.03478541970252991,0.004709641449153423,-0.0032378253526985645,-0.037522319704294205,0.037159036844968796,-0.0011720568872988224,0.01876489445567131,-0.04897540062665939,0.011741788126528263,-0.019041873514652252,0.03405849635601044,0.1293327659368515,0.0719461664557457,0.050756413489580154,-0.06462930142879486,-0.09036552160978317,0.0014721672050654888,0.03857288509607315,0.03387927636504173,-0.1628280133008957,-0.055533405393362045,-0.0031501983758062124,0.08651567250490189,-0.026975790038704872,0.008470015600323677,0.04696488380432129,-0.039461199194192886,-0.0681789293885231,-0.10084611922502518,-0.03809768334031105,0.03687046095728874,0.03221690654754639,-0.15709654986858368,0.02779453434050083,-0.08423523604869843,-0.025122513994574547,0.0468706414103508,-0.045556917786598206,0.05711253359913826,-0.07008305191993713,0.04352468624711037,0.07623915374279022,-0.029742660000920296,-0.03879767656326294,-0.03206691890954971,0.00099301862064749,0.020567726343870163,-0.18526753783226013,0.06985180824995041,-0.02306346409022808,-0.04760942980647087,0.0008373683667741716,0.013320484198629856,-0.06447557359933853,0.1532839685678482,-0.02132510393857956,0.000624941021669656,-0.012086640112102032,0.04150516539812088,-0.10630349069833755,-0.11771956831216812,0.10964170843362808,0.11855063587427139,-0.05492841824889183,-0.12265124171972275,-0.013650073669850826,-0.042997632175683975,0.1232241615653038,-0.05130241438746452,-0.03910118341445923,0.04005811735987663,-0.07019281387329102,0.030701708048582077,-0.09084367007017136,-0.06772774457931519,0.12548194825649261,-0.002474552486091852,0.003037292044609785,-0.06553137302398682,-0.09227147698402405,0.25082674622535706,-0.004522386938333511,0.02159438654780388,0.000314328441163525,-0.016085540875792503,0.0991031602025032,-0.09749236702919006,-0.14696337282657623,-0.030707785859704018,-0.02147599868476391,-0.1240241602063179,-0.16688896715641022,0.13324935734272003,0.2793910503387451,-0.05263131111860275,0.031199166551232338,-0.044293951243162155,0.04132400453090668,0.05083317682147026,0.16215603053569794,-0.0967807024717331,-0.12719060480594635,0.046982645988464355,-0.0193992517888546,0.012496969662606716,0.1668063849210739,0.169164776802063,0.03404519334435463,-0.004374309908598661,0.007238368503749371,-0.04902444779872894,0.004393924959003925,0.032803572714328766,-0.04649868980050087,-0.058377332985401154,-0.017139121890068054,-0.045171912759542465,0.05383921042084694,0.03521707281470299,-0.15140695869922638,-0.039180975407361984,0.008543972857296467,-0.013278879225254059,-0.14925234019756317,-0.14247623085975647,-0.07234399765729904,-0.022759536281228065,0.034344013780355453,0.003798297606408596,0.07608973979949951,0.126997172832489,-0.06797320395708084,-0.11254259198904037,-0.013964023441076279,0.04267663136124611,0.033112045377492905,-0.04771628975868225,-0.089673712849617,-0.05568322911858559,0.03725958615541458,0.07612697035074234,0.05361592769622803,0.005613846238702536,-0.047836869955062866,-0.059171877801418304,-0.01617312990128994,0.0294735599309206,-0.022018956020474434,-0.02822764776647091,0.030674414709210396,-0.02887624129652977,0.0012555737048387527,0.018047306686639786,0.030307460576295853,0.02856289967894554,0.016552869230508804,-0.025496436282992363,0.028258536010980606,0.03086967207491398,0.02948298119008541,-0.04025089368224144,0.03779657930135727,0.0017249751836061478,0.015946246683597565,0.01907171495258808,-0.004544653929769993,0.028266994282603264,0.0061165099032223225,-0.036945890635252,0.03914107382297516,0.003755304031074047,-0.0013128523714840412,0.034645386040210724,-0.03018781915307045,-0.05261095613241196,-0.19036364555358887,-0.09891967475414276,0.002194054424762726,0.11645808070898056,0.16256995499134064,0.05033993721008301,0.08354216068983078,-0.017997460439801216,-0.11036214232444763,-0.07016415148973465,0.003385110292583704,-0.04575074836611748,-0.07881741225719452,-0.05983955040574074,-0.014863972552120686,-0.06325515359640121,-0.29615387320518494,-0.366931676864624,-0.13455906510353088,0.09758934378623962,0.2392480969429016,0.08367171883583069,-0.02567026950418949,0.009489346295595169,-0.030872702598571777,0.07249999046325684,0.13215690851211548,-0.08162141591310501,-0.04010375961661339,-0.10399172455072403,-0.15278255939483643,-0.19097761809825897,-0.11846541613340378,0.04730204865336418,0.202797070145607,0.09565891325473785,0.03993148356676102,0.03893697261810303,0.093850277364254,-0.02145245671272278,-0.08421505987644196,0.0009761073742993176,0.12195184826850891,0.024109577760100365,-0.08090158551931381,-0.0899452194571495,-0.05904335528612137,0.019739758223295212,0.09318042546510696,-0.04124634340405464,-0.01952221617102623,0.03215483948588371,0.04182478412985802,-0.05949850007891655,0.013273973017930984,0.09885001182556152,0.04899408668279648,-0.015133826993405819,-0.020874854177236557,-0.003863911610096693,0.03700343891978264,-0.026039600372314453,-0.021280307322740555,0.020152661949396133,-0.004205184057354927,-0.012568412348628044,0.13752825558185577,-0.0663166344165802,-0.2098151445388794,0.07378986477851868,0.021563034504652023,-0.03458313271403313,-0.1034427285194397,0.044714346528053284,0.1554606407880783,-0.04121377319097519,-0.004992269445210695,0.004575775470584631,-0.0007590458844788373,0.06147998198866844,0.2210577130317688,-0.057208869606256485,-0.11173462122678757,0.14091208577156067,0.1376199722290039,0.1324407011270523,-0.017472533509135246,0.010397003963589668,0.028073808178305626,0.0025259903632104397,-0.034780822694301605,0.04117994382977486,-0.05491422116756439,0.26131847500801086,0.07607133686542511,-0.07919879257678986,-0.015412775799632072,-0.04081278294324875,0.06328094005584717,-0.005595555063337088,-0.16695919632911682,0.036690641194581985,-0.04248872026801109,-0.02383929304778576,-0.07506512850522995,-0.2713336944580078,-0.08770608901977539,0.03909875452518463,-0.08131616562604904,-0.10098906606435776,0.07900799065828323,-0.030203845351934433,-0.18000903725624084,-0.02298020012676716,0.023558475077152252,0.03933076560497284,0.038164667785167694,-0.03631613403558731,-0.16648970544338226,-0.06948163360357285,-0.0673784613609314,-0.05360860377550125,-0.07888425141572952,-0.08039344102144241,-0.04089469835162163,-0.05287904664874077,-0.030594617128372192,-0.012282757088541985,0.01602696068584919,-0.04024849832057953,-0.02738211303949356,0.03800664842128754,-0.032979968935251236,-0.003742920234799385,-0.015597295016050339,0.042443856596946716,-0.007092416286468506,0.003827917156741023,0.039866648614406586,0.030654823407530785,-0.03568495064973831,0.029891565442085266,-0.04173344373703003,0.036680083721876144,-0.01611793227493763,0.006632530130445957,0.013791081495583057,0.018059680238366127,0.00007876283052610233,0.0012382952263578773,0.03615989536046982,-0.012940308079123497,0.021855346858501434,0.001139845116995275,0.032019175589084625,0.014117755927145481,-0.006373051553964615,0.02808547019958496,0.04207392409443855,0.028759488835930824,-0.01611757092177868,0.009475180879235268,0.03958766907453537,0.013033444993197918,0.018501676619052887,-0.009743569418787956,0.02311183325946331,0.03988653048872948,-0.032121870666742325,-0.03574446588754654,-0.0483902245759964,0.027163539081811905,0.042280424386262894,0.06878934800624847,0.07942123711109161,0.06745884567499161,-0.04213870316743851,-0.01640273816883564,-0.09285695105791092,-0.01233617402613163,0.007425729651004076,-0.06390725821256638,-0.15457509458065033,-0.00706482632085681,-0.043107692152261734,0.02166198194026947,0.04973956570029259,0.12020158767700195,0.027719907462596893,-0.03304270654916763,-0.04528089985251427,-0.0073990533128380775,-0.009767461568117142,-0.04345880076289177,-0.006637463346123695,-0.0562649741768837,0.06213501840829849,-0.03426264598965645,-0.08483148366212845,-0.00037271628389135003,0.04643585532903671,0.12467475980520248,0.08293329924345016,0.08261075615882874,0.03690940886735916,0.028831031173467636,0.040425702929496765,-0.008578768000006676,0.10455019772052765,0.00947399903088808,-0.1469203680753708,0.15780070424079895,-0.015469673089683056,-0.03733814135193825,-0.02081754058599472,0.06714991480112076,-0.01621624082326889,0.03786025568842888,-0.029110120609402657,-0.04183492437005043,0.08311611413955688,0.07295044511556625,-0.08942708373069763,-0.03349960595369339,0.11208683997392654,0.02372942864894867,-0.039017755538225174,-0.051799796521663666,0.05537622049450874,0.01703270711004734,0.10805178433656693,0.012157189659774303,0.008846498094499111,0.03776539862155914,-0.0064851525239646435,0.054042816162109375,0.037555795162916183,-0.12576673924922943,0.0875195860862732,0.02442299760878086,-0.13443394005298615,-0.05122391879558563,0.033715829253196716,0.20022323727607727,-0.0012743824627250433,0.034410811960697174,0.04152332991361618,0.07045205682516098,0.0993238314986229,-0.055021703243255615,-0.0693136528134346,-0.06293925642967224,-0.0402873270213604,-0.012611527927219868,0.0031131829600781202,0.17681042850017548,0.16928641498088837,-0.016313986852765083,-0.016387751325964928,-0.029844118282198906,0.09310819953680038,0.07703045010566711,0.0752200111746788,-0.1132584884762764,-0.00024599183234386146,0.12080004066228867,-0.01299043744802475,0.04881484434008598,0.13372817635536194,-0.037533748894929886,0.0048111421056091785,-0.03741681948304176,-0.037928756326436996,-0.1338571310043335,-0.012594424188137054,-0.03042806126177311,0.033174969255924225,-0.015372729860246181,0.019101817160844803,0.03726249188184738,0.05064601078629494,0.008405857719480991,-0.19427287578582764,0.017515195533633232,0.008555477485060692,-0.04795963317155838,-0.14554248750209808,-0.09381314367055893,-0.05928321182727814,0.05729176104068756,0.07014969736337662,0.11492116749286652,0.07788146287202835,0.011938384734094143,-0.19716572761535645,-0.07131047546863556,-0.03833611682057381,0.03458300977945328,-0.03504880145192146,-0.07749003171920776,-0.018233973532915115,-0.003774049924686551,0.03595545515418053,0.020614657551050186,-0.012073419988155365,-0.010103045962750912,-0.07770296931266785,-0.027628038078546524,-0.01718205027282238,0.04157201200723648,-0.02556103840470314,-0.022918831557035446,0.010858841240406036,0.02442326955497265,0.04121129587292671,0.031204551458358765,0.01864657923579216,0.042483314871788025,-0.028807977214455605,0.003341055242344737,0.024285176768898964,-0.021903570741415024,-0.034243181347846985,-0.007563617546111345,-0.022911345586180687,-0.046077094972133636,-0.020993202924728394,-0.009682223200798035,-0.023111749440431595,0.016404669731855392,0.010266447439789772,0.02328205108642578,0.030322078615427017,-0.024872835725545883,-0.0370926670730114,0.009715800173580647,-0.04879331961274147,-0.02006228081882,-0.012835453264415264,-0.01156118419021368,-0.04587918892502785,-0.053175006061792374,-0.02276688627898693,0.06662922352552414,0.027265284210443497,0.014850485138595104,-0.008474919013679028,-0.03023666702210903,0.0007227181922644377,-0.008311638608574867,-0.03810907527804375,-0.036028310656547546,-0.03846132010221481,-0.03945307061076164,0.006780193652957678,-0.12379790842533112,-0.01035481970757246,0.05333135277032852,-0.010307206772267818,0.032538846135139465,-0.011012435890734196,0.016766337677836418,0.015554620884358883,-0.03641757369041443,-0.06343714892864227,-0.1191820502281189,-0.1220618188381195,-0.12992076575756073,-0.01367280725389719,-0.009444932453334332,-0.055349044501781464,0.0539114885032177,0.08986178785562515,0.04728264361619949,0.004274194128811359,-0.015546328388154507,-0.03338261693716049,-0.012905597686767578,-0.013282151892781258,-0.109494648873806,-0.08602014929056168,-0.0006123001221567392,0.07487877458333969,0.04232135787606239,0.07669419795274734,-0.05062522739171982,0.00023829974816180766,-0.017359215766191483,-0.018490392714738846,-0.1154627725481987,-0.07267168164253235,0.015504219569265842,0.052623193711042404,-0.0951942503452301,-0.032153643667697906,-0.009664529003202915,-0.0039212461560964584,-0.07454396784305573,-0.013102334924042225,-0.037466663867235184,-0.010086596943438053,-0.008920435793697834,0.05444648489356041,-0.08083055168390274,-0.0002079374244203791,0.12731564044952393,0.009557316079735756,-0.021162239834666252,0.006422270555049181,0.018182411789894104,0.04202035814523697,-0.04947289451956749,-0.013606157153844833,0.026572175323963165,0.0012335858773440123,0.023773670196533203,-0.05881759524345398,-0.025056174024939537,-0.03986918926239014,0.0874466747045517,0.061517875641584396,-0.07547445595264435,-0.13945375382900238,-0.048855993896722794,-0.10815129429101944,-0.0054404777474701405,-0.04752257093787193,-0.003430983517318964,0.16757605969905853,-0.026705048978328705,-0.04067865386605263,-0.0785917192697525,-0.12882913649082184,0.04534033313393593,0.05379420891404152,0.15547068417072296,0.033914849162101746,0.10884841531515121,-0.029017362743616104,-0.020365405827760696,-0.03766370564699173,0.1805790811777115,0.20866434276103973,0.07532469928264618,-0.04230073094367981,-0.09966051578521729,-0.03360427916049957,-0.07987871021032333,-0.21393127739429474,-0.06297225505113602,-0.11594300717115402,-0.003471519099548459,-0.004852865822613239,0.023691119626164436,-0.11444023251533508,0.014931720681488514,0.0778699591755867,-0.0009085183846764266,-0.1023407131433487,-0.09833329916000366,-0.05687209218740463,0.1088641956448555,-0.06304878741502762,-0.11123871803283691,0.030856186524033546,-0.04259291663765907,0.0242636539041996,-0.08012884110212326,-0.09078502655029297,-0.03130820021033287,0.06353749334812164,0.03365412354469299,0.057160843163728714,0.03764178603887558,-0.09644048660993576,-0.09973526746034622,-0.02652803435921669,0.0004666730237659067,-0.033332716673612595,-0.00747721130028367,0.013359165750443935,0.02995743416249752,0.02935149520635605,0.002131788758561015,0.011926112696528435,0.016793815419077873,0.018351590260863304,0.033972032368183136,0.027143441140651703,0.03651442006230354,0.011597344651818275,-0.015456915833055973,-0.01229929830878973,-0.006609262898564339,-0.030621131882071495,0.031312961131334305,-0.013651179149746895,0.042867157608270645,-0.0034755023662000895,-0.02590480074286461,-0.028770988807082176,0.028876684606075287,0.0182507261633873,0.038655199110507965,-0.009474312886595726,0.03856142237782478,-0.032018307596445084,-0.13865305483341217,0.05399470031261444,0.0365726575255394,0.029261885210871696,0.1070551723241806,0.02202722802758217,-0.041824713349342346,-0.0634465292096138,-0.08716745674610138,-0.06821716576814651,0.03142395615577698,-0.032785579562187195,-0.1260981559753418,0.026567939668893814,-0.009752543643116951,-0.13283251225948334,-0.18152764439582825,-0.12580102682113647,-0.05435152351856232,0.04879215732216835,0.0776124969124794,-0.009673619642853737,0.052051201462745667,0.041913747787475586,0.038513027131557465,0.05186780169606209,0.09510724991559982,-0.03295858949422836,-0.13360649347305298,-0.05367074906826019,-0.0976036787033081,-0.030715636909008026,0.031041759997606277,0.07887248694896698,0.09985458850860596,0.03533444181084633,0.04532967135310173,0.027464918792247772,0.04936166852712631,-0.017079893499612808,-0.172857403755188,0.07087862491607666,0.07530984282493591,-0.07353059202432632,0.0017224133480340242,0.010606791824102402,-0.020351672545075417,0.01731191575527191,0.008796390146017075,0.01728670299053192,-0.01818229630589485,0.06391741335391998,-0.07160980999469757,0.0767350122332573,0.06968732178211212,0.05071577802300453,0.021664025261998177,-0.11578508466482162,-0.04259253293275833,0.004427226260304451,0.05754539743065834,-0.017697185277938843,-0.007404556032270193,-0.03720924258232117,-0.07976154237985611,0.0394044853746891,0.1070871353149414,-0.11499282717704773,-0.0634612888097763,-0.027179017663002014,-0.053467169404029846,-0.016451308503746986,0.013946009799838066,-0.014162992127239704,0.04857131838798523,0.025259697809815407,0.022344959899783134,-0.020918047055602074,0.0025764652527868748,0.11725571006536484,0.08232176303863525,-0.08018171787261963,0.026379067450761795,0.0159881841391325,0.031010225415229797,0.0316275879740715,0.06560704857110977,-0.00030287535628303885,-0.02059655822813511,-0.02470553107559681,-0.015485123731195927,-0.05315951630473137,0.11005152016878128,0.08739426732063293,-0.0036759262438863516,-0.10079244524240494,-0.005976048298180103,-0.007271284237504005,0.12300708144903183,-0.057734694331884384,-0.01989416405558586,-0.03430447354912758,0.011805876158177853,0.014175443910062313,-0.0412774458527565,-0.0876564010977745,-0.016893407329916954,0.0172429159283638,0.020601626485586166,0.03866460919380188,0.019519193097949028,-0.10857782512903214,-0.014832540415227413,-0.05204356089234352,-0.0218875203281641,0.04394898936152458,-0.01859981007874012,-0.02872336283326149,-0.07973556220531464,-0.018600523471832275,-0.047759540379047394,-0.03312953934073448,-0.037458982318639755,-0.07193171232938766,-0.053223662078380585,-0.013021320104598999,-0.008704698644578457,0.01646282710134983,-0.03274550288915634,0.032967161387205124,0.03724868595600128,-0.04219517111778259,0.04340699315071106,-0.04186313971877098,0.037713851779699326,-0.017697062343358994,0.0052834185771644115,0.008076213300228119,0.03449070826172829,0.037518180906772614,-0.030177047476172447,-0.04153573885560036,0.04177413880825043,0.04307430610060692,0.017567772418260574,-0.0043915011920034885,0.03840320557355881,0.029207127168774605,-0.034440089017152786,-0.016702385619282722,-0.019273221492767334,0.02857104502618313,-0.018320083618164062,0.04197997599840164],[0.027860503643751144,0.03132405877113342,0.005376140587031841,0.026270192116498947,-0.03096512146294117,0.026996631175279617,-0.006349257659167051,0.03613025322556496,-0.04222913831472397,-0.009524167515337467,-0.017074208706617355,0.032008443027734756,0.023326991125941277,-0.003202232765033841,0.007895253598690033,0.026903148740530014,-0.022159751504659653,-0.044630639255046844,0.028670089319348335,0.01832198165357113,-0.05400683730840683,-0.09367117285728455,0.03016936033964157,0.04526080936193466,-0.005158639047294855,0.04253000766038895,-0.00044146060827188194,-0.00016100102220661938,0.08000416308641434,0.0859835296869278,0.05525345727801323,0.02634703926742077,0.12841199338436127,0.06352294236421585,-0.035551656037569046,-0.020518090575933456,0.054096534848213196,0.028586536645889282,-0.034903384745121,0.03336947411298752,0.035331133753061295,0.05075114220380783,0.1636311560869217,0.06461423635482788,0.13086415827274323,0.05873027816414833,0.03614059463143349,0.18462209403514862,-0.04702730104327202,0.030265137553215027,-0.0508851557970047,0.010163787752389908,-0.032312408089637756,0.013238858431577682,-0.006025826558470726,0.0661906749010086,0.0045876819640398026,0.03621337562799454,0.07004622370004654,0.038665078580379486,-0.03947849199175835,0.08454614132642746,-0.06258667260408401,-0.008408501744270325,-0.0075273956172168255,0.038523729890584946,0.044350530952215195,-0.027088627219200134,-0.06119254231452942,0.04765777662396431,-0.05138718709349632,-0.17678506672382355,-0.04944115877151489,-0.1111893504858017,-0.02827843651175499,0.08878861367702484,0.003862842218950391,0.021678050979971886,-0.0009052841924130917,-0.030325666069984436,0.09034337103366852,0.01714785024523735,-0.1330351084470749,-0.0770806223154068,-0.016221540048718452,-0.16080518066883087,-0.05090312287211418,0.0019644785206764936,-0.03336372226476669,-0.024375170469284058,0.026699526235461235,0.024180561304092407,-0.048488158732652664,0.05068840831518173,0.10311397165060043,0.010025358758866787,-0.06612866371870041,-0.10973073542118073,0.004990145564079285,0.04098194092512131,0.05514642968773842,-0.0629114955663681,-0.06686113029718399,-0.02253170870244503,-0.03325589746236801,0.02837435156106949,0.02508266642689705,0.025991763919591904,-0.04281076043844223,0.01935006119310856,-0.033677853643894196,-0.1497134566307068,-0.2006705403327942,-0.1526421457529068,-0.08678203821182251,-0.06405047327280045,0.015147292986512184,0.007800596300512552,-0.09688712656497955,-0.10275162756443024,-0.13098131120204926,0.18926569819450378,0.13370652496814728,0.01703769899904728,0.06295081228017807,0.19333335757255554,-0.018207799643278122,-0.043515000492334366,-0.01857943832874298,-0.015594369731843472,0.025931397452950478,0.09626336395740509,0.004805502947419882,-0.07931230962276459,-0.019450074061751366,0.009391029365360737,0.04233760014176369,0.014673616737127304,-0.08929524570703506,0.012385034933686256,0.18698696792125702,0.057044483721256256,0.04164452850818634,-0.0026733861304819584,-0.02815115451812744,0.039382267743349075,-0.0530787818133831,-0.056899018585681915,-0.13372090458869934,-0.052863266319036484,-0.0053536659106612206,0.052621424198150635,0.13796366751194,0.032383665442466736,-0.029767731204628944,-0.028522968292236328,0.013969939202070236,0.019353467971086502,0.0340392030775547,0.011071392334997654,-0.01928067021071911,-0.007884949445724487,0.022671818733215332,-0.035768844187259674,0.012071879580616951,0.012831717729568481,0.0007310641231015325,0.017714662477374077,0.029561176896095276,-0.0016666221199557185,-0.039252445101737976,0.010644744150340557,0.042807675898075104,0.004846304655075073,-0.02285289764404297,-0.016365598887205124,0.008961989544332027,-0.011328740045428276,-0.004501751158386469,-0.027661675587296486,0.03122791461646557,-0.007754392921924591,-0.007141637150198221,-0.022148022428154945,0.017458077520132065,-0.013566595502197742,-0.007590989116579294,-0.042681772261857986,-0.007744685281068087,-0.07787688076496124,-0.03499545156955719,-0.02303328365087509,0.06914173811674118,0.02228742465376854,-0.028322972357273102,-0.02206912636756897,-0.03479913994669914,0.20389918982982635,0.07240664958953857,0.04668736457824707,-0.10865054279565811,-0.05879179388284683,0.1167704313993454,0.06377680599689484,0.19085077941417694,0.0918704941868782,0.14338894188404083,-0.03883504867553711,-0.03692753240466118,-0.023096220567822456,0.22649356722831726,0.0442931093275547,0.11086786538362503,0.03948327526450157,-0.02246345952153206,0.07344044744968414,0.13382412493228912,0.22838012874126434,0.12029056251049042,-0.017675671726465225,-0.03332711011171341,0.01628017984330654,-0.04141788184642792,0.029375186190009117,-0.08429854363203049,0.03723159804940224,-0.047627441585063934,0.04295283928513527,-0.035716019570827484,0.05138475075364113,0.09797918796539307,0.16327400505542755,-0.02660813368856907,0.03785170242190361,-0.03156072273850441,0.02203970216214657,0.01677033118903637,0.04883841052651405,0.1285296380519867,-0.018702076748013496,-0.17986845970153809,-0.09303690493106842,-0.13275189697742462,0.06642908602952957,0.21494339406490326,-0.12318902462720871,-0.057635046541690826,0.029621757566928864,-0.00018782519327942282,0.0596817210316658,0.022214515134692192,0.07456200569868088,0.12486585229635239,-0.2116560935974121,-0.07906989753246307,-0.006583408918231726,0.10595575720071793,0.15919069945812225,-0.15319471061229706,-0.02988547272980213,0.01600775495171547,0.008907771669328213,-0.020822562277317047,0.005696937441825867,0.006174472626298666,0.11552008241415024,-0.05361959710717201,-0.02040904015302658,0.004247470758855343,0.09192672371864319,-0.09039875864982605,-0.20329180359840393,-0.06537937372922897,-0.02636580914258957,-0.030217790976166725,-0.030226489529013634,-0.014903685078024864,-0.2330966293811798,0.05511178448796272,0.09850867092609406,0.017047695815563202,-0.09980301558971405,-0.02254153974354267,-0.13103057444095612,-0.11001250892877579,-0.038503799587488174,-0.03984077647328377,-0.0035627775359898806,0.09230049699544907,0.056629326194524765,-0.07875682413578033,0.006097855512052774,0.05186539515852928,-0.01706157810986042,-0.032532837241888046,-0.021441085264086723,-0.11871621757745743,0.10268548130989075,0.013421212323009968,-0.021414097398519516,0.03085325099527836,0.11601686477661133,0.08965554088354111,0.003455030033364892,-0.09972573071718216,-0.06154719367623329,-0.02614659070968628,-0.06746784597635269,-0.08949873596429825,0.07796580344438553,0.11642909049987793,-0.0028996870387345552,-0.03926710784435272,0.009061090648174286,-0.012315938249230385,0.0514337383210659,-0.0038818339817225933,-0.08959050476551056,-0.042328596115112305,-0.037152405828237534,0.011145920492708683,0.09585458040237427,0.06281916052103043,0.034833408892154694,0.006956660654395819,-0.0026215307880192995,0.03798403963446617,0.010250798426568508,-0.009387192316353321,0.0015850379131734371,-0.007289138622581959,0.01666398160159588,0.006389198359102011,0.02912694588303566,0.036024268716573715,-0.03620273992419243,-0.03102361038327217,0.006526565179228783,-0.006893610116094351,0.03202809393405914,-0.0006226134137250483,-0.037344589829444885,0.01969091221690178,-0.040156733244657516,0.03226650133728981,0.024428360164165497,-0.020865222439169884,-0.007012248504906893,0.040013156831264496,0.027285484597086906,-0.009482002817094326,0.03958313912153244,0.05069027096033096,0.18530479073524475,0.09615864604711533,-0.04678114876151085,-0.07055363804101944,-0.002367478096857667,0.12777116894721985,0.13761202991008759,0.10750658065080643,0.16644632816314697,0.05406901240348816,0.023339979350566864,-0.0300091952085495,0.11302007734775543,0.17345182597637177,0.09128477424383163,0.12113115191459656,0.08598397672176361,0.2186099737882614,0.2976352572441101,-0.004436980001628399,-0.08902069181203842,0.05902983248233795,0.03152928873896599,-0.005739737302064896,-0.036745067685842514,-0.0951787680387497,-0.1554747372865677,-0.0010428718524053693,-0.009260119870305061,0.07133769243955612,-0.006107843015342951,0.24448658525943756,0.2224786877632141,0.012212212197482586,-0.09049490094184875,-0.06933195143938065,0.0041500274091959,0.023225057870149612,-0.02779722772538662,-0.0545138344168663,0.1482100635766983,-0.009810284711420536,-0.04606256261467934,-0.020912745967507362,-0.24781456589698792,-0.16762791574001312,-0.03570597246289253,-0.07116630673408508,-0.043585553765296936,-0.043687932193279266,-0.014261694625020027,0.0094747981056571,-0.014690562151372433,0.0687478557229042,0.08157076686620712,-0.06998560577630997,-0.09869112074375153,-0.01619156077504158,-0.11509420722723007,0.08180432766675949,-0.10070708394050598,-0.20565035939216614,-0.003276750911027193,0.031500596553087234,0.0010453882860019803,-0.06270411610603333,-0.09913308173418045,0.018925456330180168,0.00864956434816122,-0.131857231259346,0.036282964050769806,-0.09140114486217499,-0.16778652369976044,-0.11908212304115295,-0.00488651916384697,-0.019668176770210266,-0.03255288675427437,0.012477543205022812,0.0034070757683366537,-0.11474256217479706,-0.14207611978054047,0.10955297946929932,0.03023644909262657,-0.11005855351686478,-0.1353638619184494,-0.08187732100486755,-0.09235088527202606,0.005353856831789017,0.038601454347372055,-0.04073821380734444,0.010023998096585274,0.04324137046933174,0.1397676169872284,-0.19155558943748474,-0.0005124298040755093,0.0385812446475029,-0.04682283475995064,0.02250274084508419,-0.043024007230997086,0.04520782455801964,0.012776055373251438,0.03777388110756874,-0.03333698585629463,0.031044045463204384,0.11768984794616699,0.19353513419628143,0.02044019103050232,-0.021593045443296432,0.08381335437297821,0.14855046570301056,-0.03226953744888306,0.07179223001003265,0.11866318434476852,-0.0033191025722771883,0.045042894780635834,0.011267580091953278,0.0296773798763752,0.01799994707107544,0.08422128856182098,0.06288806349039078,0.001393123879097402,0.040683407336473465,0.03932243958115578,0.08150478452444077,0.08360777050256729,-0.0069876909255981445,-0.0058366842567920685,-0.018825713545084,0.013960988260805607,-0.017388591542840004,0.0034369986969977617,-0.03907594829797745,0.010694627650082111,0.02100987173616886,-0.013241574168205261,-0.030351396650075912,-0.028564950451254845,0.014793949201703072,0.001250190194696188,0.02418033592402935,-0.010562548413872719,-0.014206916093826294,-0.016935011371970177,0.035833824425935745,-0.014129111543297768,-0.023772744461894035,0.00403418205678463,0.02583570033311844,0.02321510948240757,-0.0028173380997031927,-0.031910840421915054,-0.03210163116455078,-0.012710301205515862,-0.03937024623155594,-0.03866389021277428,-0.03608671575784683,0.002071973867714405,0.036366190761327744,0.032191820442676544,-0.0218108631670475,0.030141562223434448,-0.000538970110937953,0.032928626984357834,-0.020554250106215477,-0.04099885746836662,0.023237859830260277,0.026919610798358917,0.012852735817432404,-0.033720713108778,0.013395828194916248,0.0688428282737732,0.0003227774577680975,-0.046220142394304276,0.008909204974770546,-0.01333058811724186,0.012542474083602428,0.07446777075529099,0.03677700087428093,0.056237462908029556,-0.0062407804653048515,0.018872777000069618,-0.0030751051381230354,0.222240149974823,-0.015191883780062199,0.04957065358757973,-0.09499587118625641,-0.005141566041857004,0.12665651738643646,0.07298482209444046,0.13188540935516357,0.11994284391403198,0.027615919709205627,0.007875397801399231,-0.025624357163906097,0.039991673082113266,0.08483387529850006,-0.06297915428876877,0.041698068380355835,-0.02147943340241909,-0.006740920711308718,0.0368078276515007,0.0308210551738739,0.14947821199893951,0.086959108710289,0.0195415411144495,-0.03253855183720589,-0.033122580498456955,0.02303508296608925,-0.09232637286186218,-0.012904959730803967,0.09816105663776398,0.0008260839385911822,-0.015741314738988876,-0.08446251600980759,0.005546281114220619,-0.017494715750217438,0.02033505216240883,0.04463081806898117,-0.034051407128572464,0.028071068227291107,-0.06888367235660553,0.00486321235075593,0.049993596971035004,0.08863252401351929,-0.038572464138269424,-0.16922210156917572,-0.041231121867895126,-0.07691659033298492,0.011207042261958122,0.02773667685687542,-0.06335235387086868,-0.02976253628730774,0.041046932339668274,-0.029226338490843773,0.021537812426686287,-0.011921590194106102,0.014137690886855125,0.04922991618514061,-0.16055169701576233,-0.018974177539348602,0.06901837885379791,0.04702276736497879,-0.10155299305915833,-0.12761129438877106,-0.007606503088027239,-0.003294202499091625,-0.03346157446503639,0.005083554890006781,-0.014916421845555305,-0.031444795429706573,0.022792531177401543,0.04362427070736885,0.03295126184821129,-0.04095253348350525,0.026604916900396347,-0.16417838633060455,-0.19170500338077545,-0.03037671372294426,-0.038811713457107544,-0.04564680531620979,-0.0496470145881176,-0.06859537959098816,-0.16703587770462036,0.08529836684465408,0.08545152097940445,-0.07357635349035263,0.01066577062010765,-0.0759846493601799,-0.09082479774951935,-0.03448888659477234,-0.0041854665614664555,0.025736039504408836,-0.008672952651977539,0.0531441867351532,-0.01296744029968977,-0.060160525143146515,-0.06930337101221085,-0.03657173365354538,0.004042997024953365,0.029125267639756203,-0.05391734838485718,-0.026124903932213783,0.1201215460896492,-0.021222569048404694,-0.009823184460401535,0.02514064311981201,0.10826297849416733,0.04347013309597969,0.013962328433990479,-0.0835183709859848,-0.08051514625549316,-0.10798872262239456,-0.025164250284433365,-0.024140119552612305,0.16472595930099487,0.013500435277819633,-0.011261342093348503,-0.01342807337641716,-0.002575700869783759,0.017088014632463455,0.051200129091739655,-0.04397023096680641,-0.05141391605138779,-0.054086651653051376,-0.07268869876861572,0.06070331484079361,0.10210039466619492,0.012325012125074863,0.04107949882745743,0.01633286289870739,0.033061228692531586,0.040794968605041504,-0.011247985064983368,0.014581267721951008,0.005625580903142691,0.006601401604712009,-0.021966328844428062,-0.022020915523171425,-0.005426269024610519,-0.015224486589431763,-0.007418821565806866,-0.04036279767751694,0.024827538058161736,0.04532318934798241,-0.015023312531411648,0.045786302536726,0.0020943915005773306,0.025055937469005585,-0.004478400107473135,-0.01700306311249733,0.02123599499464035,0.02003161609172821,0.030636893585324287,0.010866472497582436,0.03425649553537369,-0.01119289267808199,0.0305402260273695,0.016393810510635376,-0.006651266943663359,-0.012285717763006687,-0.03457501530647278,-0.0028025503270328045,-0.019948339089751244,-0.06233491376042366,-0.08875567466020584,0.05153658241033554,0.00045304137165658176,0.04802025109529495,0.04032162204384804,0.02923109196126461,-0.028333283960819244,0.010294065810739994,0.0002740552299655974,0.06445948034524918,0.034919559955596924,0.06466950476169586,0.11623776704072952,-0.0015783304115757346,0.04409581050276756,-0.01888778619468212,-0.021466128528118134,0.0019547552801668644,0.012978526763617992,0.04489323869347572,0.04701864719390869,0.10287264734506607,0.1125265508890152,0.10434141010046005,0.007353978231549263,-0.05003158003091812,0.10577398538589478,-0.08536406606435776,-0.014959041960537434,-0.00735441455617547,0.007862940430641174,-0.019088931381702423,0.03611372411251068,-0.003268832340836525,0.08810915052890778,-0.009970646351575851,0.015618937090039253,0.03844389319419861,0.019400663673877716,-0.04852958023548126,0.01746353507041931,-0.02468712255358696,-0.025116723030805588,-0.0008650926756672561,0.043374545872211456,0.0869632214307785,0.0353567935526371,-0.034237783402204514,-0.03452270105481148,0.02388695627450943,-0.12793469429016113,-0.02600555680692196,-0.18403315544128418,0.06472238153219223,0.0775413066148758,-0.010856430046260357,-0.057877957820892334,0.0147209782153368,-0.05069885775446892,0.1043207049369812,0.015491238795220852,-0.08475147932767868,-0.01961228996515274,-0.11319927126169205,-0.053623657673597336,-0.0423147976398468,-0.034508854150772095,0.022121641784906387,-0.011192490346729755,0.024234343320131302,0.015396438539028168,-0.06114339455962181,0.07049024850130081,0.07105459272861481,0.03854786232113838,-0.07453113049268723,-0.05097168684005737,0.013718938454985619,0.004107238259166479,0.05164717137813568,-0.02255234681069851,-0.032535701990127563,-0.03910099342465401,0.04144201800227165,-0.07410203665494919,0.04208962991833687,0.06260254979133606,0.022697079926729202,0.032829400151968,-0.041815128177404404,-0.07120532542467117,-0.16862672567367554,-0.005623368080705404,-0.04523402824997902,0.04314485937356949,0.016333427280187607,-0.048311877995729446,-0.08302431553602219,-0.10395777970552444,0.008609285578131676,0.1203003004193306,0.10583977401256561,0.031483929604291916,0.046878788620233536,0.16213299334049225,-0.08617685735225677,0.013697427697479725,0.0004440390912350267,0.03866254538297653,-0.044510383158922195,0.027750836685299873,0.016729502007365227,-0.13391844928264618,-0.06680834293365479,0.03769801929593086,0.03183349594473839,0.04475307837128639,-0.031933583319187164,0.05625424161553383,0.08649991452693939,0.003975590690970421,-0.013557303696870804,-0.010943910107016563,0.008594213984906673,0.0550195537507534,-0.03550641983747482,-0.091108538210392,-0.048445697873830795,-0.09228354692459106,0.014999762177467346,0.09381464123725891,0.07948713004589081,0.018582608550786972,-0.028605544939637184,0.021449299529194832,0.025193367153406143,-0.022315451875329018,0.04271143302321434,0.003780478611588478,0.034790728241205215,-0.03830280527472496,-0.03703243285417557,0.020642224699258804,0.021862244233489037,-0.00745603209361434,0.037119701504707336,-0.008336806669831276,-0.009515311568975449,-0.0393531434237957,-0.03527630493044853,-0.028675992041826248,-0.01981370896100998,-0.0037897233851253986,0.011900866404175758,-0.0028857190627604723,-0.027625437825918198,-0.01947908289730549,0.03110845759510994,0.0342274084687233,0.04186886548995972,-0.012670359574258327,0.02656172774732113,0.05513549596071243,0.14299838244915009,-0.05896705016493797,-0.03404562920331955,-0.034399569034576416,-0.04624033346772194,-0.0027834305074065924,0.12064555287361145,0.10987212508916855,0.13704104721546173,0.02528105117380619,-0.03591432794928551,0.01601031795144081,0.08867631107568741,0.07970849424600601,-0.017430532723665237,0.07150961458683014,0.07711422443389893,0.16486360132694244,0.11548509448766708,-0.05481566861271858,0.020525164902210236,0.032828688621520996,0.011050587520003319,-0.037564702332019806,-0.01989651843905449,-0.09985434263944626,-0.07726886123418808,0.0318220816552639,0.13125351071357727,0.10851907730102539,0.04938322305679321,0.12664468586444855,0.09317325055599213,-0.005666188430041075,-0.06076722964644432,-0.0034672359470278025,-0.019605061039328575,0.02042613923549652,-0.06638862192630768,0.06981067359447479,0.11039315909147263,0.03292882442474365,-0.013671095483005047,-0.06425782293081284,-0.08306235820055008,-0.042413581162691116,-0.023058831691741943,-0.050924938172101974,0.01653422601521015,-0.021576857194304466,-0.0006786672165617347,-0.0674469992518425,-0.011127864010632038,0.04014967381954193,0.03281538933515549,-0.04821299389004707,-0.053847089409828186,-0.06605042517185211,-0.07486756145954132,-0.0010894229635596275,-0.04488668218255043,-0.08543165028095245,0.009756304323673248,0.014340126886963844,0.062126293778419495,-0.03175581991672516,-0.07855764031410217,0.037697840481996536,-0.04074723646044731,-0.05315845087170601,0.0645129531621933,-0.00365342665463686,-0.02980390004813671,0.01324465125799179,-0.086959108710289,0.01151292398571968,-0.029636213555932045,0.03114425390958786,0.03312934190034866,-0.10794783383607864,-0.021569861099123955,0.013635835610330105,0.008389979600906372,0.015230434946715832,-0.08304834365844727,-0.06960155814886093,-0.05346987023949623,-0.004267809446901083,-0.03259729966521263,-0.0019578454084694386,-0.06631473451852798,0.05538821220397949,-0.027635253965854645,-0.04392509534955025,0.06271133571863174,0.020546169951558113,-0.05001670494675636,-0.0028075005393475294,-0.06275518238544464,0.037926457822322845,-0.01396161038428545,0.02388296090066433,0.028435148298740387,-0.022144075483083725,0.06499356031417847,0.041910991072654724,0.010530385188758373,-0.06806068867444992,-0.020415978506207466,-0.04404450207948685,0.0064617362804710865,0.046132661402225494,0.06125675514340401,0.04106711223721504,0.029434828087687492,-0.027249226346611977,0.028782377019524574,0.003956002648919821,0.032960884273052216,0.024106379598379135,-0.032352909445762634,0.0026364752557128668,0.033963434398174286,0.10283137112855911,0.03072160668671131,-0.020408885553479195,0.03238906338810921,-0.028607912361621857,0.020620770752429962,-0.00462715607136488,0.01438136212527752,0.015219767577946186,-0.03340377286076546,0.007053001318126917,0.00739637203514576,-0.044652923941612244,-0.03710923716425896,0.04211295768618584,-0.012564259581267834,0.010345501825213432,0.006451810244470835,0.042188238352537155,0.03952439874410629,0.02948174625635147,-0.022581132128834724,-0.024657296016812325,-0.02231273241341114,0.014313860796391964,-0.013266690075397491,-0.036843445152044296,0.02589278109371662,0.04166708141565323,-0.03376968577504158,-0.013050911948084831],[0.003603772260248661,0.006198996677994728,0.0019982687663286924,-0.035936761647462845,-0.0053924256935715675,0.029089070856571198,-0.03545377776026726,-0.004733901936560869,-0.03623279556632042,0.01771339401602745,0.003428420750424266,0.037209443747997284,0.03785725310444832,0.034849073737859726,-0.028961148113012314,-0.03623652830719948,0.038389336317777634,0.052153944969177246,0.008090395480394363,-0.0027655023150146008,-0.04384971410036087,-0.024670187383890152,-0.009135425090789795,0.012981786392629147,-0.04295983538031578,0.02990570105612278,0.044663310050964355,-0.02505013346672058,0.007910894230008125,-0.019857484847307205,-0.007981578819453716,0.02314004860818386,0.001985292648896575,-0.04645516350865364,-0.0873367115855217,0.016106432303786278,-0.008844457566738129,-0.021887121722102165,0.014758913777768612,-0.04000158980488777,-0.027476761490106583,-0.0006050905794836581,0.012551024556159973,0.05539529770612717,0.028315410017967224,-0.051330696791410446,-0.022748885676264763,-0.08791938424110413,-0.08010303974151611,-0.000011672842447296716,-0.04347559064626694,-0.042032599449157715,0.029623376205563545,-0.01663437858223915,0.02752724103629589,0.013295785523951054,0.03999428451061249,-0.0436217375099659,-0.0009722030372358859,-0.11135934293270111,-0.008036497049033642,-0.01126935612410307,-0.022069035097956657,-0.04167604818940163,0.037775930017232895,-0.03337187319993973,0.030212003737688065,0.018335282802581787,0.015189978294074535,0.00026339199393987656,0.08088339120149612,0.12619063258171082,0.13503113389015198,0.13052240014076233,0.04605906829237938,-0.032750412821769714,0.029973104596138,-0.003183853579685092,-0.00002624856642796658,0.011646339669823647,-0.027010999619960785,-0.029871715232729912,0.06348259001970291,0.004839237779378891,0.11945340782403946,0.1333790421485901,0.0465422123670578,-0.046515487134456635,0.08104845136404037,0.04232633113861084,0.02148793824017048,0.040449220687150955,0.026819001883268356,0.10871528834104538,0.014592493884265423,0.08172571659088135,0.045392367988824844,0.013944611884653568,0.04743695259094238,0.10396446287631989,-0.01859288476407528,0.08965960890054703,0.11210250109434128,0.045526642352342606,-0.020950017496943474,-0.08350885659456253,-0.011521948501467705,0.05986824631690979,0.09659146517515182,0.09273862838745117,0.09441766887903214,0.049972113221883774,-0.061692770570516586,0.03407002612948418,-0.14891989529132843,-0.09534270316362381,-0.013966686092317104,-0.027325475588440895,-0.11809521913528442,-0.1923937350511551,-0.08420643210411072,-0.11951174587011337,-0.0672893151640892,0.01863468624651432,-0.05344885587692261,0.058276962488889694,0.03987843170762062,0.14146897196769714,0.0603630393743515,0.038373082876205444,0.005625678692013025,0.014788142405450344,-0.028565777465701103,0.04399968311190605,0.010286636650562286,-0.011757292784750462,0.02047746628522873,0.04638277366757393,0.012350509874522686,-0.01914302259683609,-0.030934622511267662,0.022966420277953148,0.005897975992411375,0.007647576276212931,0.08258237689733505,0.07048831135034561,0.01856975071132183,0.042393844574689865,0.06115753576159477,-0.03892829641699791,-0.002990538254380226,-0.006191748194396496,0.01230440754443407,0.0019362266175448895,-0.021741116419434547,0.002591045806184411,-0.04217739775776863,0.03542523831129074,0.03541652113199234,0.025679156184196472,0.022297125309705734,-0.03292642533779144,0.03291960433125496,0.04077328369021416,-0.03988422080874443,-0.030995048582553864,-0.025882825255393982,0.02401222661137581,-0.011403677985072136,0.02222919650375843,-0.03647376224398613,-0.02525978721678257,0.016431957483291626,-0.011954130604863167,0.0011123785516247153,0.03449230641126633,0.02032686211168766,-0.03522131219506264,0.035092465579509735,-0.028938334435224533,0.03050137311220169,-0.023439818993210793,-0.023731673136353493,-0.03357674553990364,0.02385246381163597,0.01226690411567688,0.08381219208240509,0.1147739514708519,0.029503632336854935,-0.015561367385089397,-0.02215876244008541,-0.09247127175331116,-0.053616151213645935,0.03152988478541374,0.029006676748394966,-0.027973201125860214,-0.031713586300611496,-0.033298708498477936,0.006466252729296684,-0.01270874310284853,0.013109929859638214,0.059075966477394104,-0.19169498980045319,-0.07254702597856522,-0.10725398361682892,-0.0924079567193985,-0.05856041982769966,-0.035828664898872375,0.016774605959653854,0.038639556616544724,-0.09613821655511856,-0.07108185440301895,-0.053489767014980316,-0.0013697404647246003,-0.01814131624996662,-0.06048830971121788,-0.16339677572250366,-0.13898368179798126,-0.16078129410743713,-0.07124509662389755,-0.039685338735580444,-0.03549041599035263,0.01359659992158413,-0.01466361340135336,-0.022769618779420853,0.1502351462841034,-0.0707588791847229,-0.05141783505678177,0.1181103065609932,-0.03794431313872337,-0.16457518935203552,-0.08929276466369629,-0.07738609611988068,0.0016107495175674558,-0.04167409986257553,-0.013790280558168888,-0.054695580154657364,0.10885772109031677,0.07000762969255447,-0.04242797940969467,0.09815856069326401,0.18847844004631042,0.24303938448429108,-0.04440702125430107,-0.17611189186573029,-0.07207808643579483,0.023696521297097206,-0.010197027586400509,0.01080261915922165,-0.005266614258289337,-0.0995551273226738,0.01650448516011238,-0.11389540135860443,0.10647466778755188,0.09880899637937546,0.08211265504360199,-0.0457473024725914,-0.027628686279058456,-0.12366726994514465,0.0754048228263855,0.03803364932537079,-0.015180389396846294,0.043693386018276215,-0.11078283935785294,0.08002646267414093,0.0465252511203289,0.16784997284412384,0.04633500427007675,0.05063769966363907,0.06587965786457062,0.04890589788556099,-0.06537257879972458,0.08442419022321701,0.0005851015448570251,0.06268631666898727,-0.010921146720647812,-0.05143869295716286,0.09174857288599014,0.10994964838027954,-0.012705981731414795,-0.034059420228004456,0.061630528420209885,-0.00849213171750307,-0.043896980583667755,-0.028394542634487152,0.018130261451005936,0.03878689929842949,0.05302785336971283,-0.013014959171414375,-0.04876410961151123,0.08522088080644608,0.019854087382555008,0.002376025076955557,0.02988426573574543,0.020162496715784073,0.0041169472970068455,-0.013831226155161858,0.10496540367603302,0.03188363462686539,0.044820282608270645,0.02647308260202408,0.08893343806266785,-0.006517372094094753,0.10750825703144073,0.07252219319343567,0.0007391200051642954,0.024304546415805817,-0.035861819982528687,-0.04215226322412491,-0.05754084512591362,-0.041664969176054,-0.006040299776941538,-0.028662893921136856,0.014539266936480999,0.03751304745674133,0.023423271253705025,0.08654022961854935,0.06919483840465546,-0.023356037214398384,0.0075071947649121284,0.03475720062851906,0.020073087885975838,0.04297575727105141,-0.0060287355445325375,-0.008250366896390915,0.014967330731451511,-0.005973785184323788,-0.038062941282987595,-0.020720578730106354,-0.005439253523945808,-0.006401874125003815,-0.036112554371356964,-0.0013071090215817094,-0.028894439339637756,-0.026107000187039375,0.03895098716020584,0.020472578704357147,-0.0059612649492919445,0.026474539190530777,0.02864491567015648,-0.0028068108949810266,-0.035297006368637085,-0.02430717647075653,-0.0002931936760433018,-0.018136899918317795,0.010942424647510052,-0.01937757059931755,-0.023048771545290947,-0.02729521133005619,0.01101354043930769,0.017855120822787285,-0.027444638311862946,0.00034193950705230236,-0.04059150815010071,0.024432145059108734,-0.012344693765044212,0.02965443581342697,-0.12380059063434601,-0.20505943894386292,-0.19302897155284882,-0.15347981452941895,-0.045310068875551224,0.01378073450177908,-0.037698011845350266,0.029164310544729233,-0.0027199166361242533,-0.028055351227521896,-0.051712516695261,0.027915451675653458,0.20270417630672455,0.07014571130275726,-0.18699589371681213,-0.09205012768507004,-0.1287604421377182,-0.09473484754562378,-0.02063162811100483,0.0020569460466504097,0.012544370256364346,0.046223778277635574,0.04534110799431801,0.09360189735889435,0.038446780294179916,-0.007183857262134552,0.11136730015277863,0.007579699158668518,-0.11298731714487076,-0.13415250182151794,-0.10631655901670456,-0.06999736279249191,0.005799591541290283,0.011562077328562737,-0.009106029756367207,0.08075124025344849,-0.008422434329986572,0.05421632155776024,-0.05911989137530327,0.07137652486562729,0.2873462736606598,0.2536998987197876,0.031597740948200226,0.02532508783042431,-0.06563521921634674,0.027496278285980225,0.005012621637433767,-0.013895575888454914,0.005591194611042738,0.011994813568890095,-0.06556125730276108,-0.025561723858118057,0.11133859306573868,0.06751330941915512,0.14908768236637115,-0.04155384749174118,-0.00832625012844801,0.1762392818927765,0.044446807354688644,0.033918194472789764,0.05438033118844032,0.08037450909614563,-0.017054641619324684,0.12118162959814072,0.17924772202968597,0.03784351050853729,0.028655733913183212,0.1185937151312828,0.3308931589126587,0.11286934465169907,-0.10648399591445923,0.059689752757549286,0.05835910141468048,0.04782339185476303,-0.011370539665222168,-0.029438788071274757,-0.07076635956764221,0.02477920614182949,0.06524648517370224,-0.05511083826422691,-0.0494491308927536,-0.028582900762557983,0.20517469942569733,0.01751706190407276,-0.01606740429997444,0.029409626498818398,0.020358797162771225,-0.0409536249935627,-0.08458675444126129,0.015597566030919552,0.0029884949326515198,-0.03341149166226387,0.08111304044723511,0.058836232870817184,-0.03466008976101875,-0.027617985382676125,0.09051434695720673,0.011806352064013481,0.03899649158120155,0.027951397001743317,0.03529048711061478,0.006414393428713083,0.06289838999509811,0.05879579484462738,0.017413783818483353,-0.04424305632710457,-0.03201299160718918,-0.053255196660757065,0.010199279524385929,-0.025524476543068886,-0.011495343409478664,0.03148167207837105,0.03872339427471161,0.013349087908864021,0.042177967727184296,0.040266815572977066,0.03907787427306175,0.0438535250723362,0.01686662621796131,0.017530029639601707,0.009243220090866089,0.030107587575912476,0.0037907275836914778,0.004923372529447079,0.03338264301419258,0.031701233237981796,-0.026655051857233047,-0.011186882853507996,0.001354580745100975,0.005186906084418297,-0.0403539203107357,0.04463200643658638,0.030885187909007072,-0.03993823379278183,-0.027132472023367882,0.005284699145704508,-0.00011509018804645166,-0.007238324731588364,-0.03811245411634445,-0.03275217115879059,0.04068223387002945,-0.013000956736505032,0.03530990332365036,-0.0006869863718748093,0.024032915011048317,0.03806571662425995,0.010014611296355724,0.014533468522131443,0.004748951643705368,0.04496954008936882,-0.040940433740615845,0.019886188209056854,-0.012737804092466831,-0.0018874768866226077,0.011254973709583282,-0.013275588862597942,-0.01777561381459236,-0.04130934178829193,-0.03755373880267143,0.0010211060289293528,-0.0436536967754364,0.012592659331858158,0.02012602798640728,-0.03462712839245796,0.01592998206615448,-0.013186478987336159,0.0066627394407987595,0.03203200176358223,0.03940076380968094,-0.0635368600487709,-0.03523079678416252,-0.07454618066549301,-0.0319194532930851,0.01456372532993555,-0.01501871645450592,-0.04097245633602142,0.03330642729997635,0.013839338906109333,-0.045120030641555786,0.02145860530436039,-0.05649357661604881,0.007441035937517881,0.0020611872896552086,-0.21139250695705414,-0.15507422387599945,-0.10436864197254181,-0.07008399069309235,-0.03079351969063282,-0.012117958627641201,-0.006087055429816246,-0.000566906004678458,-0.0804804340004921,-0.001989983022212982,0.04728706181049347,0.0858602225780487,-0.041094232350587845,-0.0808786079287529,-0.19470347464084625,-0.1313392072916031,-0.13176244497299194,-0.002596138743683696,0.031067438423633575,-0.041427742689847946,0.023088082671165466,-0.06589388102293015,0.059255585074424744,0.01750042848289013,-0.04070151224732399,0.03857412934303284,0.06364849209785461,0.021486928686499596,-0.07293907552957535,-0.020687706768512726,-0.07890728116035461,0.04288012161850929,-0.004155454691499472,-0.007892128080129623,-0.023340776562690735,0.00713332649320364,-0.006647922098636627,-0.031885143369436264,0.11195661127567291,0.12411356717348099,0.17661398649215698,-0.06697946786880493,-0.13407281041145325,0.007294139824807644,0.048988450318574905,-0.0015623226063326001,0.027859006077051163,0.005972907412797213,-0.014879120513796806,-0.010018392466008663,0.06452248990535736,0.11352863162755966,0.0776154175400734,0.08853699266910553,-0.022044001147150993,0.056556038558483124,-0.03163151443004608,0.08337260782718658,-0.03277396038174629,0.01866435632109642,-0.021189527586102486,-0.04905867949128151,0.11194721609354019,0.026974251493811607,0.07346028834581375,0.0056350138038396835,0.05649925395846367,-0.013917427510023117,-0.09072453528642654,-0.007711679209023714,0.039241183549165726,0.036393098533153534,-0.031643882393836975,-0.03308869153261185,0.0070710619911551476,0.08832304924726486,0.04288887605071068,-0.08577936887741089,-0.05727427825331688,0.0006432452355511487,-0.06029142439365387,-0.03200299292802811,-0.009419134818017483,0.027134571224451065,0.022804059088230133,0.055681031197309494,0.00013176214997656643,0.03762020915746689,0.0984029546380043,0.033526718616485596,-0.03412900120019913,0.011326971463859081,-0.0653940886259079,-0.023374075070023537,0.029010966420173645,0.02720494382083416,0.018798595294356346,-0.007490536198019981,0.05651478469371796,0.025688210502266884,0.042334482073783875,0.11288411170244217,0.015799803659319878,-0.021889694035053253,0.019832296296954155,-0.07496047765016556,0.008332164026796818,0.023756401613354683,0.02987777814269066,0.03095616213977337,-0.03232981264591217,0.033713556826114655,0.0014561235439032316,-0.006080294493585825,0.04931588098406792,0.045585062354803085,-0.018375342711806297,-0.021608255803585052,-0.02742733620107174,0.038710907101631165,0.0017330828122794628,0.024268081411719322,0.03614906221628189,0.015012583695352077,-0.0014726390363648534,0.034002721309661865,0.001482667401432991,0.04038049280643463,0.005221565719693899,-0.008933796547353268,0.0014316663146018982,-0.021041342988610268,0.007685927674174309,-0.005449843592941761,-0.03464913368225098,-0.02195129543542862,-0.03353166952729225,0.02872214838862419,0.004749874584376812,0.018127189949154854,-0.008917286992073059,-0.0276169516146183,0.005819851066917181,-0.03653385862708092,0.018836792558431625,0.037807438522577286,0.04270832613110542,0.04175475984811783,0.011979243718087673,-0.03781282156705856,-0.03051620163023472,-0.02641925774514675,0.02019519917666912,0.0393357053399086,0.014837636612355709,0.05244835838675499,0.020058806985616684,-0.0341765470802784,-0.007464987225830555,0.01568908989429474,0.016927143558859825,0.03671923279762268,-0.041220080107450485,-0.024679919704794884,-0.035457540303468704,-0.007737218402326107,-0.04009922966361046,0.01146942749619484,0.1102428063750267,-0.05307505652308464,-0.09879942238330841,-0.05020657926797867,0.0039037263486534357,-0.006754258181899786,-0.006885727401822805,0.03639080747961998,0.016433434560894966,-0.022846095263957977,0.037023864686489105,0.009378599934279919,0.004923272877931595,0.0007572764297947288,-0.01910547912120819,-0.024985486641526222,-0.03190239518880844,-0.014016358181834221,-0.019128600135445595,0.0022402696777135134,0.037018995732069016,-0.0040101222693920135,-0.03964800015091896,-0.09594906866550446,0.04734225571155548,-0.02217375673353672,-0.024522602558135986,-0.032958246767520905,-0.018897030502557755,-0.03157399222254753,0.0018999832682311535,-0.04320613667368889,0.04361698776483536,-0.025787947699427605,-0.009420395828783512,-0.02940082550048828,0.059678398072719574,-0.08533655107021332,-0.005185951944440603,0.1939425766468048,0.004421585239470005,0.14669880270957947,-0.013668892905116081,0.0031528742983937263,0.0594867542386055,0.047146834433078766,-0.004759916570037603,-0.030341720208525658,-0.004008008167147636,-0.00889310147613287,-0.04446945711970329,0.05772621929645538,0.11793852597475052,0.051739536225795746,0.013286747969686985,0.05005684867501259,0.09708248823881149,-0.00591350719332695,0.04315587878227234,-0.0220587570220232,-0.006718502379953861,0.052603937685489655,-0.10156180709600449,-0.029839087277650833,0.05403146147727966,0.020117007195949554,0.08539637178182602,0.12585686147212982,-0.006107715889811516,0.0447746142745018,0.043096911162137985,-0.026110440492630005,0.019516468048095703,-0.10887258499860764,0.04724014550447464,0.05383267253637314,0.004910954274237156,0.13298891484737396,0.014667728915810585,0.029383284971117973,-0.008814064785838127,-0.025400923565030098,-0.07187092304229736,0.0492304190993309,-0.03241259232163429,0.030854176729917526,-0.10363728553056717,-0.16162779927253723,-0.04695678874850273,-0.09197717159986496,-0.027443736791610718,-0.06856996566057205,0.044203050434589386,0.06994792073965073,0.07050946354866028,0.09622552245855331,0.040482569485902786,-0.029346821829676628,0.029391583055257797,0.05898606404662132,0.003015835303813219,0.03260834515094757,-0.013423745520412922,0.02066522091627121,0.013633030466735363,0.007054319605231285,-0.033282388001680374,0.0336739607155323,-0.0021501744631677866,0.022705264389514923,-0.018176287412643433,0.028126338496804237,0.0669742301106453,0.07485879957675934,0.040375519543886185,0.09844472259283066,-0.03095971792936325,0.04582688957452774,-0.022286010906100273,0.034759148955345154,-0.014303399249911308,-0.029942817986011505,-0.025811264291405678,0.037630707025527954,0.04553484171628952,0.029876017943024635,-0.02957143262028694,-0.018751319497823715,0.0050904396921396255,-0.03916221112012863,-0.023593584075570107,-0.03689036890864372,0.037693385034799576,0.024235961958765984,-0.0038365472573786974,0.02320399507880211,0.03093111515045166,0.019080806523561478,0.0027290629222989082,0.01797810010612011,0.043723735958337784,-0.04447794705629349,0.025527242571115494,0.039012983441352844,0.0006684603285975754,-0.025204285979270935,0.023754887282848358,-0.03188088536262512,0.012428688816726208,0.007324236910790205,0.009464297443628311,-0.038544926792383194,-0.028695879504084587,0.04011784493923187,0.04746613651514053,-0.0006888008210808039,-0.11786925047636032,-0.07985380291938782,-0.05093782767653465,-0.06667643785476685,-0.031942158937454224,-0.0051080347038805485,-0.035850778222084045,0.009913849644362926,-0.04063458740711212,-0.04780110344290733,-0.01741361990571022,-0.03047197312116623,0.09134563058614731,0.045393601059913635,-0.13759298622608185,-0.10029749572277069,-0.03674698248505592,-0.08202115446329117,-0.012948163785040379,0.028779637068510056,-0.0356016606092453,-0.039125707000494,-0.002797553548589349,0.03954555466771126,0.021343251690268517,-0.06441788375377655,0.04730016365647316,-0.04478761926293373,-0.10287313163280487,-0.076183021068573,-0.07893362641334534,-0.044873397797346115,0.019028551876544952,0.024013623595237732,-0.014979583211243153,0.058650240302085876,0.032182492315769196,-0.017120877280831337,-0.08094865828752518,0.0703774243593216,0.046254806220531464,0.056649163365364075,0.06637104600667953,0.022401519119739532,-0.006137516815215349,0.009462803602218628,-0.03754783421754837,-0.02712196856737137,0.055713847279548645,-0.03799809142947197,-0.0676417127251625,0.01691044494509697,0.030090486630797386,0.0958610251545906,0.03595390543341637,-0.02872895635664463,0.045398637652397156,0.04934055358171463,0.044448595494031906,-0.028590667992830276,0.02910083718597889,0.013302570208907127,-0.026982933282852173,0.08271560072898865,0.062480997294187546,0.08903145790100098,0.028871100395917892,0.07107141613960266,0.08066848665475845,0.0514029823243618,0.02461552619934082,-0.03311392292380333,0.007986214943230152,0.01154157891869545,-0.06207013875246048,-0.0392894521355629,-0.02077956311404705,0.029719153419137,0.0135049382224679,-0.036008935421705246,-0.0033237237948924303,0.008417935110628605,0.044266827404499054,0.017272530123591423,0.03688204288482666,0.017978187650442123,0.04000873863697052,0.025367487221956253,-0.03165096044540405,0.03431035205721855,0.008635683916509151,0.03326723724603653,0.045731138437986374,0.014051108621060848,-0.04274291917681694,0.06411473453044891,0.019314277917146683,-0.036169394850730896,-0.008977754972875118,0.02422618493437767,0.060016557574272156,-0.014070176519453526,0.019538022577762604,0.03470490872859955,0.0008323105284944177,-0.004973547998815775,-0.0034506339579820633,0.02466430887579918,-0.011055313050746918,0.017876703292131424,-0.0239381343126297,0.03875024989247322,-0.0022897878661751747,0.04714985564351082,-0.028483154252171516,0.06206759437918663,-0.01821167953312397,-0.015856457874178886,0.008252168074250221,-0.014298712834715843,-0.03984467312693596,-0.011486295610666275,0.04416864737868309,0.03630769997835159,-0.0034371712245047092,-0.039190128445625305,0.02934175170958042,-0.03565916419029236,-0.006719202268868685,0.021530048921704292,0.029998106881976128,0.03156108036637306,-0.0019863632041960955,0.008005110546946526,0.02276880107820034,-0.013373713940382004,-0.040817148983478546,0.004200355615466833,-0.03143921121954918,-0.0038813333958387375,-0.03587086498737335,0.022780783474445343,0.014108531177043915,0.021136043593287468,0.03811449557542801,-0.004073963966220617,0.02841130830347538,-0.01342416275292635,-0.009893528185784817,0.027321599423885345]],"b":[-0.13365036249160767,0.055742621421813965,0.07790786772966385]}]};